{"learner":{"attributes":{"scikit_learn":"{\"_estimator_type\": \"regressor\"}"},"feature_names":["bedrooms","bathrooms","parking_spaces","area_util","area_total","condominium_fee","has_pool","has_bbq","has_playground","has_sauna","has_party_room","has_sports_court","has_24h_security","has_laundry","has_closet","has_office","has_pantry","property_type"],"feature_types":["int","int","int","float","float","float","i","i","i","i","i","i","i","i","i","i","i","c"],"gradient_booster":{"model":{"cats":{"enc":[{"offsets":[],"values":[]},{"offsets":[],"values":[]},{"offsets":[],"values":[]},{"offsets":[],"values":[]},{"offsets":[],"values":[]},{"offsets":[],"values":[]},{"offsets":[],"values":[]},{"offsets":[],"values":[]},{"offsets":[],"values":[]},{"offsets":[],"values":[]},{"offsets":[],"values":[]},{"offsets":[],"values":[]},{"offsets":[],"values":[]},{"offsets":[],"values":[]},{"offsets":[],"values":[]},{"offsets":[],"values":[]},{"offsets":[],"values":[]},{"offsets":[0,11,15],"values":[65,112,97,114,116,97,109,101,110,116,111,67,97,115,97]}],"feature_segments":[0,0,0,0,0,0,0,0,0,0,0,0,0,0,0,0,0,0,2],"sorted_idx":[0,1]},"gbtree_model_param":{"num_parallel_tree":"1","num_trees":"140"},"iteration_indptr":[0,1,2,3,4,5,6,7,8,9,10,11,12,13,14,15,16,17,18,19,20,21,22,23,24,25,26,27,28,29,30,31,32,33,34,35,36,37,38,39,40,41,42,43,44,45,46,47,48,49,50,51,52,53,54,55,56,57,58,59,60,61,62,63,64,65,66,67,68,69,70,71,72,73,74,75,76,77,78,79,80,81,82,83,84,85,86,87,88,89,90,91,92,93,94,95,96,97,98,99,100,101,102,103,104,105,106,107,108,109,110,111,112,113,114,115,116,117,118,119,120,121,122,123,124,125,126,127,128,129,130,131,132,133,134,135,136,137,138,139,140],"tree_info":[0,0,0,0,0,0,0,0,0,0,0,0,0,0,0,0,0,0,0,0,0,0,0,0,0,0,0,0,0,0,0,0,0,0,0,0,0,0,0,0,0,0,0,0,0,0,0,0,0,0,0,0,0,0,0,0,0,0,0,0,0,0,0,0,0,0,0,0,0,0,0,0,0,0,0,0,0,0,0,0,0,0,0,0,0,0,0,0,0,0,0,0,0,0,0,0,0,0,0,0,0,0,0,0,0,0,0,0,0,0,0,0,0,0,0,0,0,0,0,0,0,0,0,0,0,0,0,0,0,0,0,0,0,0,0,0,0,0,0,0],"trees":[{"base_weights":[-1.1826537E2,-7.934064E2,2.6819175E3,-9.655259E2,3.2452694E1,1.2255001E3,3.4807822E3,-1.0495273E3,-2.9262238E2,-1.4951463E2,5.7295807E2,-9.02837E-1,1.2758467E3,5.7014374E2,1.24843315E2,-4.3678654E1,-8.765563E2,-5.494403E2,9.188902E1,-2.6676382E2,8.5380714E1,-8.118711E1,7.22412E2,1.3746901E3,2.1456305E2,-4.899176E0,2.8873447E1,-3.125656E1,-1.6338121E2,-5.877319E2,6.8344486E-1,-1.5842095E1,3.779406E2,-3.451572E2,8.424709E0,2.4118372E2,-8.880624E0,-4.899176E0,1.4812752E0,8.311198E2,-2.4984975E0,4.9525208E1,2.2791054E0,-5.865799E-1,9.247025E0,-8.142748E0,2.2791054E0,-9.1856346E1,-2.3337019E1,1.4079204E1,6.8344486E-1,-4.931453E2,-1.8073811E2,1.56509075E1,2.312627E0,3.317555E1,-1.7006673E0,-7.292667E0,6.57921E1,-1.8879025E1,-1.0500676E-1,-8.767284E0,7.425251E1,-3.3184887E1,2.2791054E0,3.3572545E0,-5.865799E-1,-1.1914171E2,8.668935E0,-5.648989E1,1.0715786E0,-1.0500676E-1,-4.899176E0,6.8344486E-1,-2.743536E0],"categories":[0,0,0],"categories_nodes":[12,18,52],"categories_segments":[0,1,2],"categories_sizes":[1,1,1],"default_left":[0,0,0,0,0,0,0,0,0,0,0,0,1,0,0,0,0,0,1,0,0,0,0,0,0,0,0,0,0,0,0,0,0,0,0,0,0,0,0,0,0,0,0,0,0,0,0,0,0,0,0,0,1,0,0,0,0,0,0,0,0,0,0,0,0,0,0,0,0,0,0,0,0,0,0],"id":0,"left_children":[1,3,5,7,9,11,13,15,17,19,21,-1,23,25,-1,-1,27,29,31,33,35,37,39,41,43,-1,-1,-1,45,47,-1,-1,49,51,-1,53,-1,-1,-1,55,-1,-1,-1,-1,-1,-1,-1,57,-1,-1,-1,59,61,-1,63,-1,-1,-1,65,-1,-1,-1,67,69,-1,-1,-1,71,-1,73,-1,-1,-1,-1,-1],"loss_changes":[6.015265E8,3.6489264E7,5.553805E7,1.0791744E7,5.036176E6,1.882624E6,3.27968E6,2.353056E6,3.0434608E6,1.1577414E6,1.482356E6,0E0,1.680136E6,1.522315E6,0E0,0E0,1.078592E6,4.33659E5,2.982153E6,1.3914438E6,1.0765442E6,6.6015125E4,1.166365E6,1.08582E6,9.777444E4,0E0,0E0,0E0,1.8504939E5,4.465445E5,0E0,0E0,7.967725E4,2.6111975E5,0E0,6.336971E5,0E0,0E0,0E0,1.22568E6,0E0,0E0,0E0,0E0,0E0,0E0,0E0,1.7982223E5,0E0,0E0,0E0,2.51371E5,3.9427912E5,0E0,3.0426754E4,0E0,0E0,0E0,2.1046832E4,0E0,0E0,0E0,3.4524684E5,1.988602E4,0E0,0E0,0E0,1.2827523E4,0E0,1.9255564E4,0E0,0E0,0E0,0E0,0E0],"parents":[2147483647,0,0,1,1,2,2,3,3,4,4,5,5,6,6,7,7,8,8,9,9,10,10,12,12,13,13,16,16,17,17,18,18,19,19,20,20,21,21,22,22,23,23,24,24,28,28,29,29,32,32,33,33,35,35,39,39,47,47,51,51,52,52,54,54,58,58,62,62,63,63,67,67,69,69],"right_children":[2,4,6,8,10,12,14,16,18,20,22,-1,24,26,-1,-1,28,30,32,34,36,38,40,42,44,-1,-1,-1,46,48,-1,-1,50,52,-1,54,-1,-1,-1,56,-1,-1,-1,-1,-1,-1,-1,58,-1,-1,-1,60,62,-1,64,-1,-1,-1,66,-1,-1,-1,68,70,-1,-1,-1,72,-1,74,-1,-1,-1,-1,-1],"split_conditions":[1.6E2,8.6E1,2.03E2,2E0,1E0,3E0,2E0,5E1,6.6E1,1.12E2,9.3E1,-9.02837E-1,1E-45,3E0,1.24843315E2,-4.3678654E1,2E0,3E0,1E-45,1E0,1E0,2E0,4E0,5E0,4E0,-4.899176E0,2.8873447E1,-3.125656E1,3E0,1E0,6.8344486E-1,-1.5842095E1,2E0,2E0,8.424709E0,2E0,-8.880624E0,-4.899176E0,1.4812752E0,1.42E2,-2.4984975E0,4.9525208E1,2.2791054E0,-5.865799E-1,9.247025E0,-8.142748E0,2.2791054E0,4.6E1,-2.3337019E1,1.4079204E1,6.8344486E-1,2E0,1E-45,1.56509075E1,1.53E2,3.317555E1,-1.7006673E0,-7.292667E0,1E0,-1.8879025E1,-1.0500676E-1,-8.767284E0,3E0,4E0,2.2791054E0,3.3572545E0,-5.865799E-1,1.09E2,8.668935E0,1.32E2,1.0715786E0,-1.0500676E-1,-4.899176E0,6.8344486E-1,-2.743536E0],"split_indices":[3,3,3,2,7,0,2,3,3,3,3,0,17,0,0,0,1,0,17,6,16,0,0,2,0,0,0,0,0,13,0,0,1,2,0,2,0,0,0,3,0,0,0,0,0,0,0,3,0,0,0,1,17,0,3,0,0,0,7,0,0,0,0,0,0,0,0,3,0,3,0,0,0,0,0],"split_type":[0,0,0,0,0,0,0,0,0,0,0,0,1,0,0,0,0,0,1,0,0,0,0,0,0,0,0,0,0,0,0,0,0,0,0,0,0,0,0,0,0,0,0,0,0,0,0,0,0,0,0,0,1,0,0,0,0,0,0,0,0,0,0,0,0,0,0,0,0,0,0,0,0,0,0],"sum_hessian":[3.1E2,2.52E2,5.8E1,2.08E2,4.4E1,2.4E1,3.4E1,1.83E2,2.5E1,3.5E1,9E0,1E0,2.3E1,2E0,3.2E1,7.3E1,1.1E2,1.4E1,1.1E1,2.3E1,1.2E1,2E0,7E0,2E1,3E0,1E0,1E0,1.06E2,4E0,1.3E1,1E0,3E0,8E0,2.1E1,2E0,9E0,3E0,1E0,1E0,6E0,1E0,1.9E1,1E0,1E0,2E0,3E0,1E0,3E0,1E1,7E0,1E0,7E0,1.4E1,3E0,6E0,5E0,1E0,1E0,2E0,6E0,1E0,1.1E1,3E0,5E0,1E0,1E0,1E0,2E0,1E0,4E0,1E0,1E0,1E0,1E0,3E0],"tree_param":{"num_deleted":"0","num_feature":"18","num_nodes":"75","size_leaf_vector":"1"}},{"base_weights":[8.499903E1,-6.350162E2,3.9845579E3,-8.584451E2,8.130548E2,2.3788289E3,5.8558564E3,-1.057462E3,-5.149012E2,5.256837E2,1.2370217E3,1.3307782E2,1.5409775E3,6.185001E3,-4.863962E0,-1.0872981E3,-2.1139687E2,-5.9289734E2,2.2742033E1,2.4493648E2,2.7252453E1,1.3483126E3,-5.823632E-1,-1.6079301E2,1.9404863E3,2.2184209E2,2.0069689E1,-3.8052612E1,-3.2378E0,1.7915645E2,-2.0789904E1,-7.589475E2,-2.612955E2,-1.3820007E2,2.5463304E2,2.954276E2,-7.021523E1,5.5039284E1,1.0185444E1,-9.203913E0,2.2949617E0,7.492619E1,6.742863E2,9.374276E0,-3.1285899E0,3.0674437E1,-7.9169574E2,-3.5401825E2,2.00098E1,4.904445E0,-7.4549336E0,1.3685425E1,-4.9597306E0,3.4441644E2,-1.101911E0,-7.2804427E0,4.323814E0,1.26884415E2,3.572441E1,2.4468434E0,-1.1525608E0,-8.231801E2,-2.2689285E0,4.617474E0,-3.853249E2,1.2463628E1,1.0638767E0,8.0404625E0,-4.1936584E0,-3.569383E2,-8.922547E2,-2.3628023E0,2.2627244E0,-4.248166E2,6.966719E1,-1.56495495E1,-2.3851765E1,-9.2380286E2,-2.1638525E2,-1.5962452E1,3.819644E0,8.743087E0,-5.8094993E0,1.5691772E0,-3.0716658E0,-3.2655132E1,-3.1606326E0,-8.740895E0,-1.042522E-1],"categories":[0],"categories_nodes":[6],"categories_segments":[0],"categories_sizes":[1],"default_left":[0,0,0,0,0,0,1,0,0,0,0,0,0,0,0,0,0,0,0,0,0,0,0,0,0,0,0,0,0,0,0,0,0,0,0,0,0,0,0,0,0,0,0,0,0,0,0,0,0,0,0,0,0,0,0,0,0,0,0,0,0,0,0,0,0,0,0,0,0,0,0,0,0,0,0,0,0,0,0,0,0,0,0,0,0,0,0,0,0],"id":1,"left_children":[1,3,5,7,9,11,13,15,17,19,21,-1,23,25,-1,27,29,31,33,35,-1,37,-1,39,41,-1,-1,-1,-1,43,-1,45,47,49,51,53,55,-1,-1,-1,-1,-1,57,-1,-1,59,61,63,-1,-1,-1,-1,-1,65,-1,-1,-1,67,-1,-1,-1,69,71,-1,73,-1,-1,-1,-1,75,77,-1,-1,79,81,-1,83,85,87,-1,-1,-1,-1,-1,-1,-1,-1,-1,-1],"loss_changes":[9.1621824E8,9.193502E7,9.916774E7,1.437032E7,2.229064E6,1.8170432E7,4.446899E7,2.871872E6,4.07162E6,1.4093575E6,1.880404E6,0E0,2.013596E7,5.924416E6,0E0,2.45904E5,1.8929112E6,3.852962E6,7.270312E5,3.9583675E5,0E0,1.11114E6,0E0,2.7419112E5,4.7272E5,0E0,0E0,0E0,0E0,2.8260338E5,0E0,1.48644E6,3.4041528E6,3.6605353E5,6.4524825E5,3.2808488E5,2.5737292E5,0E0,0E0,0E0,0E0,0E0,1.197439E6,0E0,0E0,2.3697934E4,1.280964E6,6.9696925E5,0E0,0E0,0E0,0E0,0E0,2.3314625E4,0E0,0E0,0E0,3.0833575E5,0E0,0E0,0E0,3.7874E5,4.2692715E4,0E0,6.864265E5,0E0,0E0,0E0,0E0,3.5251312E5,1.00834E5,0E0,0E0,7.2251E5,4.1147075E5,0E0,4.562223E4,8.5978E4,4.722947E4,0E0,0E0,0E0,0E0,0E0,0E0,0E0,0E0,0E0,0E0],"parents":[2147483647,0,0,1,1,2,2,3,3,4,4,5,5,6,6,7,7,8,8,9,9,10,10,12,12,13,13,15,15,16,16,17,17,18,18,19,19,21,21,23,23,24,24,29,29,31,31,32,32,33,33,34,34,35,35,36,36,42,42,45,45,46,46,47,47,53,53,57,57,61,61,62,62,64,64,69,69,70,70,73,73,74,74,76,76,77,77,78,78],"right_children":[2,4,6,8,10,12,14,16,18,20,22,-1,24,26,-1,28,30,32,34,36,-1,38,-1,40,42,-1,-1,-1,-1,44,-1,46,48,50,52,54,56,-1,-1,-1,-1,-1,58,-1,-1,60,62,64,-1,-1,-1,-1,-1,66,-1,-1,-1,68,-1,-1,-1,70,72,-1,74,-1,-1,-1,-1,76,78,-1,-1,80,82,-1,84,86,88,-1,-1,-1,-1,-1,-1,-1,-1,-1,-1],"split_conditions":[2.02E2,1.42E2,3.12E2,6.1E1,4E1,2.2E2,1E-45,5.05E2,1E0,1.72E2,2E0,1.3307782E2,2.38E2,6.4E2,-4.863962E0,2E0,6.14E2,9.8E1,5E2,1E0,2.7252453E1,1E0,-5.823632E-1,2.3E2,3E2,2.2184209E2,2.0069689E1,-3.8052612E1,-3.2378E0,1E0,-2.0789904E1,6.4E1,1E0,6.4E1,8.2E1,1.6E2,1.6E2,5.5039284E1,1.0185444E1,-9.203913E0,2.2949617E0,7.492619E1,4E1,9.374276E0,-3.1285899E0,6.2E1,7.8E2,1E2,2.00098E1,4.904445E0,-7.4549336E0,1.3685425E1,-4.9597306E0,2E0,-1.101911E0,-7.2804427E0,4.323814E0,3E0,3.572441E1,2.4468434E0,-1.1525608E0,6.8E1,2E0,4.617474E0,1E3,1.2463628E1,1.0638767E0,8.0404625E0,-4.1936584E0,6.7E1,2E0,-2.3628023E0,2.2627244E0,1E0,1.06E3,-1.56495495E1,3.54E2,7.4E2,8E1,-1.5962452E1,3.819644E0,8.743087E0,-5.8094993E0,1.5691772E0,-3.0716658E0,-3.2655132E1,-3.1606326E0,-8.740895E0,-1.042522E-1],"split_indices":[3,3,3,3,5,3,17,5,6,3,1,0,3,3,0,1,5,3,5,7,0,10,0,3,3,0,0,0,0,7,0,3,7,3,3,3,3,0,0,0,0,0,5,0,0,3,5,3,0,0,0,0,0,1,0,0,0,1,0,0,0,3,1,0,5,0,0,0,0,3,1,0,0,12,5,0,5,5,3,0,0,0,0,0,0,0,0,0,0],"split_type":[0,0,0,0,0,0,1,0,0,0,0,0,0,0,0,0,0,0,0,0,0,0,0,0,0,0,0,0,0,0,0,0,0,0,0,0,0,0,0,0,0,0,0,0,0,0,0,0,0,0,0,0,0,0,0,0,0,0,0,0,0,0,0,0,0,0,0,0,0,0,0,0,0,0,0,0,0,0,0,0,0,0,0,0,0,0,0,0,0],"sum_hessian":[3.19E2,2.72E2,4.7E1,2.37E2,3.5E1,3E1,1.7E1,1.45E2,9.2E1,2.6E1,9E0,6E0,2.4E1,1.6E1,1E0,1.39E2,6E0,8E1,1.2E1,1.6E1,1E1,8E0,1E0,5E0,1.9E1,1.5E1,1E0,1.38E2,1E0,4E0,2E0,5E1,3E1,8E0,4E0,1.4E1,2E0,5E0,3E0,3E0,2E0,1.4E1,5E0,3E0,1E0,2E0,4.8E1,2.9E1,1E0,1E0,7E0,3E0,1E0,1.2E1,2E0,1E0,1E0,4E0,1E0,1E0,1E0,4.6E1,2E0,1E0,2.8E1,1.1E1,1E0,3E0,1E0,9E0,3.7E1,1E0,1E0,2.6E1,2E0,6E0,3E0,3.4E1,3E0,2.5E1,1E0,1E0,1E0,2E0,1E0,3.3E1,1E0,2E0,1E0],"tree_param":{"num_deleted":"0","num_feature":"18","num_nodes":"89","size_leaf_vector":"1"}},{"base_weights":[1.794747E2,-5.472498E2,3.39419E3,-8.663268E2,4.0951028E2,2.308699E3,5.9390635E3,-9.299822E2,-8.5390816E1,2.1662141E2,6.8920906E1,3.8943374E3,1.7610524E3,7.141959E3,5.2026074E2,-3.996757E1,-7.5719696E2,-2.9374075E2,2.7775177E2,3.1928613E2,-4.7097537E2,1.464879E2,1.0575927E1,1.1775793E1,2.0525432E3,2.7071388E1,2.5976553E2,-4.1635165E0,2.4688694E1,-7.9799133E2,-2.496365E2,1.0331308E2,-4.4024844E2,-3.0495872E0,1.2800909E1,1.5331935E2,6.3133887E2,-1.771004E1,-1.0175834E0,-8.5409775E0,1.2156418E1,1.0638119E3,2.4986428E3,-8.12229E2,4.4777064E0,7.362961E1,-3.652091E2,6.795409E0,-3.1061022E0,-6.073734E2,1.0219618E2,-2.3953996E2,2.2959491E2,-7.95174E1,8.43483E2,3.1424484E2,6.498809E1,8.9826035E1,6.177079E0,-8.1899365E2,-1.0271014E0,-3.6956239E0,8.087149E0,-1.3874002E1,-2.9439878E-1,-2.2414072E1,-2.3458192E0,1.1015572E-3,4.290669E0,-2.7157886E2,-1.5432731E0,1.1053244E2,4.8662878E2,5.910474E1,-1.6592334E2,1.01002954E3,8.123269E1,-1.9892714E1,2.7341219E1,-6.097925E2,-3.249238E1,-8.45971E-1,-1.03785715E1,5.3851696E1,1.1057171E1,6.2832E2,-6.5281825E0,-2.7981577E0,5.2876863E0,-9.226783E0,2.246461E0,3.8183125E1,5.87947E-1,-1.0398876E1,1.19402075E1,3.399793E0,-8.192754E1,-6.8048517E2,-8.5395004E1,8.14338E0,-1.1255015E1,-1.736466E0,2.8776205E1,-3.252838E0,1.3159373E-1,-9.086919E0,-8.057328E2,-7.649505E0,9.658061E1,-5.505027E0,4.601693E1,-8.482785E2,2.7203534E0,9.167106E0,-1.0484579E2,7.729887E1,-4.1275043E0,-8.071759E-1,-3.0520142E1,3.837848E-1,-4.796327E0,-8.1587356E-1,3.2646604E0],"categories":[],"categories_nodes":[],"categories_segments":[],"categories_sizes":[],"default_left":[0,0,0,0,0,0,0,0,0,0,0,0,0,0,0,0,0,0,0,0,0,0,0,0,0,0,0,0,0,0,0,0,0,0,0,0,0,0,0,0,0,0,0,0,0,0,0,0,0,0,0,0,0,0,0,0,0,0,0,0,0,0,0,0,0,0,0,0,0,0,0,0,0,0,0,0,0,0,0,0,0,0,0,0,0,0,0,0,0,0,0,0,0,0,0,0,0,0,0,0,0,0,0,0,0,0,0,0,0,0,0,0,0,0,0,0,0,0,0,0,0,0,0],"id":2,"left_children":[1,3,5,7,9,11,13,15,17,19,-1,21,23,25,27,-1,29,31,33,35,37,-1,-1,39,41,-1,-1,-1,-1,43,45,47,49,-1,-1,51,53,-1,-1,-1,-1,55,57,59,-1,61,63,-1,-1,65,67,69,71,73,75,77,-1,-1,-1,79,-1,-1,-1,-1,-1,-1,-1,-1,-1,81,-1,83,85,87,89,91,93,95,-1,97,-1,-1,-1,99,-1,101,-1,-1,-1,-1,-1,-1,-1,-1,-1,-1,103,105,107,-1,109,-1,-1,-1,-1,-1,111,-1,113,-1,115,117,-1,-1,119,121,-1,-1,-1,-1,-1,-1,-1],"loss_changes":[7.33361E8,7.977677E7,1.0702214E8,9.330064E6,1.8567344E7,1.428104E7,8.24831E7,3.354512E6,1.7401829E6,5.085943E6,0E0,4.89456E6,2.1244384E7,1.174976E6,1.1502126E6,0E0,1.527744E6,9.809116E5,4.132288E5,2.622937E6,1.0419425E5,0E0,0E0,1.1815259E6,5.578512E6,0E0,0E0,0E0,0E0,1.73236E6,6.2110494E5,1.8775062E5,1.2227832E6,0E0,0E0,1.4956799E6,3.1011815E6,0E0,0E0,0E0,0E0,8.457056E6,2.226368E6,4.3526E5,0E0,2.8969875E5,1.13962125E5,0E0,0E0,3.636E3,1.2399387E4,8.867531E3,9.508734E5,1.3183188E5,1.568574E6,2.2364775E6,0E0,0E0,0E0,1.52968E5,0E0,0E0,0E0,0E0,0E0,0E0,0E0,0E0,0E0,1.63431875E4,0E0,2.9544766E5,1.4892545E6,1.2242931E5,1.9894847E5,9.34289E5,1.0729214E6,1.17073516E5,0E0,1.475504E6,0E0,0E0,0E0,3.479674E5,0E0,1.4766845E6,0E0,0E0,0E0,0E0,0E0,0E0,0E0,0E0,0E0,0E0,1.1038266E4,1.2858E6,3.2198062E5,0E0,2.3681467E5,0E0,0E0,0E0,0E0,0E0,1.340108E6,0E0,3.3586062E5,0E0,1.4245625E5,5.50686E5,0E0,0E0,2.8120422E4,4.1205984E4,0E0,0E0,0E0,0E0,0E0,0E0,0E0],"parents":[2147483647,0,0,1,1,2,2,3,3,4,4,5,5,6,6,7,7,8,8,9,9,11,11,12,12,13,13,14,14,16,16,17,17,18,18,19,19,20,20,23,23,24,24,29,29,30,30,31,31,32,32,35,35,36,36,41,41,42,42,43,43,45,45,46,46,49,49,50,50,51,51,52,52,53,53,54,54,55,55,59,59,69,69,71,71,72,72,73,73,74,74,75,75,76,76,77,77,79,79,83,83,85,85,96,96,97,97,98,98,100,100,106,106,108,108,110,110,111,111,114,114,115,115],"right_children":[2,4,6,8,10,12,14,16,18,20,-1,22,24,26,28,-1,30,32,34,36,38,-1,-1,40,42,-1,-1,-1,-1,44,46,48,50,-1,-1,52,54,-1,-1,-1,-1,56,58,60,-1,62,64,-1,-1,66,68,70,72,74,76,78,-1,-1,-1,80,-1,-1,-1,-1,-1,-1,-1,-1,-1,82,-1,84,86,88,90,92,94,96,-1,98,-1,-1,-1,100,-1,102,-1,-1,-1,-1,-1,-1,-1,-1,-1,-1,104,106,108,-1,110,-1,-1,-1,-1,-1,112,-1,114,-1,116,118,-1,-1,120,122,-1,-1,-1,-1,-1,-1,-1],"split_conditions":[2.53E2,3E0,5.7E2,5.09E2,3E0,1E0,9E2,5E1,1E0,1E0,6.8920906E1,4.78E2,3E0,1E0,3E0,-3.996757E1,2E0,6.14E2,6.8E1,2.17E2,2E0,1.464879E2,1.0575927E1,4.07E2,3.04E2,2.7071388E1,2.5976553E2,-4.1635165E0,2.4688694E1,1E0,7E1,1E0,9.5E1,-3.0495872E0,1.2800909E1,1.3E2,8.1E1,-1.771004E1,-1.0175834E0,-8.5409775E0,1.2156418E1,1E0,5.11E2,1E0,4.4777064E0,6.4E1,1.53E2,6.795409E0,-3.1061022E0,8.1E1,1.09E2,1.03E2,2E0,7E1,8.03E2,4E0,6.498809E1,8.9826035E1,6.177079E0,5.8E1,-1.0271014E0,-3.6956239E0,8.087149E0,-1.3874002E1,-2.9439878E-1,-2.2414072E1,-2.3458192E0,1.1015572E-3,4.290669E0,7.1E1,-1.5432731E0,4E0,4E0,6.2E1,2E0,2E0,1.12E2,2.9E2,2.7341219E1,5.6E1,-3.249238E1,-8.45971E-1,-1.03785715E1,1.53E2,1.1057171E1,1.53E2,-6.5281825E0,-2.7981577E0,5.2876863E0,-9.226783E0,2.246461E0,3.8183125E1,5.87947E-1,-1.0398876E1,1.19402075E1,3.399793E0,2E0,2.1E2,3.52E2,8.14338E0,1.81E2,-1.736466E0,2.8776205E1,-3.252838E0,1.3159373E-1,-9.086919E0,4.11E2,-7.649505E0,3.7E2,-5.505027E0,1E0,1E0,2.7203534E0,9.167106E0,5.7E1,1E0,-4.1275043E0,-8.071759E-1,-3.0520142E1,3.837848E-1,-4.796327E0,-8.1587356E-1,3.2646604E0],"split_indices":[4,0,4,5,1,13,4,4,8,12,0,4,0,13,0,0,1,5,4,5,1,0,0,4,4,0,0,0,0,15,4,10,4,0,0,4,4,0,0,0,0,16,4,9,0,4,4,0,0,4,4,4,1,4,5,0,0,0,0,4,0,0,0,0,0,0,0,0,0,4,0,0,0,4,1,1,4,4,0,4,0,0,0,4,0,4,0,0,0,0,0,0,0,0,0,0,1,5,5,0,4,0,0,0,0,0,5,0,5,0,16,13,0,0,4,13,0,0,0,0,0,0,0],"split_type":[0,0,0,0,0,0,0,0,0,0,0,0,0,0,0,0,0,0,0,0,0,0,0,0,0,0,0,0,0,0,0,0,0,0,0,0,0,0,0,0,0,0,0,0,0,0,0,0,0,0,0,0,0,0,0,0,0,0,0,0,0,0,0,0,0,0,0,0,0,0,0,0,0,0,0,0,0,0,0,0,0,0,0,0,0,0,0,0,0,0,0,0,0,0,0,0,0,0,0,0,0,0,0,0,0,0,0,0,0,0,0,0,0,0,0,0,0,0,0,0,0,0,0],"sum_hessian":[3.07E2,2.53E2,5.4E1,1.9E2,6.3E1,4.3E1,1.1E1,1.75E2,1.5E1,6E1,3E0,5E0,3.8E1,8E0,3E0,6.8E1,1.07E2,1E1,5E0,5.4E1,6E0,4E0,1E0,6E0,3.2E1,1E0,7E0,1E0,2E0,9.7E1,1E1,3E0,7E0,1E0,4E0,3.9E1,1.5E1,5E0,1E0,4E0,2E0,1.4E1,1.8E1,9.6E1,1E0,3E0,7E0,2E0,1E0,5E0,2E0,5E0,3.4E1,4E0,1.1E1,1E1,4E0,1.7E1,1E0,9.5E1,1E0,2E0,1E0,6E0,1E0,4E0,1E0,1E0,1E0,3E0,2E0,2.7E1,7E0,2E0,2E0,8E0,3E0,8E0,2E0,4.2E1,5.3E1,1E0,2E0,2.5E1,2E0,6E0,1E0,1E0,1E0,1E0,1E0,7E0,1E0,1E0,2E0,2E0,6E0,3.6E1,6E0,4E0,2.1E1,2E0,4E0,5E0,1E0,1.1E1,2.5E1,3E0,3E0,4E0,1.7E1,2.4E1,1E0,1E0,2E0,1.6E1,1E0,1E0,2.3E1,1E0,1E0,2E0,1.4E1],"tree_param":{"num_deleted":"0","num_feature":"18","num_nodes":"123","size_leaf_vector":"1"}},{"base_weights":[-1.2909917E2,-8.4049567E2,2.1056045E3,-9.8009705E2,-2.0598218E2,1.0372235E3,1.03709236E2,-4.143714E1,-8.28347E2,-6.223611E2,2.5715158E2,7.4273566E2,6.660633E1,-8.393787E2,-1.5952395E0,-2.5690418E1,1.2681207E2,-4.1317398E2,5.399328E2,8.2250885E2,-6.8825424E1,-8.476636E2,-1.1147538E2,9.553121E0,-2.740457E0,-7.531028E-2,-1.5984134E1,2.0832293E1,-3.9418623E0,-6.2165513E0,8.73897E2,-7.25352E0,9.182941E1,-2.9683622E1,-2.5547898E0,-3.7811364E-3,-4.678099E0,6.234795E2,4.467525E1,4.157599E0,-2.922825E-1,7.409568E2,1.1914323E2,4.3783707E2,9.957431E2,-7.178464E0,1.056292E1,2.3521667E1,6.725436E1,3.953994E1,-6.64E-1,-6.7809586E1,7.9273305E0,1.9075897E0,-1.1034441E2,3.1192926E-1,-4.6315875E0],"categories":[0],"categories_nodes":[4],"categories_segments":[0],"categories_sizes":[1],"default_left":[0,0,0,0,1,0,0,0,0,0,0,0,0,0,0,0,0,0,0,0,0,0,0,0,0,0,0,0,0,0,0,0,0,0,0,0,0,0,0,0,0,0,0,0,0,0,0,0,0,0,0,0,0,0,0,0,0],"id":3,"left_children":[1,3,5,7,9,11,-1,-1,13,15,17,19,-1,21,-1,-1,23,25,27,29,31,33,35,-1,-1,-1,-1,-1,-1,-1,37,-1,39,-1,-1,-1,-1,41,-1,-1,-1,43,45,47,49,-1,-1,-1,51,-1,-1,53,-1,-1,55,-1,-1],"loss_changes":[5.1211498E8,2.0822064E7,6.047456E7,2.508448E6,1.0036268E7,5.046408E6,0E0,0E0,9.55296E5,2.667996E6,5.7585995E6,2.604028E6,0E0,3.94608E5,0E0,0E0,2.903149E5,1.7980412E5,1.0093955E6,2.341368E6,2.2690027E5,1.42856E5,1.4672875E4,0E0,0E0,0E0,0E0,0E0,0E0,0E0,2.78034E5,0E0,2.0017793E4,0E0,0E0,0E0,0E0,1.309645E6,0E0,0E0,0E0,8.385E3,8.292344E5,1.3048415E6,1.329566E6,0E0,0E0,0E0,2.9420153E5,0E0,0E0,6.940595E4,0E0,0E0,2.5766117E4,0E0,0E0],"parents":[2147483647,0,0,1,1,2,2,3,3,4,4,5,5,8,8,9,9,10,10,11,11,13,13,16,16,17,17,18,18,19,19,20,20,21,21,22,22,30,30,32,32,37,37,41,41,42,42,43,43,44,44,48,48,51,51,54,54],"right_children":[2,4,6,8,10,12,-1,-1,14,16,18,20,-1,22,-1,-1,24,26,28,30,32,34,36,-1,-1,-1,-1,-1,-1,-1,38,-1,40,-1,-1,-1,-1,42,-1,-1,-1,44,46,48,50,-1,-1,-1,52,-1,-1,54,-1,-1,56,-1,-1],"split_conditions":[1.34E2,2E0,2.02E2,5E1,1E-45,4E0,1.03709236E2,-4.143714E1,1E0,1.27E2,6.6E1,3E0,6.660633E1,2E0,-1.5952395E0,-2.5690418E1,1.3E2,1E0,1E0,1.42E2,1.75E2,1.25E2,1E0,9.553121E0,-2.740457E0,-7.531028E-2,-1.5984134E1,2.0832293E1,-3.9418623E0,-6.2165513E0,1E0,-7.25352E0,2E0,-2.9683622E1,-2.5547898E0,-3.7811364E-3,-4.678099E0,1E0,4.467525E1,4.157599E0,-2.922825E-1,2E0,1.6E2,1.55E2,1E0,-7.178464E0,1.056292E1,2.3521667E1,1.81E2,3.953994E1,-6.64E-1,1.63E2,7.9273305E0,1.9075897E0,2E0,3.1192926E-1,-4.6315875E0],"split_indices":[3,2,3,3,17,2,0,0,9,3,3,2,0,1,0,0,3,13,9,3,3,3,2,0,0,0,0,0,0,0,14,0,1,0,0,0,0,7,0,0,0,1,3,3,16,0,0,0,3,0,0,3,0,0,2,0,0],"split_type":[0,0,0,0,1,0,0,0,0,0,0,0,0,0,0,0,0,0,0,0,0,0,0,0,0,0,0,0,0,0,0,0,0,0,0,0,0,0,0,0,0,0,0,0,0,0,0,0,0,0,0,0,0,0,0,0,0],"sum_hessian":[3.14E2,2.4E2,7.4E1,1.95E2,4.5E1,3.7E1,3.7E1,7.1E1,1.24E2,2.3E1,2.2E1,3.3E1,4E0,1.22E2,2E0,2E1,3E0,6E0,1.6E1,3E1,3E0,1.2E2,2E0,1E0,2E0,1E0,5E0,1.5E1,1E0,1E0,2.9E1,1E0,2E0,1.19E2,1E0,1E0,1E0,2.4E1,5E0,1E0,1E0,1.8E1,6E0,1.3E1,5E0,2E0,4E0,6E0,7E0,4E0,1E0,5E0,2E0,1E0,4E0,1E0,3E0],"tree_param":{"num_deleted":"0","num_feature":"18","num_nodes":"57","size_leaf_vector":"1"}},{"base_weights":[7.6969406E1,-8.1598395E2,1.8782286E3,-8.6087646E2,7.154267E1,8.78204E2,3.5158655E3,-9.019243E2,-4.767826E2,-1.207153E2,1.8274883E1,6.0539386E2,8.804759E1,2.14492E3,4.2046553E3,-3.1733614E1,-1.6756383E0,-1.8291056E1,5.8341365E0,-2.08635E2,7.34595E1,8.277186E2,8.024776E1,7.8544174E1,-7.54805E-2,5.053164E1,1.7062282E2,4.3751645E0,-1.0493488E1,-3.530241E0,7.8792853E0,3.0623482E1,1.5028381E2,-4.5068832E2,5.189155E2,-6.47877E1,1.1672625E1,-2.2698997E1,-7.666706E1,5.95747E2,-3.9135294E0,-3.513595E0,1.0440633E0,-4.361588E0,2.1789396E0,6.689339E2,1.4492097E2,2.5822702E1,4.1739755E0,-5.9812517E0,3.1208005E2,1.643242E1,-3.3074813E0],"categories":[0,0],"categories_nodes":[9,11],"categories_segments":[0,1],"categories_sizes":[1,1],"default_left":[0,0,0,0,0,0,0,0,0,1,0,1,0,0,0,0,0,0,0,0,0,0,0,0,0,0,0,0,0,0,0,0,0,0,0,0,0,0,0,0,0,0,0,0,0,0,0,0,0,0,0,0,0],"id":4,"left_children":[1,3,5,7,9,11,13,15,17,19,-1,21,-1,23,25,-1,-1,-1,-1,27,29,31,33,-1,-1,-1,-1,-1,-1,-1,-1,-1,35,37,39,41,-1,-1,43,45,-1,-1,-1,-1,-1,47,49,-1,-1,-1,51,-1,-1],"loss_changes":[5.1392435E8,8.758016E6,1.6145914E8,1.55784E6,1.449488E6,2.596456E7,1.9672E6,1.145056E6,1.199704E6,2.7843728E5,0E0,7.431818E6,0E0,4.882752E6,1.4253824E7,0E0,0E0,0E0,0E0,4.4981912E5,2.708681E5,1.072402E6,6.454791E6,0E0,0E0,0E0,0E0,0E0,0E0,0E0,0E0,0E0,3.9535303E5,7.712815E5,9.77916E5,3.504492E4,0E0,0E0,8.985563E4,8.3273E4,0E0,0E0,0E0,0E0,0E0,8.66385E4,5.686278E5,0E0,0E0,0E0,5.518739E5,0E0,0E0],"parents":[2147483647,0,0,1,1,2,2,3,3,4,4,5,5,6,6,7,7,8,8,9,9,11,11,13,13,14,14,19,19,20,20,21,21,22,22,32,32,33,33,34,34,35,35,38,38,39,39,45,45,46,46,50,50],"right_children":[2,4,6,8,10,12,14,16,18,20,-1,22,-1,24,26,-1,-1,-1,-1,28,30,32,34,-1,-1,-1,-1,-1,-1,-1,-1,-1,36,38,40,42,-1,-1,44,46,-1,-1,-1,-1,-1,48,50,-1,-1,-1,52,-1,-1],"split_conditions":[3E0,2E0,3E0,2E0,8E0,3E0,4E0,1E0,1E0,1E-45,1.8274883E1,1E-45,8.804759E1,5E0,4E0,-3.1733614E1,-1.6756383E0,-1.8291056E1,5.8341365E0,2E0,2E0,1E0,2E0,7.8544174E1,-7.54805E-2,5.053164E1,1.7062282E2,4.3751645E0,-1.0493488E1,-3.530241E0,7.8792853E0,3.0623482E1,2E0,1E0,1E0,1E0,1.1672625E1,-2.2698997E1,4E0,1E0,-3.9135294E0,-3.513595E0,1.0440633E0,-4.361588E0,2.1789396E0,2E0,1E0,2.5822702E1,4.1739755E0,-5.9812517E0,1E0,1.643242E1,-3.3074813E0],"split_indices":[0,1,2,2,2,1,0,9,10,17,0,17,0,2,2,0,0,0,0,2,2,12,2,0,0,0,0,0,0,0,0,0,1,7,9,11,0,0,0,12,0,0,0,0,0,1,8,0,0,0,7,0,0],"split_type":[0,0,0,0,0,0,0,0,0,1,0,1,0,0,0,0,0,0,0,0,0,0,0,0,0,0,0,0,0,0,0,0,0,0,0,0,0,0,0,0,0,0,0,0,0,0,0,0,0,0,0,0,0],"sum_hessian":[3.12E2,2.1E2,1.02E2,2E2,1E1,6.7E1,3.5E1,1.76E2,2.4E1,9E0,1E0,6.2E1,5E0,1.7E1,1.8E1,1.74E2,2E0,2.3E1,1E0,6E0,3E0,4.2E1,2E1,1.6E1,1E0,6E0,1.2E1,1E0,5E0,2E0,1E0,3.8E1,4E0,9E0,1.1E1,3E0,1E0,4E0,5E0,1E1,1E0,2E0,1E0,4E0,1E0,7E0,3E0,5E0,2E0,1E0,2E0,1E0,1E0],"tree_param":{"num_deleted":"0","num_feature":"18","num_nodes":"53","size_leaf_vector":"1"}},{"base_weights":[4.4708877E0,-6.4314465E2,2.8507073E3,-9.897231E2,-1.7180096E2,2.065482E3,3.8429958E3,-3.5109684E1,-1.633517E2,-3.663061E2,5.2135504E2,2.1089377E3,1.769903E0,1.4119655E2,-5.0590644E0,-1.0130462E1,7.133862E1,-5.3880664E2,3.1282065E2,3.065888E2,3.5113495E1,7.660993E1,4.1820996E2,2.9471576E0,4.7321226E-2,-1.3875798E2,-6.4178406E2,-2.1433997E2,6.769565E2,5.346045E2,4.7234127E1,-7.493827E-2,1.7134186E1,8.692699E0,-2.3090916E2,-6.801502E2,5.801452E0,1.0927824E2,-3.2282822E2,2.6898739E1,-3.8853998E0,-1.0570661E2,3.0325914E1,1.7984357E2,-6.1354494E0,-1.6114584E1,-7.477378E1,-7.6731714E2,-2.875391E2,5.544184E0,-9.4529617E-1,-1.1974781E1,-9.9620986E-1,-7.0295663E0,5.972541E1,9.264344E0,7.755555E1,-1.7371957E2,5.324865E0,-7.882832E2,1.2387074E0,-3.5791955E0,-1.306365E1,4.3437166E0,-1.8280938E0,-2.8330072E1,3.9692514E0,9.373088E0,-9.083992E0,-2.7891855E1,-1.887513E0,-6.8857036E0,1.9264597E2,5.693864E-1,-1.7651087E0,-1.2270897E2,4.7191324E0,-7.7943634E-3,8.11157E0,-4.6928564E-1,-4.684869E0],"categories":[0],"categories_nodes":[6],"categories_segments":[0],"categories_sizes":[1],"default_left":[0,0,0,0,0,0,1,0,0,0,0,0,0,0,0,0,0,0,0,0,0,0,0,0,0,0,0,0,0,0,0,0,0,0,0,0,0,0,0,0,0,0,0,0,0,0,0,0,0,0,0,0,0,0,0,0,0,0,0,0,0,0,0,0,0,0,0,0,0,0,0,0,0,0,0,0,0,0,0,0,0],"id":5,"left_children":[1,3,5,7,9,11,13,-1,15,17,19,21,-1,-1,-1,-1,23,25,27,29,-1,-1,31,-1,-1,33,35,37,39,41,43,-1,-1,-1,45,47,-1,49,51,-1,-1,53,-1,55,-1,-1,57,59,61,-1,-1,-1,-1,-1,63,-1,65,67,-1,69,-1,71,-1,-1,-1,73,-1,75,-1,-1,-1,-1,77,-1,-1,79,-1,-1,-1,-1,-1],"loss_changes":[6.1505837E8,4.375337E7,1.76344E7,1.635536E6,1.6893324E7,3.33784E6,2.1232128E7,0E0,3.144647E5,1.1877607E7,1.7176445E6,2.764976E6,0E0,0E0,0E0,0E0,4.913115E3,2.863786E6,4.752911E6,1.3719242E6,0E0,0E0,2.1569525E5,0E0,0E0,9.6742456E5,2.322964E6,5.519352E5,1.3667835E6,3.1147235E6,5.911127E5,0E0,0E0,0E0,5.477133E5,1.164048E6,0E0,5.641728E4,2.2078688E4,0E0,0E0,1.710897E5,0E0,2.4617188E4,0E0,0E0,4.5901734E5,8.80092E5,4.1215588E5,0E0,0E0,0E0,0E0,0E0,6.779175E4,0E0,5.4206363E4,2.1403619E5,0E0,2.26856E5,0E0,4.4526494E5,0E0,0E0,0E0,9.036451E3,0E0,1.946132E5,0E0,0E0,0E0,0E0,4.5574016E4,0E0,0E0,4.175625E2,0E0,0E0,0E0,0E0,0E0],"parents":[2147483647,0,0,1,1,2,2,3,3,4,4,5,5,6,6,8,8,9,9,10,10,11,11,16,16,17,17,18,18,19,19,22,22,25,25,26,26,27,27,28,28,29,29,30,30,34,34,35,35,37,37,38,38,41,41,43,43,46,46,47,47,48,48,54,54,56,56,57,57,59,59,61,61,65,65,67,67,72,72,75,75],"right_children":[2,4,6,8,10,12,14,-1,16,18,20,22,-1,-1,-1,-1,24,26,28,30,-1,-1,32,-1,-1,34,36,38,40,42,44,-1,-1,-1,46,48,-1,50,52,-1,-1,54,-1,56,-1,-1,58,60,62,-1,-1,-1,-1,-1,64,-1,66,68,-1,70,-1,72,-1,-1,-1,74,-1,76,-1,-1,-1,-1,78,-1,-1,80,-1,-1,-1,-1,-1],"split_conditions":[1.72E2,6.1E1,3.44E2,2E0,1.27E2,3.12E2,1E-45,-3.5109684E1,2.6E2,1E0,4E1,5E0,1.769903E0,1.4119655E2,-5.0590644E0,-1.0130462E1,5.4E1,7E1,5.29E2,2E0,3.5113495E1,7.660993E1,2.03E2,2.9471576E0,4.7321226E-2,4E1,1E3,6.4E1,1E0,1.5E2,1.53E2,-7.493827E-2,1.7134186E1,8.692699E0,2.89E2,1.08E2,5.801452E0,3.72E2,1E0,2.6898739E1,-3.8853998E0,1.4E2,3.0325914E1,1.3E2,-6.1354494E0,-1.6114584E1,6.6E1,3E0,1.1E2,5.544184E0,-9.4529617E-1,-1.1974781E1,-9.9620986E-1,-7.0295663E0,1.45E2,9.264344E0,1.35E2,4.01E2,5.324865E0,7.4E2,1.2387074E0,4E1,-1.306365E1,4.3437166E0,-1.8280938E0,1.32E2,3.9692514E0,3.6E2,-9.083992E0,-2.7891855E1,-1.887513E0,-6.8857036E0,1.09E2,5.693864E-1,-1.7651087E0,6.4E1,4.7191324E0,-7.7943634E-3,8.11157E0,-4.6928564E-1,-4.684869E0],"split_indices":[3,3,3,2,3,3,17,0,5,6,5,2,0,0,0,0,3,3,5,2,0,0,3,0,0,5,5,3,9,3,3,0,0,0,5,3,0,5,9,0,0,3,0,3,0,0,3,2,3,0,0,0,0,0,3,0,3,5,0,5,0,5,0,0,0,3,0,5,0,0,0,0,3,0,0,3,0,0,0,0,0],"split_type":[0,0,0,0,0,0,1,0,0,0,0,0,0,0,0,0,0,0,0,0,0,0,0,0,0,0,0,0,0,0,0,0,0,0,0,0,0,0,0,0,0,0,0,0,0,0,0,0,0,0,0,0,0,0,0,0,0,0,0,0,0,0,0,0,0,0,0,0,0,0,0,0,0,0,0,0,0,0,0,0,0],"sum_hessian":[3.26E2,2.68E2,5.8E1,1.52E2,1.16E2,3.9E1,1.9E1,1.48E2,4E0,9.2E1,2.4E1,3.8E1,1E0,1.8E1,1E0,2E0,2E0,7.4E1,1.8E1,2.1E1,3E0,3.5E1,3E0,1E0,1E0,1.7E1,5.7E1,8E0,1E1,9E0,1.2E1,1E0,2E0,2E0,1.5E1,5.5E1,2E0,2E0,6E0,9E0,1E0,4E0,5E0,8E0,4E0,3E0,1.2E1,4.2E1,1.3E1,1E0,1E0,5E0,1E0,2E0,2E0,1E0,7E0,9E0,3E0,4.1E1,1E0,4E0,9E0,1E0,1E0,2E0,5E0,4E0,5E0,4E1,1E0,2E0,2E0,1E0,1E0,2E0,2E0,1E0,1E0,1E0,1E0],"tree_param":{"num_deleted":"0","num_feature":"18","num_nodes":"81","size_leaf_vector":"1"}},{"base_weights":[9.313656E1,-5.657149E2,3.8063218E3,-7.9682886E2,5.7103674E2,2.2508848E3,1.9098631E2,-3.528345E1,-5.492648E2,3.6539665E1,7.8170685E2,1.22071556E2,1.4388308E3,-6.629831E2,-3.009491E1,-2.4540353E2,2.5907928E2,9.395337E2,3.6428766E2,8.628676E2,7.562954E1,3.6807764E0,-6.839237E2,-3.7636713E2,6.442923E2,-3.0771722E2,-1.7926201E-1,-4.5124936E0,3.408873E2,4.4274045E2,4.3805836E1,-2.25104E0,4.8381885E2,4.3978092E1,2.3645612E2,-2.544157E1,-3.0950256E2,-7.213105E1,-3.9596344E2,2.4283703E1,1.2907671E0,-1.3408154E1,-2.8125631E1,-1.1010803E0,1.0888546E0,-7.73821E-3,1.3093601E1,2.575241E1,7.5268083E0,-3.1165996E0,6.212786E2,6.544628E1,1.2177526E1,-1.1181662E2,-3.7910013E2,5.4820256E0,-8.519197E0,-4.9156998E2,-1.6862737E2,5.6529427E-1,-1.7524216E0,2.3891317E1,-7.4399546E-2,5.84486E0,-4.2761383E1,2.9410732E1,-7.9418564E0,2.0182877E0,-1.5550555E1,-1.8478594E1,-1.0729806E0,5.504334E0,-2.635684E2,-3.1284583E0,2.0016434E0,-2.3230982E0,2.8227878E0,-9.3850154E-1,-2.7852414E2,-9.890503E-1,-1.0330434E1],"categories":[0],"categories_nodes":[9],"categories_segments":[0],"categories_sizes":[1],"default_left":[0,0,0,0,0,0,0,0,0,1,0,0,0,0,0,0,0,0,0,0,0,0,0,0,0,0,0,0,0,0,0,0,0,0,0,0,0,0,0,0,0,0,0,0,0,0,0,0,0,0,0,0,0,0,0,0,0,0,0,0,0,0,0,0,0,0,0,0,0,0,0,0,0,0,0,0,0,0,0,0,0],"id":6,"left_children":[1,3,5,7,9,11,-1,-1,13,15,17,-1,19,21,23,25,27,29,31,33,-1,-1,35,37,39,41,43,-1,45,47,-1,-1,49,-1,51,-1,53,55,57,-1,-1,-1,59,-1,-1,-1,-1,-1,-1,-1,61,63,-1,65,67,-1,-1,69,71,-1,-1,-1,-1,-1,73,75,-1,-1,-1,-1,-1,-1,77,-1,-1,-1,-1,-1,79,-1,-1],"loss_changes":[7.932275E8,7.422241E7,7.966342E7,1.0174736E7,5.390058E6,1.2968064E7,0E0,0E0,6.762376E6,1.3646454E6,9.77612E5,0E0,3.675688E6,1.80496E6,6.735992E6,1.5008919E5,5.4665656E5,1.458986E6,9.33032E5,4.060627E6,0E0,0E0,7.29968E5,2.1365E3,2.1385275E5,1.27023125E5,9.57198E3,0E0,1.29301625E5,3.8244825E5,0E0,0E0,1.226655E6,0E0,1.5986781E5,0E0,6.833525E4,3.7923947E5,4.67215E4,0E0,0E0,0E0,8.907283E3,0E0,0E0,0E0,0E0,0E0,0E0,0E0,4.4027175E5,1.3665697E5,0E0,1.8734077E5,4.1767512E5,0E0,0E0,1.12021E5,4.966449E5,0E0,0E0,0E0,0E0,0E0,5.682297E4,5.967882E4,0E0,0E0,0E0,0E0,0E0,0E0,5.7906875E3,0E0,0E0,0E0,0E0,0E0,6.97175E3,0E0,0E0],"parents":[2147483647,0,0,1,1,2,2,3,3,4,4,5,5,8,8,9,9,10,10,12,12,13,13,14,14,15,15,16,16,17,17,18,18,19,19,22,22,23,23,24,24,25,25,26,26,28,28,29,29,32,32,34,34,36,36,37,37,38,38,42,42,50,50,51,51,53,53,54,54,57,57,58,58,64,64,65,65,72,72,78,78],"right_children":[2,4,6,8,10,12,-1,-1,14,16,18,-1,20,22,24,26,28,30,32,34,-1,-1,36,38,40,42,44,-1,46,48,-1,-1,50,-1,52,-1,54,56,58,-1,-1,-1,60,-1,-1,-1,-1,-1,-1,-1,62,64,-1,66,68,-1,-1,70,72,-1,-1,-1,-1,-1,74,76,-1,-1,-1,-1,-1,-1,78,-1,-1,-1,-1,-1,80,-1,-1],"split_conditions":[2.03E2,1.08E2,4.16E2,5.1E1,1.35E2,1E0,1.9098631E2,-3.528345E1,1E0,1E-45,1.8E2,1.22071556E2,3E0,5.4E1,7E1,2E0,1E0,1.6E2,1.97E2,2.62E2,7.562954E1,3.6807764E0,1E0,5.5E1,8.2E1,1.27E2,1.09E2,-4.5124936E0,1.09E2,1E0,4.3805836E1,-2.25104E0,1E0,4.3978092E1,3.12E2,-2.544157E1,1E0,1E0,6.1E1,2.4283703E1,1.2907671E0,-1.3408154E1,1.32E2,-1.1010803E0,1.0888546E0,-7.73821E-3,1.3093601E1,2.575241E1,7.5268083E0,-3.1165996E0,2.02E2,2.65E2,1.2177526E1,6.8E1,1E0,5.4820256E0,-8.519197E0,1E0,1E0,5.6529427E-1,-1.7524216E0,2.3891317E1,-7.4399546E-2,5.84486E0,2E0,1E0,-7.9418564E0,2.0182877E0,-1.5550555E1,-1.8478594E1,-1.0729806E0,5.504334E0,6.4E1,-3.1284583E0,2.0016434E0,-2.3230982E0,2.8227878E0,-9.3850154E-1,1E0,-9.890503E-1,-1.0330434E1],"split_indices":[3,3,3,3,3,13,0,0,6,17,3,0,1,3,3,1,13,3,3,3,0,0,10,3,3,3,3,0,3,13,0,0,13,0,3,0,12,7,3,0,0,0,3,0,0,0,0,0,0,0,3,3,0,3,8,0,0,11,7,0,0,0,0,0,1,13,0,0,0,0,0,0,3,0,0,0,0,0,11,0,0],"split_type":[0,0,0,0,0,0,0,0,0,1,0,0,0,0,0,0,0,0,0,0,0,0,0,0,0,0,0,0,0,0,0,0,0,0,0,0,0,0,0,0,0,0,0,0,0,0,0,0,0,0,0,0,0,0,0,0,0,0,0,0,0,0,0,0,0,0,0,0,0,0,0,0,0,0,0,0,0,0,0,0,0],"sum_hessian":[3.17E2,2.72E2,4.5E1,2.27E2,4.5E1,2.8E1,1.7E1,1.15E2,1.12E2,1.4E1,3.1E1,6E0,2.2E1,9.1E1,2.1E1,6E0,8E0,1.9E1,1.2E1,1.7E1,5E0,2E0,8.9E1,1.5E1,6E0,4E0,2E0,1E0,7E0,1.1E1,8E0,3E0,9E0,8E0,9E0,7.6E1,1.3E1,2E0,1.3E1,5E0,1E0,2E0,2E0,1E0,1E0,1E0,6E0,1E0,1E1,2E0,7E0,6E0,3E0,6E0,7E0,1E0,1E0,6E0,7E0,1E0,1E0,6E0,1E0,2E0,4E0,4E0,2E0,1E0,6E0,5E0,1E0,1E0,6E0,3E0,1E0,1E0,3E0,1E0,5E0,1E0,4E0],"tree_param":{"num_deleted":"0","num_feature":"18","num_nodes":"81","size_leaf_vector":"1"}},{"base_weights":[2.0430878E1,-4.8355817E2,3.837981E3,-7.306364E2,3.883739E2,2.5415256E3,6.9811255E3,-9.0229987E2,-3.6872293E2,-9.247086E1,5.498633E2,6.1652107E0,9.042331E1,2.6480725E2,1.5388559E1,-3.6454594E1,-2.4714062E1,-5.711571E2,2.998417E2,4.9176556E2,-2.640189E2,1.2874934E2,7.3425824E2,1.4138565E1,-6.0193005E2,5.0199094E2,-6.7115717E0,-7.682056E-3,2.0686834E1,-4.974222E2,1.5698036E1,2.3577557E2,-7.2077413E0,2.8512005E1,-5.5695263E1,2.7783897E0,-1.7224607E0,-6.451418E2,-2.5392099E2,-9.61113E0,2.3626373E1,-6.365731E1,-2.0098297E1,1.3451636E2,-1.10735275E2,1.9687286E1,1.6514044E1,1.301566E1,-3.2937043E0,-2.326571E1,-3.7366722E1,-3.0778494E1,-2.840768E2,5.464771E0,-4.256218E0,-4.4800596E0,1.7991344E0,-2.6702795E0,8.965667E0,3.8964746E0,-2.0614845E2,-8.051363E1,8.680032E0,-7.3864326E-2,6.257489E-1,-1.7786189E0,2.0298426E-1,1.5995083E0,-2.8981655E0,-1.1994243E1,-1.1859989E1,-7.793561E0,-7.4300283E-1,7.9591556E0,-1.9006215E2,-2.5127234E0,2.0037808E0,-9.947839E0,-6.877114E1,-1.3303514E2,2.182232E0,1.0810281E0,-6.0824246E0],"categories":[0],"categories_nodes":[78],"categories_segments":[0],"categories_sizes":[1],"default_left":[0,0,0,0,0,0,0,0,0,0,0,0,0,0,0,0,0,0,0,0,0,0,0,0,0,0,0,0,0,0,0,0,0,0,0,0,0,0,0,0,0,0,0,0,0,0,0,0,0,0,0,0,0,0,0,0,0,0,0,0,0,0,0,0,0,0,0,0,0,0,0,0,0,0,0,0,0,0,1,0,0,0,0],"id":7,"left_children":[1,3,5,7,9,11,13,15,17,19,21,-1,-1,-1,-1,-1,-1,23,25,27,29,31,33,35,37,39,-1,-1,-1,41,43,45,-1,-1,47,-1,-1,49,51,53,-1,55,-1,57,59,61,-1,63,-1,-1,65,67,69,-1,-1,-1,-1,-1,-1,-1,71,73,-1,-1,-1,-1,-1,-1,-1,75,-1,-1,-1,-1,77,-1,-1,-1,79,81,-1,-1,-1],"loss_changes":[6.2446035E8,6.288991E7,8.59335E7,1.2687856E7,5.309278E6,2.33672E6,2.2763424E7,1.302888E6,1.1330825E7,2.488968E6,3.506408E6,0E0,0E0,0E0,0E0,0E0,0E0,1.147122E6,2.4475855E6,2.93748E5,1.1956814E6,9.005275E5,2.416384E6,4.3730414E4,2.5385E5,1.4516482E6,0E0,0E0,0E0,1.9676E5,2.3535458E5,8.3043525E5,0E0,0E0,2.30498E4,0E0,0E0,5.8171E5,5.2602312E4,2.206211E5,0E0,6.9337195E4,0E0,2.7934738E5,2.5542422E5,3.725819E5,0E0,5.939188E2,0E0,0E0,4.6254185E3,3.819992E4,1.4996331E5,0E0,0E0,0E0,0E0,0E0,0E0,0E0,3.5949688E3,5.67968E5,0E0,0E0,0E0,0E0,0E0,0E0,0E0,4.0389098E4,0E0,0E0,0E0,0E0,4.9694938E4,0E0,0E0,0E0,1.1526448E5,7.4337375E4,0E0,0E0,0E0],"parents":[2147483647,0,0,1,1,2,2,3,3,4,4,5,5,6,6,7,7,8,8,9,9,10,10,17,17,18,18,19,19,20,20,21,21,22,22,23,23,24,24,25,25,29,29,30,30,31,31,34,34,37,37,38,38,39,39,41,41,43,43,44,44,45,45,47,47,50,50,51,51,52,52,60,60,61,61,69,69,74,74,78,78,79,79],"right_children":[2,4,6,8,10,12,14,16,18,20,22,-1,-1,-1,-1,-1,-1,24,26,28,30,32,34,36,38,40,-1,-1,-1,42,44,46,-1,-1,48,-1,-1,50,52,54,-1,56,-1,58,60,62,-1,64,-1,-1,66,68,70,-1,-1,-1,-1,-1,-1,-1,72,74,-1,-1,-1,-1,-1,-1,-1,76,-1,-1,-1,-1,78,-1,-1,-1,80,82,-1,-1,-1],"split_conditions":[2.08E2,1.08E2,7E2,6.1E1,3E0,2.37E2,8E0,5E1,1E0,1.1E2,1.4E2,6.1652107E0,9.042331E1,2.6480725E2,1.5388559E1,-3.6454594E1,-2.4714062E1,6.4E1,8.8E1,1.09E2,1.81E2,1.32E2,2.02E2,2E0,1E0,6.6E1,-6.7115717E0,-7.682056E-3,2.0686834E1,1.12E2,1.53E2,1.27E2,-7.2077413E0,2.8512005E1,2.06E2,2.7783897E0,-1.7224607E0,1E0,1E0,1E0,2.3626373E1,5.1E1,-2.0098297E1,1.34E2,2E2,1E0,1.6514044E1,2.03E2,-3.2937043E0,-2.326571E1,2E0,6.8E1,1E0,5.464771E0,-4.256218E0,-4.4800596E0,1.7991344E0,-2.6702795E0,8.965667E0,3.8964746E0,1.81E2,1.1E2,8.680032E0,-7.3864326E-2,6.257489E-1,-1.7786189E0,2.0298426E-1,1.5995083E0,-2.8981655E0,6.8E1,-1.1859989E1,-7.793561E0,-7.4300283E-1,7.9591556E0,1.12E2,-2.5127234E0,2.0037808E0,-9.947839E0,1E-45,1.12E2,2.182232E0,1.0810281E0,-6.0824246E0],"split_indices":[3,3,4,3,0,4,0,3,6,3,3,0,0,0,0,0,0,3,4,3,4,3,3,0,10,3,0,0,0,3,3,3,0,0,3,0,0,7,12,7,0,4,0,3,4,15,0,3,0,0,0,3,7,0,0,0,0,0,0,0,3,3,0,0,0,0,0,0,0,3,0,0,0,0,4,0,0,0,17,3,0,0,0],"split_type":[0,0,0,0,0,0,0,0,0,0,0,0,0,0,0,0,0,0,0,0,0,0,0,0,0,0,0,0,0,0,0,0,0,0,0,0,0,0,0,0,0,0,0,0,0,0,0,0,0,0,0,0,0,0,0,0,0,0,0,0,0,0,0,0,0,0,0,0,0,0,0,0,0,0,0,0,0,0,1,0,0,0,0],"sum_hessian":[3.17E2,2.83E2,3.4E1,2.21E2,6.2E1,2.9E1,5E0,1.46E2,7.5E1,1.6E1,4.6E1,1E0,2.8E1,4E0,1E0,7.4E1,7.2E1,5.8E1,1.7E1,2E0,1.4E1,1.6E1,3E1,3E0,5.5E1,1.2E1,5E0,1E0,1E0,6E0,8E0,1.3E1,3E0,2.7E1,3E0,1E0,2E0,4.6E1,9E0,4E0,8E0,2E0,4E0,4E0,4E0,9E0,4E0,2E0,1E0,4.4E1,2E0,2E0,7E0,1E0,3E0,1E0,1E0,2E0,2E0,1E0,3E0,8E0,1E0,1E0,1E0,1E0,1E0,1E0,1E0,2E0,5E0,2E0,1E0,1E0,7E0,1E0,1E0,1E0,6E0,4E0,2E0,1E0,3E0],"tree_param":{"num_deleted":"0","num_feature":"18","num_nodes":"83","size_leaf_vector":"1"}},{"base_weights":[-6.3715563E0,-4.6952762E2,2.8677498E3,-6.922231E2,4.5667572E2,1.561712E3,4.925601E3,-8.1473456E2,-7.2418015E1,1.327253E2,1.0310662E3,7.145312E2,9.063146E1,1.1946533E3,5.877276E3,-8.2401196E2,3.3934433E0,-4.010725E2,3.756066E2,6.396501E0,7.192625E2,-1.0609035E2,1.1903221E3,-1.2408016E1,9.454005E2,8.227831E1,5.3003853E1,2.4369646E2,4.519684E1,-8.2791925E2,-9.5135015E-1,2.4633048E0,-2.3159509E0,-4.3046323E2,2.1506698E0,1.8732744E1,-4.1016674E1,-9.465494E1,2.5362377E1,2.7165758E1,2.6358633E0,-7.627657E-3,-4.447859E0,9.556203E0,4.5746326E1,1.1233947E3,-7.660522E0,-8.0915E-1,4.2729263E0,-3.047759E1,-5.759947E2,-4.668292E2,-1.1234368E1,-7.4065995E0,1.2838976E2,2.6081E2,-2.2007335E2,4.118339E1,1.0197207E0,-2.6031284E2,-2.989605E1,-1.7805517E1,-8.319241E1,-2.0568917E0,1.5798948E0,9.436961E0,-5.057908E0,2.0538143E1,-2.7629776E0,-8.603008E1,-3.3161966E2,1.0970457E2,-3.338397E2,-3.6936266E0,3.5517627E-1,-6.211586E0,1.2925764E2,-9.68562E0,1.3629599E2,-1.5254128E1,-8.125845E1,5.7864313E0,-1.5744025E0,-3.646355E2,1.9893792E0,2.4049446E-1,6.0332727E0,9.074993E0,2.1875692E1,-3.579678E0,6.212513E-1,-1.2610537E2,-1.5087474E1,4.4028554E0,-4.3880553E0,-2.9513733E1,1.7261724E0,2.553492E0,-2.1291628E2,4.4253373E-1,-1.6880186E0,-8.6016445E0,-1.3528298E0],"categories":[],"categories_nodes":[],"categories_segments":[],"categories_sizes":[],"default_left":[0,0,0,0,0,0,0,0,0,0,0,0,0,0,0,0,0,0,0,0,0,0,0,0,0,0,0,0,0,0,0,0,0,0,0,0,0,0,0,0,0,0,0,0,0,0,0,0,0,0,0,0,0,0,0,0,0,0,0,0,0,0,0,0,0,0,0,0,0,0,0,0,0,0,0,0,0,0,0,0,0,0,0,0,0,0,0,0,0,0,0,0,0,0,0,0,0,0,0,0,0,0,0],"id":8,"left_children":[1,3,5,7,9,11,13,15,17,19,21,23,-1,25,27,29,31,33,35,37,39,41,43,-1,45,47,-1,-1,-1,49,-1,-1,-1,51,-1,-1,53,55,-1,-1,-1,-1,-1,-1,-1,57,-1,-1,-1,-1,59,61,63,-1,65,67,69,-1,-1,71,-1,-1,73,-1,-1,-1,-1,-1,75,77,79,81,83,-1,-1,-1,85,-1,87,-1,89,-1,-1,91,-1,93,-1,-1,95,-1,-1,97,-1,-1,-1,99,-1,-1,101,-1,-1,-1,-1],"loss_changes":[4.1098618E8,5.60513E7,8.554966E7,1.6162448E7,9.492415E6,2.0870432E7,2.5693632E7,1.37636E6,6.447457E6,2.8604015E6,3.900326E6,6.943095E6,0E0,2.364576E6,2.0490464E7,4.66112E5,4.5564445E4,4.404625E5,1.3562778E6,2.8784658E6,3.776725E4,1.3138508E4,5.00162E5,0E0,5.067626E6,3.589791E4,0E0,0E0,0E0,1.332E5,0E0,0E0,0E0,3.430965E5,0E0,0E0,3.6215003E5,1.774538E6,0E0,0E0,0E0,0E0,0E0,0E0,0E0,1.003046E6,0E0,0E0,0E0,0E0,2.595376E6,2.05142E5,2.611383E4,0E0,4.180209E5,9.4588544E5,3.0631625E5,0E0,0E0,7.899579E5,0E0,0E0,1.8790992E4,0E0,0E0,0E0,0E0,0E0,3.168432E5,9.0725775E5,2.3045275E5,8.868324E4,3.3130525E5,0E0,0E0,0E0,4.4127547E4,0E0,1.3191744E5,0E0,2.5907E4,0E0,0E0,1.1263375E5,0E0,1.542419E5,0E0,0E0,1.9634371E4,0E0,0E0,2.3059489E5,0E0,0E0,0E0,7.0609634E3,0E0,0E0,9.236844E3,0E0,0E0,0E0,0E0],"parents":[2147483647,0,0,1,1,2,2,3,3,4,4,5,5,6,6,7,7,8,8,9,9,10,10,11,11,13,13,14,14,15,15,16,16,17,17,18,18,19,19,20,20,21,21,22,22,24,24,25,25,29,29,33,33,36,36,37,37,45,45,50,50,51,51,52,52,54,54,55,55,56,56,59,59,62,62,68,68,69,69,70,70,71,71,72,72,76,76,78,78,80,80,83,83,85,85,88,88,91,91,95,95,98,98],"right_children":[2,4,6,8,10,12,14,16,18,20,22,24,-1,26,28,30,32,34,36,38,40,42,44,-1,46,48,-1,-1,-1,50,-1,-1,-1,52,-1,-1,54,56,-1,-1,-1,-1,-1,-1,-1,58,-1,-1,-1,-1,60,62,64,-1,66,68,70,-1,-1,72,-1,-1,74,-1,-1,-1,-1,-1,76,78,80,82,84,-1,-1,-1,86,-1,88,-1,90,-1,-1,92,-1,94,-1,-1,96,-1,-1,98,-1,-1,-1,100,-1,-1,102,-1,-1,-1,-1],"split_conditions":[2.06E2,1.08E2,4.6E2,2E0,4E1,3.03E2,4E0,7.4E2,4.47E2,1E0,1.12E2,2.38E2,9.063146E1,1E0,5E0,1E0,8.2E1,1E0,6.67E2,5E0,3E0,1.09E2,2E0,-1.2408016E1,4.21E2,3E0,5.3003853E1,2.4369646E2,4.519684E1,6.1E1,-9.5135015E-1,2.4633048E0,-2.3159509E0,3E0,2.1506698E0,1.8732744E1,7.1E1,2E0,2.5362377E1,2.7165758E1,2.6358633E0,-7.627657E-3,-4.447859E0,9.556203E0,4.5746326E1,1E0,-7.660522E0,-8.0915E-1,4.2729263E0,-3.047759E1,7.5E1,1E0,7.1E1,-7.4065995E0,9.3E1,1.1E2,1.53E2,4.118339E1,1.0197207E0,6.4E1,-2.989605E1,-1.7805517E1,6.6E1,-2.0568917E0,1.5798948E0,9.436961E0,-5.057908E0,2.0538143E1,1.4E2,1.27E2,1.85E2,4.01E2,7.3E1,-3.6936266E0,3.5517627E-1,-6.211586E0,1.53E2,-9.68562E0,1.3E2,-1.5254128E1,4E0,5.7864313E0,-1.5744025E0,3.54E2,1.9893792E0,1.45E2,6.0332727E0,9.074993E0,1.35E2,-3.579678E0,6.212513E-1,6.8E1,-1.5087474E1,4.4028554E0,-4.3880553E0,1.32E2,1.7261724E0,2.553492E0,3.03E2,4.4253373E-1,-1.6880186E0,-8.6016445E0,-1.3528298E0],"split_indices":[3,3,3,2,5,5,2,5,5,16,3,3,0,6,2,9,3,14,5,2,2,3,2,0,3,2,0,0,0,3,0,0,0,2,0,0,3,2,0,0,0,0,0,0,0,10,0,0,0,0,3,6,3,0,3,3,3,0,0,3,0,0,3,0,0,0,0,0,3,3,3,5,3,0,0,0,3,0,3,0,2,0,0,5,0,3,0,0,3,0,0,3,0,0,0,3,0,0,5,0,0,0,0],"split_type":[0,0,0,0,0,0,0,0,0,0,0,0,0,0,0,0,0,0,0,0,0,0,0,0,0,0,0,0,0,0,0,0,0,0,0,0,0,0,0,0,0,0,0,0,0,0,0,0,0,0,0,0,0,0,0,0,0,0,0,0,0,0,0,0,0,0,0,0,0,0,0,0,0,0,0,0,0,0,0,0,0,0,0,0,0,0,0,0,0,0,0,0,0,0,0,0,0,0,0,0,0,0,0],"sum_hessian":[3.01E2,2.62E2,3.9E1,2.12E2,5E1,2.8E1,1.1E1,1.76E2,3.6E1,3.5E1,1.5E1,1.9E1,9E0,4E0,7E0,1.74E2,2E0,2.1E1,1.5E1,3.2E1,3E0,2E0,1.3E1,3E0,1.6E1,2E0,2E0,4E0,3E0,1.73E2,1E0,1E0,1E0,2E1,1E0,1E1,5E0,3.1E1,1E0,2E0,1E0,1E0,1E0,3E0,1E1,1.4E1,2E0,1E0,1E0,1.38E2,3.5E1,1.8E1,2E0,2E0,3E0,7E0,2.4E1,1.3E1,1E0,2E1,1.5E1,1.5E1,3E0,1E0,1E0,2E0,1E0,1E0,6E0,1.4E1,1E1,3E0,1.7E1,2E0,1E0,2E0,4E0,7E0,7E0,5E0,5E0,2E0,1E0,1.6E1,1E0,2E0,2E0,1E0,6E0,4E0,1E0,6E0,1E1,1E0,1E0,2E0,4E0,2E0,4E0,1E0,1E0,2E0,2E0],"tree_param":{"num_deleted":"0","num_feature":"18","num_nodes":"103","size_leaf_vector":"1"}},{"base_weights":[1.9673335E2,-4.3265884E2,3.1964426E3,-6.207372E2,3.4208817E2,1.7676686E3,5.696922E3,-7.840692E2,-2.6728665E2,4.4572903E1,7.9046594E2,6.410883E1,3.8838928E2,7.2228423E3,1.6346781E3,-2.9916094E1,-5.2942175E2,-6.2438477E2,-4.9939224E1,5.840151E2,-1.3914891E2,9.750922E2,-1.3481517E2,-2.9420905E0,2.267351E1,1.3563288E1,2.6888202E2,-7.6697044E0,6.761832E1,1.2465121E2,-6.3121014E2,-6.570073E2,1.5685396E0,-1.4489941E2,2.935981E2,-2.5998732E1,2.6219803E1,-2.7824033E2,3.8706873E2,-1.6758859E0,1.0468413E3,3.9593997E0,-8.788499E0,-1.051504E1,1.1397043E1,1.0622969E0,-2.4165417E1,-6.9602924E2,-1.5750319E2,-3.0028934E2,9.7752464E1,1.3442542E1,9.527119E0,-7.5732586E-3,-1.080758E0,1.8308506E0,-1.044614E1,-1.826732E0,1.6757095E1,1.1175581E3,-5.2688694E-1,-2.6404749E1,-2.0678947E2,1.5101486E0,-7.6839414E0,-2.2703985E1,-4.6987704E2,-1.8356512E2,1.7272665E1,-8.931608E1,4.2286634E0,4.4124487E2,4.7298325E1,7.2086954E-1,-2.5172017E2,-2.402784E2,2.0467226E2,-5.3683484E2,3.7644155E0,1.2364726E1,-2.2070764E2,1.2619005E0,-5.0215535E0,1.8454062E1,1.0494808E2,-1.0015157E1,-3.0670872E-1,-3.928314E1,-1.1062766E1,1.2886404E1,-7.8361454E0,-1.9463404E1,-1.7040101E0,-9.445117E-1,1.4690303E0,-2.579367E2,-1.26669655E1,-2.0258073E2,1.3687931E1,-5.355084E0,4.5208745E0,-9.8447204E-1,-9.463922E0,-8.8984793E-1,3.5262305E-1,-7.829888E0,-6.821797E-1],"categories":[0],"categories_nodes":[8],"categories_segments":[0],"categories_sizes":[1],"default_left":[0,0,0,0,0,0,0,0,1,0,0,0,0,0,0,0,0,0,0,0,0,0,0,0,0,0,0,0,0,0,0,0,0,0,0,0,0,0,0,0,0,0,0,0,0,0,0,0,0,0,0,0,0,0,0,0,0,0,0,0,0,0,0,0,0,0,0,0,0,0,0,0,0,0,0,0,0,0,0,0,0,0,0,0,0,0,0,0,0,0,0,0,0,0,0,0,0,0,0,0,0,0,0,0,0,0,0],"id":9,"left_children":[1,3,5,7,9,11,13,15,17,19,21,-1,23,25,27,-1,29,31,33,35,37,39,41,-1,-1,-1,-1,-1,-1,43,45,47,-1,49,51,53,-1,55,57,-1,59,-1,-1,-1,-1,-1,-1,61,63,65,67,-1,69,-1,-1,-1,-1,-1,-1,71,-1,-1,73,-1,-1,75,77,79,-1,81,-1,83,-1,-1,85,87,89,91,-1,93,95,-1,-1,-1,97,-1,-1,99,-1,-1,-1,-1,-1,-1,-1,101,103,105,-1,-1,-1,-1,-1,-1,-1,-1,-1],"loss_changes":[5.865421E8,3.838953E7,1.53616E8,1.1249472E7,6.913867E6,1.189872E6,6.518835E7,9.13656E5,5.45606E6,3.8659938E6,4.068216E6,0E0,1.0606335E6,2.8258688E7,7.22301E6,0E0,3.089371E6,7.00517E5,1.757225E6,1.0867245E6,2.5991948E6,1.504736E6,3.0999125E5,0E0,0E0,0E0,0E0,0E0,0E0,1.1431384E6,1.59666E6,8.132E4,0E0,1.6533602E6,2.955633E5,7.0915234E2,0E0,2.4436775E5,4.2054662E5,0E0,1.331086E6,0E0,0E0,0E0,0E0,0E0,0E0,8.4528E4,1.23485484E5,1.1754638E6,2.4598558E6,0E0,1.17417695E5,0E0,0E0,0E0,0E0,0E0,0E0,2.61176E5,0E0,0E0,1.0041169E5,0E0,0E0,8.744471E5,8.36718E5,1.1142444E5,0E0,6.0352332E4,0E0,7.7934E4,0E0,0E0,4.9352438E4,8.895594E4,9.473879E5,5.1002E4,0E0,1.1281227E4,7.90205E4,0E0,0E0,0E0,9.1249794E5,0E0,0E0,2.0909367E5,0E0,0E0,0E0,0E0,0E0,0E0,0E0,1.041875E3,2.7186414E3,6.5403438E3,0E0,0E0,0E0,0E0,0E0,0E0,0E0,0E0,0E0],"parents":[2147483647,0,0,1,1,2,2,3,3,4,4,5,5,6,6,7,7,8,8,9,9,10,10,12,12,13,13,14,14,16,16,17,17,18,18,19,19,20,20,21,21,22,22,29,29,30,30,31,31,33,33,34,34,35,35,37,37,38,38,40,40,47,47,48,48,49,49,50,50,52,52,59,59,62,62,65,65,66,66,67,67,69,69,71,71,74,74,75,75,76,76,77,77,79,79,80,80,84,84,87,87,95,95,96,96,97,97],"right_children":[2,4,6,8,10,12,14,16,18,20,22,-1,24,26,28,-1,30,32,34,36,38,40,42,-1,-1,-1,-1,-1,-1,44,46,48,-1,50,52,54,-1,56,58,-1,60,-1,-1,-1,-1,-1,-1,62,64,66,68,-1,70,-1,-1,-1,-1,-1,-1,72,-1,-1,74,-1,-1,76,78,80,-1,82,-1,84,-1,-1,86,88,90,92,-1,94,96,-1,-1,-1,98,-1,-1,100,-1,-1,-1,-1,-1,-1,-1,102,104,106,-1,-1,-1,-1,-1,-1,-1,-1,-1],"split_conditions":[2E2,1.08E2,6.08E2,6.1E1,2.2E2,4.44E2,8E2,5.1E1,1E-45,1.1E2,3.09E2,6.410883E1,5E2,2.44E2,3.12E2,-2.9916094E1,5.5E1,2.53E2,8.4E1,1.09E2,1E0,1.35E2,1.72E2,-2.9420905E0,2.267351E1,1.3563288E1,2.6888202E2,-7.6697044E0,6.761832E1,1E0,1E0,2E2,1.5685396E0,1E0,1E0,2E0,2.6219803E1,6E1,1.25E2,-1.6758859E0,1.94E2,3.9593997E0,-8.788499E0,-1.051504E1,1.1397043E1,1.0622969E0,-2.4165417E1,2E0,1E0,7E1,7.3E1,1.3442542E1,1E2,-7.5732586E-3,-1.080758E0,1.8308506E0,-1.044614E1,-1.826732E0,1.6757095E1,2.53E2,-5.2688694E-1,-2.6404749E1,9.5E1,1.5101486E0,-7.6839414E0,6.8E1,1E0,1E0,1.7272665E1,9.3E1,4.2286634E0,1.53E2,4.7298325E1,7.2086954E-1,1.03E2,6.6E1,1E0,1E0,3.7644155E0,6.6E1,2E0,1.2619005E0,-5.0215535E0,1.8454062E1,1.72E2,-1.0015157E1,-3.0670872E-1,6.4E1,-1.1062766E1,1.2886404E1,-7.8361454E0,-1.9463404E1,-1.7040101E0,-9.445117E-1,1.4690303E0,1E0,6.4E1,1.63E2,1.3687931E1,-5.355084E0,4.5208745E0,-9.8447204E-1,-9.463922E0,-8.8984793E-1,3.5262305E-1,-7.829888E0,-6.821797E-1],"split_indices":[3,3,4,3,4,3,4,3,17,3,4,0,3,3,3,0,3,4,3,3,8,3,3,0,0,0,0,0,0,13,13,4,0,10,12,1,0,4,3,0,3,0,0,0,0,0,0,1,13,3,3,0,3,0,0,0,0,0,0,4,0,0,4,0,0,3,8,12,0,3,0,3,0,0,4,3,7,7,0,3,1,0,0,0,3,0,0,3,0,0,0,0,0,0,0,8,3,3,0,0,0,0,0,0,0,0,0],"split_type":[0,0,0,0,0,0,0,0,1,0,0,0,0,0,0,0,0,0,0,0,0,0,0,0,0,0,0,0,0,0,0,0,0,0,0,0,0,0,0,0,0,0,0,0,0,0,0,0,0,0,0,0,0,0,0,0,0,0,0,0,0,0,0,0,0,0,0,0,0,0,0,0,0,0,0,0,0,0,0,0,0,0,0,0,0,0,0,0,0,0,0,0,0,0,0,0,0,0,0,0,0,0,0,0,0,0,0],"sum_hessian":[3.04E2,2.54E2,5E1,2.05E2,4.9E1,3.6E1,1.4E1,1.37E2,6.8E1,3.2E1,1.7E1,3.3E1,3E0,8E0,6E0,9.9E1,3.8E1,2.3E1,4.5E1,6E0,2.6E1,1.4E1,3E0,2E0,1E0,1E0,7E0,1E0,5E0,5E0,3.3E1,2.2E1,1E0,3.7E1,8E0,2E0,4E0,2.2E1,4E0,1E0,1.3E1,1E0,2E0,1E0,4E0,3E0,3E1,1.9E1,3E0,2.2E1,1.5E1,5E0,3E0,1E0,1E0,1E0,2.1E1,1E0,3E0,1.2E1,1E0,1.5E1,4E0,1E0,2E0,1E1,1.2E1,1E1,5E0,2E0,1E0,6E0,6E0,1E0,3E0,5E0,5E0,1.1E1,1E0,2E0,8E0,1E0,1E0,3E0,3E0,2E0,1E0,3E0,2E0,4E0,1E0,1E1,1E0,1E0,1E0,6E0,2E0,2E0,1E0,2E0,1E0,1E0,5E0,1E0,1E0,1E0,1E0],"tree_param":{"num_deleted":"0","num_feature":"18","num_nodes":"107","size_leaf_vector":"1"}},{"base_weights":[1.35523E2,-4.6661948E2,2.9926882E3,-6.866627E2,2.9048578E2,1.7547994E3,5.7509478E3,-7.4466736E2,9.989904E0,5.3031936E0,1.0721995E3,1.3271634E2,1.3364332E3,2.5554393E2,6.140809E1,-3.344095E1,-6.232272E2,2.8900574E2,-3.4966373E2,-1.9252031E2,8.8451546E1,2.2310011E2,1.3357286E3,-1.1143972E2,1.5288833E3,-2.1798298E1,-2.2509427E0,-1.0261671E1,4.8317792E2,-1.4854862E1,-3.6478899E0,-3.8083194E2,4.667712E1,2.0202065E1,1.8363415E1,-2.7266014E1,1.2880764E1,3.874864E0,4.8896336E1,5.0515685E0,-9.335604E0,5.3409863E2,1.9881078E3,5.183787E2,7.2328764E-1,3.737358E0,-3.8954093E0,-0E0,-1.9090363E1,-6.3721013E0,1.7814423E2,-1.1131136E1,1.045869E2,9.8680176E1,-5.4956098E0,7.1730385E0,4.796704E1,2.1172642E3,4.39849E2,2.1682697E1,1.0808861E2,-6.2643538E0,5.1969385E0,-1.0729895E0,7.6657968E0,1.8269063E2,-1.570646E2,-7.5188596E-3,4.160851E0,4.3694696E2,-1.9056429E2,7.704688E1,1.3635225E1,2.251054E1,-2.0278696E1,4.731165E0,-3.810666E-1,1.0215568E1,7.0567993E2,1.372547E2,-2.994501E2,1.4731364E0,1.6891993E1,7.1310897E0,-2.831028E2,-2.7196496E0,1.8624177E0,9.880929E1,-2.780504E2,-1.172727E0,2.9776642E1,5.7492886E0,1.6387617E-2,-1.2375088E1,5.8051884E-1,-1.4607282E0,3.793965E1,-1.0638146E1,-7.821875E-1,1.054978E1,4.514924E0,-5.5987895E-1,-1.0879872E1,2.2701519E0,-8.658932E-1,-4.1127014E0,4.605251E1,8.458271E0,-1.5089166E0],"categories":[],"categories_nodes":[],"categories_segments":[],"categories_sizes":[],"default_left":[0,0,0,0,0,0,0,0,0,0,0,0,0,0,0,0,0,0,0,0,0,0,0,0,0,0,0,0,0,0,0,0,0,0,0,0,0,0,0,0,0,0,0,0,0,0,0,0,0,0,0,0,0,0,0,0,0,0,0,0,0,0,0,0,0,0,0,0,0,0,0,0,0,0,0,0,0,0,0,0,0,0,0,0,0,0,0,0,0,0,0,0,0,0,0,0,0,0,0,0,0,0,0,0,0,0,0,0,0],"id":10,"left_children":[1,3,5,7,9,11,13,15,17,19,21,-1,23,-1,-1,-1,25,27,29,31,33,35,37,39,41,-1,-1,-1,43,-1,45,47,49,-1,51,53,-1,-1,-1,-1,-1,55,57,59,-1,-1,-1,61,-1,-1,63,-1,65,67,-1,69,-1,71,73,-1,75,-1,-1,-1,-1,77,79,-1,-1,81,83,-1,-1,-1,85,-1,-1,87,89,91,93,-1,-1,95,97,-1,-1,99,101,-1,-1,-1,-1,-1,-1,-1,103,-1,-1,-1,105,-1,-1,-1,-1,-1,107,-1,-1],"loss_changes":[5.917804E8,4.82227E7,1.6550086E8,8.993824E6,1.4880155E7,2.0648336E7,5.653165E7,3.040928E6,2.4811168E6,9.3477606E5,2.845902E6,0E0,1.3153624E7,0E0,0E0,0E0,1.8152E4,2.1165882E6,2.8107525E5,8.275848E5,1.3304648E6,3.6350922E5,4.55654E5,5.0435928E5,1.4115448E7,0E0,0E0,0E0,1.5111825E5,0E0,1.1625026E5,6.263366E5,4.5269666E5,0E0,1.2597265E6,1.7242334E5,0E0,0E0,0E0,0E0,0E0,7.8815805E6,1.582736E6,2.0242425E5,0E0,0E0,0E0,2.866883E5,0E0,0E0,1.0346422E5,0E0,8.022022E5,1.2151113E4,0E0,1.582572E6,0E0,3.4996E5,7.000525E5,0E0,2.833829E4,0E0,0E0,0E0,0E0,2.4838462E6,5.7105125E5,0E0,0E0,3.0944375E4,2.4301766E5,0E0,0E0,0E0,4.0965543E4,0E0,0E0,7.40243E5,8.63923E5,2.1755758E4,1.6095669E5,0E0,0E0,1.797688E4,2.444425E4,0E0,0E0,4.145798E5,4.1688E4,0E0,0E0,0E0,0E0,0E0,0E0,0E0,1.7948516E4,0E0,0E0,0E0,1.1679158E5,0E0,0E0,0E0,0E0,0E0,3.3657053E5,0E0,0E0],"parents":[2147483647,0,0,1,1,2,2,3,3,4,4,5,5,6,6,7,7,8,8,9,9,10,10,12,12,16,16,17,17,18,18,19,19,20,20,21,21,22,22,23,23,24,24,28,28,30,30,31,31,32,32,34,34,35,35,41,41,42,42,43,43,47,47,50,50,52,52,53,53,55,55,57,57,58,58,60,60,65,65,66,66,69,69,70,70,74,74,77,77,78,78,79,79,80,80,83,83,84,84,87,87,88,88,96,96,100,100,106,106],"right_children":[2,4,6,8,10,12,14,16,18,20,22,-1,24,-1,-1,-1,26,28,30,32,34,36,38,40,42,-1,-1,-1,44,-1,46,48,50,-1,52,54,-1,-1,-1,-1,-1,56,58,60,-1,-1,-1,62,-1,-1,64,-1,66,68,-1,70,-1,72,74,-1,76,-1,-1,-1,-1,78,80,-1,-1,82,84,-1,-1,-1,86,-1,-1,88,90,92,94,-1,-1,96,98,-1,-1,100,102,-1,-1,-1,-1,-1,-1,-1,104,-1,-1,-1,106,-1,-1,-1,-1,-1,108,-1,-1],"split_conditions":[2.6E2,1.08E2,6.08E2,5.71E2,4E1,2.8E2,8.1E2,5E1,6.88E2,1.59E2,1.25E2,1.3271634E2,3E0,2.5554393E2,6.140809E1,-3.344095E1,1E0,5.1E1,1E0,3E0,1.1E2,1E0,3E0,2E0,3.04E2,-2.1798298E1,-2.2509427E0,-1.0261671E1,2E0,-1.4854862E1,3E0,1.5E2,1.25E2,2.0202065E1,1.85E2,1.13E2,1.2880764E1,3.874864E0,4.8896336E1,5.0515685E0,-9.335604E0,1E0,4.44E2,1E0,7.2328764E-1,3.737358E0,-3.8954093E0,2E0,-1.9090363E1,-6.3721013E0,1.09E2,-1.1131136E1,2.02E2,3E0,-5.4956098E0,1.94E2,4.796704E1,5E2,2E0,2.1682697E1,3E0,-6.2643538E0,5.1969385E0,-1.0729895E0,7.6657968E0,1.94E2,2.45E2,-7.5188596E-3,4.160851E0,4E0,2.26E2,7.704688E1,1.3635225E1,2.251054E1,3E0,4.731165E0,-3.810666E-1,2E0,3E0,2E0,2.56E2,1.4731364E0,1.6891993E1,2.91E2,4E0,-2.7196496E0,1.8624177E0,3E0,3E0,-1.172727E0,2.9776642E1,5.7492886E0,1.6387617E-2,-1.2375088E1,5.8051884E-1,-1.4607282E0,2E0,-1.0638146E1,-7.821875E-1,1.054978E1,1.2E2,-5.5987895E-1,-1.0879872E1,2.2701519E0,-8.658932E-1,-4.1127014E0,1.3E2,8.458271E0,-1.5089166E0],"split_indices":[4,3,4,5,5,4,4,4,5,4,3,0,0,0,0,0,14,3,8,0,3,6,0,0,4,0,0,0,1,0,0,4,4,0,4,3,0,0,0,0,0,16,3,8,0,0,0,0,0,0,3,0,3,0,0,3,0,4,1,0,0,0,0,0,0,3,4,0,0,0,3,0,0,0,1,0,0,1,0,1,3,0,0,4,0,0,0,0,0,0,0,0,0,0,0,0,1,0,0,0,3,0,0,0,0,0,3,0,0],"split_type":[0,0,0,0,0,0,0,0,0,0,0,0,0,0,0,0,0,0,0,0,0,0,0,0,0,0,0,0,0,0,0,0,0,0,0,0,0,0,0,0,0,0,0,0,0,0,0,0,0,0,0,0,0,0,0,0,0,0,0,0,0,0,0,0,0,0,0,0,0,0,0,0,0,0,0,0,0,0,0,0,0,0,0,0,0,0,0,0,0,0,0,0,0,0,0,0,0,0,0,0,0,0,0,0,0,0,0,0,0],"sum_hessian":[3.37E2,2.81E2,5.6E1,2.18E2,6.3E1,4.3E1,1.3E1,2.01E2,1.7E1,4.9E1,1.4E1,2E0,4.1E1,7E0,6E0,6.3E1,1.38E2,1E1,7E0,1.3E1,3.6E1,5E0,9E0,5E0,3.6E1,1.37E2,1E0,2E0,8E0,5E0,2E0,6E0,7E0,1E0,3.5E1,3E0,2E0,1E0,8E0,2E0,3E0,1.4E1,2.2E1,7E0,1E0,1E0,1E0,3E0,3E0,2E0,5E0,5E0,3E1,2E0,1E0,1.1E1,3E0,1.9E1,3E0,4E0,3E0,1E0,2E0,1E0,4E0,2.4E1,6E0,1E0,1E0,2E0,9E0,1.7E1,2E0,1E0,2E0,2E0,1E0,2.1E1,3E0,2E0,4E0,1E0,1E0,4E0,5E0,1E0,1E0,1.8E1,3E0,1E0,2E0,1E0,1E0,3E0,1E0,1E0,3E0,4E0,1E0,3E0,1.5E1,1E0,2E0,2E0,1E0,2E0,1.3E1,2E0,1.1E1],"tree_param":{"num_deleted":"0","num_feature":"18","num_nodes":"109","size_leaf_vector":"1"}},{"base_weights":[-2.4726643E1,-5.921757E2,1.8837928E3,-7.464261E2,6.884386E1,1.109254E3,2.8565156E3,-7.7524817E2,2.4908455E1,-3.2587012E2,5.517771E2,6.477315E2,7.071493E1,-7.006866E0,1.0418955E2,-9.1608093E2,-5.6828076E2,-4.21672E2,3.3395382E1,5.995029E2,-3.8674097E0,3.5086514E2,6.102076E1,-9.4049274E2,-2.981268E2,-9.105213E1,-6.170622E2,-2.7547073E1,-4.5286624E2,-3.9591525E0,9.9489624E1,-3.0009668E0,6.4608026E2,4.364277E2,-8.062114E1,-3.3116894E1,4.5910954E-1,1.0582316E1,-2.0927217E1,-1.2209583E2,1.9847658E0,-6.8025824E2,-1.9263586E2,-9.465101E0,8.302298E0,-1.6145632E1,-1.6956397E0,4.656223E0,-5.804257E0,2.5628246E1,3.733018E1,4.8639264E2,-8.001334E1,5.76346E-1,-1.0119154E2,-6.697667E0,7.764933E0,-2.4539675E1,3.9518913E1,1.3898885E2,-3.117499E2,-2.190809E0,1.9421014E0,-1.16334236E2,6.7332573E0,5.0509644E2,1.6270045E-2,2.8388164E0,-6.2073703E0,-4.0436068E0,-0E0,2.3260653E0,-1.9590019E0,3.246644E0,-1.5805284E0,-3.5194394E-1,5.968136E0,-3.708449E2,-1.794133E0,-7.464461E-3,-4.878689E0,2.2164629E2,2.1115362E1,-1.3985105E1,-7.2677267E-1,2.9956454E2,-2.3918507E0,1.4145545E1,9.8932594E1,-4.3890224E0,6.60186E0],"categories":[],"categories_nodes":[],"categories_segments":[],"categories_sizes":[],"default_left":[0,0,0,0,0,0,0,0,0,0,0,0,0,0,0,0,0,0,0,0,0,0,0,0,0,0,0,0,0,0,0,0,0,0,0,0,0,0,0,0,0,0,0,0,0,0,0,0,0,0,0,0,0,0,0,0,0,0,0,0,0,0,0,0,0,0,0,0,0,0,0,0,0,0,0,0,0,0,0,0,0,0,0,0,0,0,0,0,0,0,0],"id":11,"left_children":[1,3,5,7,9,11,13,15,-1,17,19,21,-1,-1,-1,23,25,27,29,31,-1,33,-1,35,37,39,41,43,45,-1,47,-1,49,51,53,-1,-1,-1,-1,55,-1,57,59,-1,-1,-1,-1,-1,61,-1,63,65,67,-1,69,-1,71,-1,73,75,77,-1,-1,79,-1,81,-1,-1,-1,-1,-1,-1,-1,-1,-1,-1,-1,83,-1,-1,-1,85,-1,-1,-1,87,-1,-1,89,-1,-1],"loss_changes":[3.4418765E8,2.5163664E7,4.268648E7,1.0506424E7,1.0194503E7,1.4824552E7,1.4437728E7,3.732944E6,0E0,1.0818108E6,1.0107075E6,9.700628E6,0E0,0E0,0E0,5.92168E5,1.874956E6,2.448795E5,1.3917612E5,9.441405E5,0E0,1.3853405E6,0E0,1.016464E6,2.49356E6,8.5838516E4,1.663578E6,6.2832044E5,4.547E3,0E0,3.484457E4,0E0,1.080661E6,8.94484E5,2.4181488E4,0E0,0E0,0E0,0E0,1.1368222E5,0E0,1.287934E6,7.929507E5,0E0,0E0,0E0,0E0,0E0,3.4017926E4,0E0,2.5058856E5,2.42785E5,1.4853069E5,0E0,1.1815492E4,0E0,4.4056754E4,0E0,4.2912836E4,3.9686562E4,1.2387675E5,0E0,0E0,1.5850867E4,0E0,2.206685E5,0E0,0E0,0E0,0E0,0E0,0E0,0E0,0E0,0E0,0E0,0E0,7.2337375E4,0E0,0E0,0E0,3.6989356E5,0E0,0E0,0E0,7.6481625E4,0E0,0E0,2.7189853E5,0E0,0E0],"parents":[2147483647,0,0,1,1,2,2,3,3,4,4,5,5,6,6,7,7,9,9,10,10,11,11,15,15,16,16,17,17,18,18,19,19,21,21,23,23,24,24,25,25,26,26,27,27,28,28,30,30,32,32,33,33,34,34,39,39,41,41,42,42,48,48,50,50,51,51,52,52,54,54,56,56,58,58,59,59,60,60,63,63,65,65,77,77,81,81,85,85,88,88],"right_children":[2,4,6,8,10,12,14,16,-1,18,20,22,-1,-1,-1,24,26,28,30,32,-1,34,-1,36,38,40,42,44,46,-1,48,-1,50,52,54,-1,-1,-1,-1,56,-1,58,60,-1,-1,-1,-1,-1,62,-1,64,66,68,-1,70,-1,72,-1,74,76,78,-1,-1,80,-1,82,-1,-1,-1,-1,-1,-1,-1,-1,-1,-1,-1,84,-1,-1,-1,86,-1,-1,-1,88,-1,-1,90,-1,-1],"split_conditions":[2.07E2,2E0,4E0,1E0,4.47E2,1.66E2,5.1E1,5.6E1,2.4908455E1,1.85E2,1E0,5E2,7.071493E1,-7.006866E0,1.0418955E2,5.09E2,6E1,7E1,3E0,6.7E1,-3.8674097E0,3E2,6.102076E1,3E0,5.54E2,4.7E2,1E0,5.1E1,3E0,-3.9591525E0,1.32E2,-3.0009668E0,7.8E2,4.3E2,2.53E2,-3.3116894E1,4.5910954E-1,1.0582316E1,-2.0927217E1,5.9E1,1.9847658E0,1.53E2,3.72E2,-9.465101E0,8.302298E0,-1.6145632E1,-1.6956397E0,4.656223E0,3E0,2.5628246E1,4E0,1E0,2E0,5.76346E-1,3.04E2,-6.697667E0,3.03E2,-2.4539675E1,1.63E2,3.2E2,1E0,-2.190809E0,1.9421014E0,3E0,6.7332573E0,1.72E2,1.6270045E-2,2.8388164E0,-6.2073703E0,-4.0436068E0,-0E0,2.3260653E0,-1.9590019E0,3.246644E0,-1.5805284E0,-3.5194394E-1,5.968136E0,3E0,-1.794133E0,-7.464461E-3,-4.878689E0,1.6E2,2.1115362E1,-1.3985105E1,-7.2677267E-1,3E0,-2.3918507E0,1.4145545E1,2E0,-4.3890224E0,6.60186E0],"split_indices":[4,2,2,15,5,5,3,4,0,4,9,3,0,0,0,5,4,4,0,3,0,3,0,0,5,5,8,3,2,0,3,0,5,4,4,0,0,0,0,3,0,3,5,0,0,0,0,0,2,0,0,15,0,0,4,0,5,0,3,5,9,0,0,0,0,3,0,0,0,0,0,0,0,0,0,0,0,0,0,0,0,3,0,0,0,0,0,0,2,0,0],"split_type":[0,0,0,0,0,0,0,0,0,0,0,0,0,0,0,0,0,0,0,0,0,0,0,0,0,0,0,0,0,0,0,0,0,0,0,0,0,0,0,0,0,0,0,0,0,0,0,0,0,0,0,0,0,0,0,0,0,0,0,0,0,0,0,0,0,0,0,0,0,0,0,0,0,0,0,0,0,0,0,0,0,0,0,0,0,0,0,0,0,0,0],"sum_hessian":[3.1E2,2.41E2,6.9E1,1.95E2,4.6E1,4.3E1,2.6E1,1.93E2,2E0,2.6E1,2E1,3.3E1,1E1,1E0,2.5E1,1.07E2,8.6E1,2E1,6E0,1.9E1,1E0,3E1,3E0,1.01E2,6E0,9E0,7.7E1,2E0,1.8E1,1E0,5E0,1E0,1.8E1,2.5E1,5E0,1E2,1E0,2E0,4E0,8E0,1E0,6.5E1,1.2E1,1E0,1E0,1.7E1,1E0,3E0,2E0,1.5E1,3E0,2.3E1,2E0,1E0,4E0,4E0,4E0,6.3E1,2E0,3E0,9E0,1E0,1E0,2E0,1E0,2.2E1,1E0,1E0,1E0,3E0,1E0,2E0,2E0,1E0,1E0,1E0,2E0,6E0,3E0,1E0,1E0,9E0,1.3E1,5E0,1E0,7E0,2E0,2E0,5E0,1E0,4E0],"tree_param":{"num_deleted":"0","num_feature":"18","num_nodes":"91","size_leaf_vector":"1"}},{"base_weights":[-3.1022163E1,-4.285016E2,3.5276477E3,-7.120679E2,3.6069684E2,7.089317E1,4.541469E3,-7.434357E2,-3.7684314E2,1.03662994E2,6.661244E1,6.0668315E3,5.87632E1,-2.6319088E1,-9.88344E0,-1.1370887E1,-4.4171854E2,-4.00577E1,6.121764E2,6.7352896E3,5.889487E0,6.76981E0,-1.5064317E2,-1.5954177E1,-7.6814735E-1,-1.0764985E2,2.241576E1,2.537077E1,5.0902454E1,2.6319876E2,8.222939E0,-7.1768956E0,-5.575981E0,-1.6915819E2,2.5191061E2,2.604605E0,-7.796314E-2,-5.016605E0,4.777495E0,-2.1769966E2,4.1100636E0,2.9465761E1,-6.3717766E0,-1.686334E2,-1.1365541E1,-6.8225617E0,2.3689022E0],"categories":[],"categories_nodes":[],"categories_segments":[],"categories_sizes":[],"default_left":[0,0,0,0,0,0,0,0,0,0,0,0,0,0,0,0,0,0,0,0,0,0,0,0,0,0,0,0,0,0,0,0,0,0,0,0,0,0,0,0,0,0,0,0,0,0,0],"id":12,"left_children":[1,3,5,7,9,-1,11,13,15,17,-1,19,-1,-1,-1,21,23,25,27,29,-1,-1,31,-1,-1,33,-1,-1,35,-1,-1,-1,37,39,41,-1,-1,-1,-1,43,-1,-1,-1,45,-1,-1,-1],"loss_changes":[4.483407E8,6.4735228E7,1.2667904E7,1.138048E6,3.0261528E7,0E0,2.9656512E7,1.90848E5,5.9325775E5,5.27269E6,0E0,3.050208E7,0E0,0E0,0E0,3.3735775E5,1.07838E5,2.983718E6,8.865175E5,3.477779E7,0E0,0E0,5.0359734E4,0E0,0E0,1.4212388E6,0E0,0E0,9.36282E3,0E0,0E0,0E0,1.9138581E5,8.074796E5,3.136506E6,0E0,0E0,0E0,0E0,2.65435E4,0E0,0E0,0E0,3.005315E5,0E0,0E0,0E0],"parents":[2147483647,0,0,1,1,2,2,3,3,4,4,6,6,7,7,8,8,9,9,11,11,15,15,16,16,17,17,18,18,19,19,22,22,25,25,28,28,32,32,33,33,34,34,39,39,43,43],"right_children":[2,4,6,8,10,-1,12,14,16,18,-1,20,-1,-1,-1,22,24,26,28,30,-1,-1,32,-1,-1,34,-1,-1,36,-1,-1,-1,38,40,42,-1,-1,-1,-1,44,-1,-1,-1,46,-1,-1,-1],"split_conditions":[4E0,3E0,1E0,1E0,1E0,7.089317E1,2E0,2E0,1E0,2E0,6.661244E1,1E0,5.87632E1,-2.6319088E1,-9.88344E0,1E0,1E0,1E0,1E0,1E0,5.889487E0,6.76981E0,1E0,-1.5954177E1,-7.6814735E-1,1E0,2.241576E1,2.537077E1,1E0,2.6319876E2,8.222939E0,-7.1768956E0,1E0,1E0,1E0,2.604605E0,-7.796314E-2,-5.016605E0,4.777495E0,1E0,4.1100636E0,2.9465761E1,-6.3717766E0,1E0,-1.1365541E1,-6.8225617E0,2.3689022E0],"split_indices":[0,0,16,6,14,0,1,1,7,1,0,14,0,0,0,12,9,15,10,6,0,0,10,0,0,6,0,0,6,0,0,0,8,16,10,0,0,0,0,10,0,0,0,7,0,0,0],"split_type":[0,0,0,0,0,0,0,0,0,0,0,0,0,0,0,0,0,0,0,0,0,0,0,0,0,0,0,0,0,0,0,0,0,0,0,0,0,0,0,0,0,0,0,0,0,0,0],"sum_hessian":[3.09E2,2.81E2,2.8E1,2.07E2,7.4E1,1.6E1,1.2E1,1.85E2,2.2E1,6.7E1,7E0,5E0,7E0,1.78E2,7E0,4E0,1.8E1,5.5E1,1.2E1,4E0,1E0,1E0,3E0,1.7E1,1E0,5.3E1,2E0,9E0,3E0,3E0,1E0,1E0,2E0,4.7E1,6E0,1E0,2E0,1E0,1E0,4.1E1,6E0,1E0,5E0,3.5E1,6E0,3.2E1,3E0],"tree_param":{"num_deleted":"0","num_feature":"18","num_nodes":"47","size_leaf_vector":"1"}},{"base_weights":[1.3606704E1,-3.7838342E2,3.1377666E3,-6.2618036E2,4.2239594E2,1.6102496E3,1.8784775E2,-7.076601E2,-7.940071E1,2.3515933E2,8.4841174E2,6.406814E2,9.803571E1,-3.1311644E1,-5.7127893E2,-3.6201614E2,2.3613425E2,7.465708E2,1.9833006E1,1.05422714E2,1.22155E3,7.388492E2,-8.690165E0,-6.3210486E2,-1.36099E2,-1.6048845E1,-1.5422333E2,3.7264523E2,-1.2044246E2,9.6008057E2,-8.718469E0,-1.5661786E2,7.460506E2,1.2657683E1,-1.7109875E2,1.3765703E2,4.7835358E1,-3.2726636E0,8.591859E2,-6.510625E2,-7.6053444E1,-2.768914E2,2.3497879E1,1.4817122E2,-3.2126425E2,3.2970512E1,2.1471506E1,-1.6738345E2,1.4404672E0,5.0258926E1,3.824376E1,-3.7818237E2,-1.9855074E1,-5.4051228E0,3.8214844E1,-2.7709616E2,3.983653E0,7.543494E0,-1.7515248E0,9.126573E2,7.95025E-2,-4.4665707E2,-7.5545105E2,1.11979E0,-3.8338802E0,1.0075845E0,-3.1930405E2,9.03524E1,-4.5948845E1,6.2286406E0,-2.1413249E-1,1.6575589E0,-1.3650712E1,7.1252723E0,-7.62275E0,-7.1266413E0,3.5152453E-1,-2.538721E0,4.6563606E0,-1.6334074E1,-1.2314527E2,1.1720986E2,-1.6941069E1,1.7238405E-1,-1.1455772E1,3.007584E0,3.2967922E1,-5.3822363E2,7.971451E1,-2.6672386E1,-1.1315014E0,-1.6024084E-1,-1.2296163E1,4.25221E0,-9.0396005E-1,-9.772151E1,2.5858848E0,4.9516014E1,-8.518215E0,2.3773288E2,-6.6368427E0,-2.0304012E2,-7.4787823E2,-4.1990246E1,1.9068825E2,-3.693598E0,-2.9141212E-1,-5.657002E0,6.7146006E0,5.0182358E1,4.7588095E2,-2.563204E2,4.2042362E1,-2.7392128E1,-1.2652103E2,-3.3969982E0,1.4291741E0,1.0942269E1,-2.9207988E0,1.4592136E2,-5.00341E0,1.8728516E1,3.8984585E-1,-6.851064E1,-1.3810249E1,2.1111012E2,-6.800952E0,-6.3626614E0,1.0388638E0,8.3832855E0,3.2643707E1,2.144775E-1,-6.319412E0,5.0484663E-1,8.365808E0,-9.1680086E-1,2.1137495E0],"categories":[],"categories_nodes":[],"categories_segments":[],"categories_sizes":[],"default_left":[0,0,0,0,0,0,0,0,0,0,0,0,0,0,0,0,0,0,0,0,0,0,0,0,0,0,0,0,0,0,0,0,0,0,0,0,0,0,0,0,0,0,0,0,0,0,0,0,0,0,0,0,0,0,0,0,0,0,0,0,0,0,0,0,0,0,0,0,0,0,0,0,0,0,0,0,0,0,0,0,0,0,0,0,0,0,0,0,0,0,0,0,0,0,0,0,0,0,0,0,0,0,0,0,0,0,0,0,0,0,0,0,0,0,0,0,0,0,0,0,0,0,0,0,0,0,0,0,0,0,0,0,0,0,0,0,0],"id":13,"left_children":[1,3,5,7,9,11,-1,13,15,17,19,21,-1,-1,23,25,27,29,31,33,35,37,-1,39,41,-1,43,45,47,49,-1,51,53,-1,55,57,-1,-1,59,61,63,65,67,69,71,73,-1,75,-1,77,-1,79,81,-1,-1,83,-1,-1,-1,85,-1,87,89,-1,-1,-1,91,93,95,-1,-1,-1,-1,-1,-1,-1,-1,-1,-1,-1,97,99,-1,-1,-1,-1,-1,101,103,-1,-1,-1,-1,-1,-1,105,-1,107,-1,109,-1,111,113,115,117,-1,-1,-1,-1,119,121,123,125,-1,127,-1,-1,-1,-1,129,-1,-1,-1,131,-1,133,-1,-1,-1,-1,135,-1,-1,-1,-1,-1,-1],"loss_changes":[3.9382243E8,5.7739428E7,8.990208E7,9.577808E6,4.802917E6,2.4365688E7,0E0,2.987576E6,3.258439E6,5.872388E6,5.006367E6,2.4436275E6,0E0,0E0,2.89374E6,1.1184975E5,1.0417547E6,4.297683E6,5.8127455E6,1.0125321E6,1.373592E6,2.199895E6,0E0,9.24736E5,4.7121847E5,0E0,7.818625E5,1.0664071E6,8.631328E4,1.515565E6,0E0,1.0874312E6,3.4491555E6,0E0,3.5945575E5,1.28557234E5,0E0,0E0,7.63412E5,8.73636E5,4.2478414E4,1.7643031E5,7.5664945E4,3.6614047E4,3.0166662E5,5.971125E5,0E0,5.314761E4,0E0,9.750084E4,0E0,9.7002125E4,1.9352071E6,0E0,0E0,1.06119E5,0E0,0E0,0E0,1.20487E5,0E0,2.278881E6,3.42848E5,0E0,0E0,0E0,9.7329E4,4.1130414E4,8.296391E4,0E0,0E0,0E0,0E0,0E0,0E0,0E0,0E0,0E0,0E0,0E0,2.3197173E5,1.0585175E6,0E0,0E0,0E0,0E0,0E0,2.074658E6,1.6393906E5,0E0,0E0,0E0,0E0,0E0,0E0,2.3035547E3,0E0,3.280366E5,0E0,7.4962825E5,0E0,3.0080956E5,1.33112E5,5.1558023E4,2.993155E5,0E0,0E0,0E0,0E0,3.560554E5,2.0070338E5,3.3795875E5,4.3320388E5,0E0,7.227851E4,0E0,0E0,0E0,0E0,9.658469E4,0E0,0E0,0E0,1.0420546E5,0E0,1.9708203E4,0E0,0E0,0E0,0E0,2.2420688E4,0E0,0E0,0E0,0E0,0E0,0E0],"parents":[2147483647,0,0,1,1,2,2,3,3,4,4,5,5,7,7,8,8,9,9,10,10,11,11,14,14,15,15,16,16,17,17,18,18,19,19,20,20,21,21,23,23,24,24,26,26,27,27,28,28,29,29,31,31,32,32,34,34,35,35,38,38,39,39,40,40,41,41,42,42,43,43,44,44,45,45,47,47,49,49,51,51,52,52,55,55,59,59,61,61,62,62,66,66,67,67,68,68,80,80,81,81,87,87,88,88,95,95,97,97,99,99,101,101,102,102,103,103,104,104,109,109,110,110,111,111,112,112,114,114,119,119,123,123,125,125,130,130],"right_children":[2,4,6,8,10,12,-1,14,16,18,20,22,-1,-1,24,26,28,30,32,34,36,38,-1,40,42,-1,44,46,48,50,-1,52,54,-1,56,58,-1,-1,60,62,64,66,68,70,72,74,-1,76,-1,78,-1,80,82,-1,-1,84,-1,-1,-1,86,-1,88,90,-1,-1,-1,92,94,96,-1,-1,-1,-1,-1,-1,-1,-1,-1,-1,-1,98,100,-1,-1,-1,-1,-1,102,104,-1,-1,-1,-1,-1,-1,106,-1,108,-1,110,-1,112,114,116,118,-1,-1,-1,-1,120,122,124,126,-1,128,-1,-1,-1,-1,130,-1,-1,-1,132,-1,134,-1,-1,-1,-1,136,-1,-1,-1,-1,-1,-1],"split_conditions":[3.04E2,1.03E2,4.16E2,2E0,1.9E2,4E1,1.8784775E2,5E1,3.94E2,2E0,1.13E2,8.1E2,9.803571E1,-3.1311644E1,1E0,1.25E2,8.8E1,1E0,1E0,6.08E2,2E0,3.31E2,-8.690165E0,2E0,6.5E1,-1.6048845E1,1.53E2,6.08E2,1E3,1.53E2,-8.718469E0,1.85E2,2.53E2,1.2657683E1,2E0,2E0,4.7835358E1,-3.2726636E0,1E0,6E1,1E0,1E0,4.89E2,2E0,1E0,5.36E2,2.1471506E1,2E0,1.4404672E0,2E0,3.824376E1,1.27E2,3E0,-5.4051228E0,3.8214844E1,1.09E2,3.983653E0,7.543494E0,-1.7515248E0,6.2E1,7.95025E-2,5.6E1,7.4E2,1.11979E0,-3.8338802E0,1.0075845E0,3.2E2,1E0,6.32E2,6.2286406E0,-2.1413249E-1,1.6575589E0,-1.3650712E1,7.1252723E0,-7.62275E0,-7.1266413E0,3.5152453E-1,-2.538721E0,4.6563606E0,-1.6334074E1,1.53E2,2.6E2,-1.6941069E1,1.7238405E-1,-1.1455772E1,3.007584E0,3.2967922E1,2.83E2,3.52E2,-2.6672386E1,-1.1315014E0,-1.6024084E-1,-1.2296163E1,4.25221E0,-9.0396005E-1,6E2,2.5858848E0,1.03E2,-8.518215E0,1.94E2,-6.6368427E0,2.65E2,5.5E1,5.7E1,5.7E1,-3.693598E0,-2.9141212E-1,-5.657002E0,6.7146006E0,1.6E2,2E0,4E1,1E0,-2.7392128E1,3.3E2,-3.3969982E0,1.4291741E0,1.0942269E1,-2.9207988E0,1.3E2,-5.00341E0,1.8728516E1,3.8984585E-1,1E0,-1.3810249E1,5.1E1,-6.800952E0,-6.3626614E0,1.0388638E0,8.3832855E0,1.35E2,2.144775E-1,-6.319412E0,5.0484663E-1,8.365808E0,-9.1680086E-1,2.1137495E0],"split_indices":[4,3,3,2,5,5,0,3,5,2,3,4,0,0,10,4,3,16,16,5,2,4,0,1,3,0,4,5,5,4,0,4,4,0,1,1,0,0,10,3,2,13,5,1,13,5,0,1,0,1,0,3,2,0,0,3,0,0,0,3,0,4,5,0,0,0,5,6,5,0,0,0,0,0,0,0,0,0,0,0,3,4,0,0,0,0,0,5,5,0,0,0,0,0,0,5,0,4,0,3,0,5,3,4,3,0,0,0,0,3,1,5,15,0,5,0,0,0,0,3,0,0,0,6,0,3,0,0,0,0,3,0,0,0,0,0,0],"split_type":[0,0,0,0,0,0,0,0,0,0,0,0,0,0,0,0,0,0,0,0,0,0,0,0,0,0,0,0,0,0,0,0,0,0,0,0,0,0,0,0,0,0,0,0,0,0,0,0,0,0,0,0,0,0,0,0,0,0,0,0,0,0,0,0,0,0,0,0,0,0,0,0,0,0,0,0,0,0,0,0,0,0,0,0,0,0,0,0,0,0,0,0,0,0,0,0,0,0,0,0,0,0,0,0,0,0,0,0,0,0,0,0,0,0,0,0,0,0,0,0,0,0,0,0,0,0,0,0,0,0,0,0,0,0,0,0,0],"sum_hessian":[3.14E2,2.82E2,3.2E1,2.16E2,6.6E1,2.3E1,9E0,1.87E2,2.9E1,5E1,1.6E1,1.6E1,7E0,6.9E1,1.18E2,1.5E1,1.4E1,1.2E1,3.8E1,7E0,9E0,1.5E1,1E0,1.02E2,1.6E1,7E0,8E0,1E1,4E0,1E1,2E0,3.3E1,5E0,3E0,4E0,2E0,7E0,2E0,1.3E1,9.8E1,4E0,7E0,9E0,3E0,5E0,6E0,4E0,3E0,1E0,2E0,8E0,1E1,2.3E1,2E0,3E0,3E0,1E0,1E0,1E0,1.2E1,1E0,4E1,5.8E1,1E0,3E0,1E0,6E0,4E0,5E0,2E0,1E0,1E0,4E0,4E0,2E0,2E0,1E0,1E0,1E0,5E0,5E0,2E1,3E0,1E0,2E0,1E0,1.1E1,3.4E1,6E0,5.7E1,1E0,1E0,5E0,3E0,1E0,4E0,1E0,3E0,2E0,1.5E1,5E0,1.6E1,1.8E1,4E0,2E0,3E0,1E0,1E0,2E0,1.1E1,4E0,1.3E1,3E0,1.6E1,2E0,2E0,2E0,1E0,1E0,8E0,3E0,3E0,1E0,8E0,5E0,2E0,1E0,1E0,1E0,2E0,6E0,7E0,1E0,1E0,1E0,2E0,4E0],"tree_param":{"num_deleted":"0","num_feature":"18","num_nodes":"137","size_leaf_vector":"1"}},{"base_weights":[6.884009E1,-3.576168E2,1.9475729E3,-5.1772046E2,3.0261438E2,9.4817346E2,7.924351E1,-6.903463E2,-3.441844E2,9.252838E1,3.0094547E1,2.8303064E2,1.3994758E3,-2.423674E1,-1.6300436E0,-4.631144E2,2.4889262E2,-1.0351986E1,5.1712134E2,3.245346E2,-1.4957627E0,5.4913193E1,-2.4000673E0,-4.9648172E2,-5.009018E1,-1.0479249E2,4.3129584E2,-4.555508E2,1.8047633E2,2.1889555E1,-1.738936E0,1.2042353E1,6.921399E-1,2.0711033E0,-5.2254364E2,-4.67375E0,2.715052E1,2.1561493E1,-6.007018E0,-5.929626E0,5.881303E2,-1.6599386E1,-1.6547757E0,3.4077844E2,6.371081E1,3.8277094E0,-5.2849073E0,-3.1146967E0,-1.845549E1,2.8584516E0,-5.4846935E1,-1.1211195E2,5.7794714E0,2.4062778E1,-3.742589E0,3.140338E0,4.956623E2,2.1731241E2,-1.2975739E1,-3.5244796E0,1.2139542E0,-1.2106318E-1,-4.5875797E0,-4.4976875E-1,2.1292744E1,9.885153E1,1.5903548E1,-2.390937E0,1.2611799E2,8.099997E0,1.6078323E0],"categories":[0,0],"categories_nodes":[9,26],"categories_segments":[0,1],"categories_sizes":[1,1],"default_left":[0,0,0,0,0,0,0,0,0,1,0,0,0,0,0,0,0,0,0,0,0,0,0,0,0,0,1,0,0,0,0,0,0,0,0,0,0,0,0,0,0,0,0,0,0,0,0,0,0,0,0,0,0,0,0,0,0,0,0,0,0,0,0,0,0,0,0,0,0,0,0],"id":14,"left_children":[1,3,5,7,9,11,-1,13,15,17,-1,19,21,-1,-1,23,25,27,29,31,-1,-1,-1,33,35,37,39,41,43,-1,-1,-1,-1,45,47,-1,49,51,-1,-1,53,-1,-1,55,57,-1,-1,-1,-1,-1,59,61,-1,-1,-1,-1,63,65,-1,-1,-1,-1,-1,-1,-1,67,-1,-1,69,-1,-1],"loss_changes":[2.3330614E8,2.5745118E7,9.246256E6,4.8619E6,5.4474895E6,4.432608E6,0E0,1.75504E5,7.76877E6,1.761635E6,0E0,2.276155E5,3.223262E6,0E0,0E0,1.114614E6,1.4547092E6,3.362252E6,6.1464525E5,4.908325E4,0E0,0E0,0E0,1.054996E6,8.44801E4,9.84753E4,1.6917108E6,1.27575E4,4.3744006E5,0E0,0E0,0E0,0E0,1.9406375E5,4.95E4,0E0,5.7139965E4,2.0366756E5,0E0,0E0,1.1285125E6,0E0,0E0,2.4894512E5,1.7075846E6,0E0,0E0,0E0,0E0,0E0,3.78729E4,1.0550844E4,0E0,0E0,0E0,0E0,3.7358338E5,3.313325E5,0E0,0E0,0E0,0E0,0E0,0E0,0E0,1.10267875E5,0E0,0E0,9.3289125E4,0E0,0E0],"parents":[2147483647,0,0,1,1,2,2,3,3,4,4,5,5,7,7,8,8,9,9,11,11,12,12,15,15,16,16,17,17,18,18,19,19,23,23,24,24,25,25,26,26,27,27,28,28,33,33,34,34,36,36,37,37,40,40,43,43,44,44,50,50,51,51,56,56,57,57,65,65,68,68],"right_children":[2,4,6,8,10,12,-1,14,16,18,-1,20,22,-1,-1,24,26,28,30,32,-1,-1,-1,34,36,38,40,42,44,-1,-1,-1,-1,46,48,-1,50,52,-1,-1,54,-1,-1,56,58,-1,-1,-1,-1,-1,60,62,-1,-1,-1,-1,64,66,-1,-1,-1,-1,-1,-1,-1,68,-1,-1,70,-1,-1],"split_conditions":[2.53E2,1.3E2,3.31E2,5.6E1,1E0,1E0,7.924351E1,2E0,1E0,1E-45,3.0094547E1,3.04E2,3.3E2,-2.423674E1,-1.6300436E0,2E0,6.8E1,1.81E2,2E0,1E0,-1.4957627E0,5.4913193E1,-2.4000673E0,1E0,7.6E1,6.4E1,1E-45,1.66E2,2.07E2,2.1889555E1,-1.738936E0,1.2042353E1,6.921399E-1,6.2E1,5.8E1,-4.67375E0,1E2,6.2E1,-6.007018E0,-5.929626E0,1E0,-1.6599386E1,-1.6547757E0,2E0,2E0,3.8277094E0,-5.2849073E0,-3.1146967E0,-1.845549E1,2.8584516E0,1.03E2,6E1,5.7794714E0,2.4062778E1,-3.742589E0,3.140338E0,1.9E2,1E0,-1.2975739E1,-3.5244796E0,1.2139542E0,-1.2106318E-1,-4.5875797E0,-4.4976875E-1,2.1292744E1,2.19E2,1.5903548E1,-2.390937E0,2.4E2,8.099997E0,1.6078323E0],"split_indices":[4,4,4,4,7,16,0,1,6,17,0,4,4,0,0,1,4,4,1,10,0,0,0,13,4,4,17,4,4,0,0,0,0,4,4,0,4,4,0,0,9,0,0,1,1,0,0,0,0,0,4,4,0,0,0,0,4,16,0,0,0,0,0,0,0,4,0,0,4,0,0],"split_type":[0,0,0,0,0,0,0,0,0,1,0,0,0,0,0,0,0,0,0,0,0,0,0,0,0,0,1,0,0,0,0,0,0,0,0,0,0,0,0,0,0,0,0,0,0,0,0,0,0,0,0,0,0,0,0,0,0,0,0,0,0,0,0,0,0,0,0,0,0,0,0],"sum_hessian":[2.84E2,2.34E2,5E1,1.89E2,4.5E1,1.6E1,3.4E1,8.9E1,1E2,3.6E1,9E0,9E0,7E0,8.8E1,1E0,8.4E1,1.6E1,3.2E1,4E0,8E0,1E0,6E0,1E0,7.7E1,7E0,6E0,1E1,8E0,2.4E1,3E0,1E0,7E0,1E0,4E0,7.3E1,2E0,5E0,3E0,3E0,2E0,8E0,7E0,1E0,7E0,1.7E1,3E0,1E0,2E0,7.1E1,3E0,2E0,2E0,1E0,7E0,1E0,5E0,2E0,1.4E1,3E0,1E0,1E0,1E0,1E0,1E0,1E0,1.3E1,1E0,1E0,1.2E1,2E0,1E1],"tree_param":{"num_deleted":"0","num_feature":"18","num_nodes":"71","size_leaf_vector":"1"}},{"base_weights":[-1.9443968E1,-4.5430865E2,1.7239518E3,-7.282493E2,-6.324601E1,1.285107E3,1.0035495E2,-2.941129E1,-5.6884753E2,-2.8931116E2,1.7443031E2,1.3428767E3,1.0860219E2,-1.1570453E2,-5.8686444E2,-4.106325E2,7.127527E1,-4.5807198E1,4.0171005E2,2.1901904E2,1.3925905E3,-6.282179E0,5.615173E0,-9.622006E0,2.18745E0,-4.7107382E2,-2.8655283E1,1.5195206E2,-4.768152E2,2.0133095E2,-9.397917E0,-2.534732E2,4.2204645E2,4.6522937E2,4.853609E1,-1.0299969E0,9.796492E0,1.5774108E3,7.9802E2,-4.8126566E-1,2.1246544E-1,-2.4888951E2,-6.6226483E2,-2.0728216E0,9.183699E0,-5.473054E2,1.0581712E2,2.7360623E2,-6.262171E0,1.2312469E1,-3.6139606E2,5.7266644E2,-3.806041E0,2.2978574E2,5.883248E2,-2.1816917E2,1.14672165E1,7.0770917E2,6.1858624E1,9.265444E2,-1.1922377E2,-1.3698763E1,1.1474993E1,-2.3765768E1,-6.894586E-1,-5.7336304E2,3.1503458E0,8.658378E-1,4.7422037E0,-3.3429906E0,3.599066E2,-3.8800006E2,1.766939E0,-3.8049335E1,7.4702277E2,1.4683689E1,-8.036279E0,2.2966478E1,-2.2883549E0,-8.970628E0,7.565773E-2,8.80586E2,-2.7379925E0,1.0674038E3,-2.2569177E0,-5.551098E0,5.340869E-1,-5.982861E2,2.4752553E0,3.345264E1,1.921743E1,-4.047308E2,-1.5666455E-1,-3.5422945E0,1.9379618E0,2.894453E1,1.2571591E0,3.4060043E1,1.5477649E2,4.067914E1,4.4862285E0,-3.2992115E0,-6.321386E2,-1.7221832E1,5.8023746E1,-1.4573713E1,-8.948702E-1,-1.0453969E0,7.5570903E0,-2.235154E1,-2.3764968E0,-2.6437355E-2,-6.929015E-1,2.6646874E0,-3.5307226E-1],"categories":[],"categories_nodes":[],"categories_segments":[],"categories_sizes":[],"default_left":[0,0,0,0,0,0,0,0,0,0,0,0,0,0,0,0,0,0,0,0,0,0,0,0,0,0,0,0,0,0,0,0,0,0,0,0,0,0,0,0,0,0,0,0,0,0,0,0,0,0,0,0,0,0,0,0,0,0,0,0,0,0,0,0,0,0,0,0,0,0,0,0,0,0,0,0,0,0,0,0,0,0,0,0,0,0,0,0,0,0,0,0,0,0,0,0,0,0,0,0,0,0,0,0,0,0,0,0,0,0,0,0,0,0,0],"id":15,"left_children":[1,3,5,7,9,11,-1,-1,13,15,17,19,21,23,25,27,29,31,33,35,37,39,-1,-1,-1,41,-1,43,45,47,-1,49,51,53,55,-1,-1,57,59,-1,-1,61,63,-1,-1,65,67,69,-1,-1,71,73,-1,75,77,79,-1,81,-1,83,85,-1,-1,-1,-1,87,-1,-1,-1,-1,89,91,-1,93,95,-1,-1,-1,-1,-1,-1,97,-1,99,-1,-1,-1,101,-1,103,-1,105,-1,-1,-1,-1,-1,-1,107,-1,-1,-1,109,111,113,-1,-1,-1,-1,-1,-1,-1,-1,-1,-1],"loss_changes":[2.6142557E8,2.9373344E7,2.06632E7,1.133848E6,6.52639E6,3.301536E6,0E0,0E0,3.90082E5,2.818578E6,3.0668378E6,1.833568E6,4.5310477E4,2.9146734E5,5.7492E5,2.0234395E6,1.0446395E6,3.700343E6,5.823665E5,1.3778578E5,7.4092E5,8.739132E2,0E0,0E0,0E0,1.907325E6,0E0,2.4555172E5,1.983013E6,6.257151E5,0E0,2.1840235E6,1.18913E6,1.9929E5,9.383081E5,0E0,0E0,1.1466E6,2.765695E6,0E0,0E0,3.3189295E6,3.23668E5,0E0,0E0,8.45341E5,6.107078E3,6.065799E5,0E0,0E0,3.3739675E5,1.1586212E6,0E0,1.6831645E6,8.06483E5,6.1491094E4,0E0,2.0133295E6,0E0,2.759034E6,4.100267E4,0E0,0E0,0E0,0E0,7.71744E5,0E0,0E0,0E0,0E0,7.3176325E5,1.3933775E5,0E0,5.6611797E4,3.49742E5,0E0,0E0,0E0,0E0,0E0,0E0,1.78092E5,0E0,9.04742E5,0E0,0E0,0E0,3.97447E5,0E0,1.4891177E4,0E0,6.94455E4,0E0,0E0,0E0,0E0,0E0,0E0,9.2210766E4,0E0,0E0,0E0,6.058E3,1.8449219E2,1.1627273E4,0E0,0E0,0E0,0E0,0E0,0E0,0E0,0E0,0E0,0E0],"parents":[2147483647,0,0,1,1,2,2,3,3,4,4,5,5,8,8,9,9,10,10,11,11,12,12,13,13,14,14,15,15,16,16,17,17,18,18,19,19,20,20,21,21,25,25,27,27,28,28,29,29,31,31,32,32,33,33,34,34,37,37,38,38,41,41,42,42,45,45,46,46,47,47,50,50,51,51,53,53,54,54,55,55,57,57,59,59,60,60,65,65,70,70,71,71,73,73,74,74,81,81,83,83,87,87,89,89,91,91,98,98,102,102,103,103,104,104],"right_children":[2,4,6,8,10,12,-1,-1,14,16,18,20,22,24,26,28,30,32,34,36,38,40,-1,-1,-1,42,-1,44,46,48,-1,50,52,54,56,-1,-1,58,60,-1,-1,62,64,-1,-1,66,68,70,-1,-1,72,74,-1,76,78,80,-1,82,-1,84,86,-1,-1,-1,-1,88,-1,-1,-1,-1,90,92,-1,94,96,-1,-1,-1,-1,-1,-1,98,-1,100,-1,-1,-1,102,-1,104,-1,106,-1,-1,-1,-1,-1,-1,108,-1,-1,-1,110,112,114,-1,-1,-1,-1,-1,-1,-1,-1,-1,-1],"split_conditions":[1.75E2,6.1E1,3E0,5E1,3E0,1E0,1.0035495E2,-2.941129E1,1E0,1E0,1.09E2,3E0,4E0,2E0,1E0,6.6E1,1E0,1E0,1.63E2,1E0,2E0,2E0,5.615173E0,-9.622006E0,2.18745E0,5.5E1,-2.8655283E1,1E0,1.42E2,1.1E2,-9.397917E0,7E1,1E0,1.4E2,1E0,-1.0299969E0,9.796492E0,2.06E2,4.21E2,-4.8126566E-1,2.1246544E-1,5.3E1,3E0,-2.0728216E0,9.183699E0,1E0,2E0,2E0,-6.262171E0,1.2312469E1,1E0,6.6E1,-3.806041E0,1.32E2,1E0,4E0,1.14672165E1,2.02E2,6.1858624E1,1E0,4E0,-1.3698763E1,1.1474993E1,-2.3765768E1,-6.894586E-1,1E0,3.1503458E0,8.658378E-1,4.7422037E0,-3.3429906E0,7.1E1,1E0,1.766939E0,6.5E1,8.8E1,1.4683689E1,-8.036279E0,2.2966478E1,-2.2883549E0,-8.970628E0,7.565773E-2,1E0,-2.7379925E0,1E0,-2.2569177E0,-5.551098E0,5.340869E-1,1E0,2.4752553E0,6.6E1,1.921743E1,1.08E2,-1.5666455E-1,-3.5422945E0,1.9379618E0,2.894453E1,1.2571591E0,3.4060043E1,1.94E2,4.067914E1,4.4862285E0,-3.2992115E0,1E0,6.4E1,6.8E1,-1.4573713E1,-8.948702E-1,-1.0453969E0,7.5570903E0,-2.235154E1,-2.3764968E0,-2.6437355E-2,-6.929015E-1,2.6646874E0,-3.5307226E-1],"split_indices":[3,3,1,3,0,10,0,0,13,7,3,0,0,0,12,3,11,6,3,13,1,1,0,0,0,3,0,13,3,3,0,3,9,3,14,0,0,3,3,0,0,3,0,0,0,6,1,0,0,0,14,3,0,3,7,0,0,3,0,7,0,0,0,0,0,12,0,0,0,0,3,7,0,3,3,0,0,0,0,0,0,7,0,14,0,0,0,13,0,3,0,3,0,0,0,0,0,0,3,0,0,0,10,3,3,0,0,0,0,0,0,0,0,0,0],"split_type":[0,0,0,0,0,0,0,0,0,0,0,0,0,0,0,0,0,0,0,0,0,0,0,0,0,0,0,0,0,0,0,0,0,0,0,0,0,0,0,0,0,0,0,0,0,0,0,0,0,0,0,0,0,0,0,0,0,0,0,0,0,0,0,0,0,0,0,0,0,0,0,0,0,0,0,0,0,0,0,0,0,0,0,0,0,0,0,0,0,0,0,0,0,0,0,0,0,0,0,0,0,0,0,0,0,0,0,0,0,0,0,0,0,0,0],"sum_hessian":[3.37E2,2.72E2,6.5E1,1.58E2,1.14E2,5.3E1,1.2E1,8.2E1,7.6E1,5.8E1,5.6E1,5E1,3E0,4E0,7.2E1,4.3E1,1.5E1,3E1,2.6E1,3E0,4.7E1,2E0,1E0,1E0,3E0,5.6E1,1.6E1,4E0,3.9E1,1.2E1,3E0,2.2E1,8E0,2.1E1,5E0,1E0,2E0,3.1E1,1.6E1,1E0,1E0,3E1,2.6E1,2E0,2E0,3.5E1,4E0,1.1E1,1E0,2E0,2E1,6E0,2E0,1.1E1,1E1,3E0,2E0,9E0,2.2E1,1.4E1,2E0,2.5E1,5E0,2.5E1,1E0,3.4E1,1E0,3E0,1E0,2E0,9E0,1.9E1,1E0,2E0,4E0,8E0,3E0,9E0,1E0,2E0,1E0,7E0,2E0,1.2E1,2E0,1E0,1E0,3.3E1,1E0,5E0,4E0,1.8E1,1E0,1E0,1E0,3E0,1E0,5E0,2E0,1E1,2E0,3E0,3E1,2E0,3E0,1.7E1,1E0,1E0,1E0,2.9E1,1E0,1E0,1E0,2E0,1E0],"tree_param":{"num_deleted":"0","num_feature":"18","num_nodes":"115","size_leaf_vector":"1"}},{"base_weights":[8.2327255E1,-2.589277E2,4.3522544E3,-5.193162E2,8.2589624E2,1.1403533E3,5.141758E3,-6.396562E2,-2.6629347E1,5.629762E2,7.513244E1,5.1891777E1,-2.7053618E0,6.1090757E3,1.3912902E3,-2.4452269E1,-4.3204697E2,-3.414932E2,3.3893646E2,6.5759735E2,-9.933075E0,2.2369493E2,1.5363236E1,-1.7547153E1,6.3177116E1,-5.42781E2,-4.5128345E1,-3.699871E2,-3.36246E1,-1.3715528E1,2.1693083E1,3.0353812E2,1.0093199E3,1.806675E2,-1.5320879E2,-1.7139019E0,9.7150755E-1,-5.8111053E1,-5.993852E2,8.074123E1,-1.9411418E2,-1.3298476E1,-4.2282206E-1,1.3371785E1,-2.2221603E0,3.806847E2,-4.5053104E1,4.391179E1,3.6738263E2,-8.628067E0,1.4530326E1,-1.1927042E1,9.419784E1,-3.9084728E0,1.508604E0,-6.2909155E2,-1.0695668E2,1.167044E2,-1.1445072E0,-7.2238913E0,-6.486894E-1,-1.3172259E0,1.8840823E0,4.0399844E2,-1.2555009E0,-6.21716E0,5.9324738E1,-7.205462E1,2.5400324E1,2.1093875E-1,3.6656814E0,-6.760352E2,-1.3002788E2,7.2263985E0,-1.0359977E1,4.615033E0,-1.5553796E-1,2.5231773E2,2.4558819E1,3.720879E0,-2.7035885E1,-4.3379593E0,2.434063E0,-2.4697828E1,-6.47837E1,1.2518508E0,-6.083248E0,5.221787E2,2.3299398E1,7.511374E-2,-1.2164267E0,-4.042948E0,1.3146675E0,6.527817E2,-4.5489774E0,-8.524766E1,1.1757411E1,3.0432135E1,3.4033415E0,8.700062E0,-6.2335954E0],"categories":[0,0],"categories_nodes":[8,72],"categories_segments":[0,1],"categories_sizes":[1,1],"default_left":[0,0,0,0,0,0,0,0,1,0,0,0,0,0,0,0,0,0,0,0,0,0,0,0,0,0,0,0,0,0,0,0,0,0,0,0,0,0,0,0,0,0,0,0,0,0,0,0,0,0,0,0,0,0,0,0,0,0,0,0,0,0,0,0,0,0,0,0,0,0,0,0,1,0,0,0,0,0,0,0,0,0,0,0,0,0,0,0,0,0,0,0,0,0,0,0,0,0,0,0,0],"id":16,"left_children":[1,3,5,7,9,11,13,15,17,19,-1,-1,-1,21,23,-1,25,27,29,31,33,-1,-1,35,-1,37,39,41,43,-1,-1,45,47,49,51,-1,-1,53,55,57,59,-1,-1,61,-1,63,65,-1,67,-1,-1,-1,69,-1,-1,71,73,75,-1,-1,-1,-1,-1,77,-1,-1,79,81,-1,-1,-1,83,85,-1,-1,-1,-1,87,-1,-1,89,-1,-1,-1,91,-1,-1,93,95,-1,-1,-1,-1,97,-1,99,-1,-1,-1,-1,-1],"loss_changes":[4.893459E8,8.974047E7,4.043955E7,1.4984696E7,1.695074E7,4.626266E6,3.5662304E7,1.452808E6,6.6437295E6,3.107318E6,0E0,0E0,0E0,1.336656E7,5.376542E6,0E0,2.341036E6,2.2247125E5,6.517518E6,4.903114E6,4.301046E5,0E0,0E0,1.3692213E4,0E0,1.068475E6,3.7636825E5,9.71825E4,1.3013462E4,0E0,0E0,8.6895525E5,1.892638E6,1.0901848E6,5.380078E5,0E0,0E0,6.720517E4,3.08827E5,6.3204953E4,5.4261875E3,0E0,0E0,2.0050008E4,0E0,2.9766425E5,1.6395638E5,0E0,2.0842751E6,0E0,0E0,0E0,4.1036406E3,0E0,0E0,5.00993E5,6.468862E5,2.110289E4,0E0,0E0,0E0,0E0,0E0,4.02554E5,0E0,0E0,4.331383E4,9.9295484E4,0E0,0E0,0E0,4.57063E5,8.219403E4,0E0,0E0,0E0,0E0,1.3031561E6,0E0,0E0,1.653773E3,0E0,0E0,0E0,4.7597938E4,0E0,0E0,1.1678545E6,6.511146E5,0E0,0E0,0E0,0E0,7.536975E5,0E0,6.372283E5,0E0,0E0,0E0,0E0,0E0],"parents":[2147483647,0,0,1,1,2,2,3,3,4,4,5,5,6,6,7,7,8,8,9,9,13,13,14,14,16,16,17,17,18,18,19,19,20,20,23,23,25,25,26,26,27,27,28,28,31,31,32,32,33,33,34,34,37,37,38,38,39,39,40,40,43,43,45,45,46,46,48,48,52,52,55,55,56,56,57,57,63,63,66,66,67,67,71,71,72,72,77,77,80,80,84,84,87,87,88,88,93,93,95,95],"right_children":[2,4,6,8,10,12,14,16,18,20,-1,-1,-1,22,24,-1,26,28,30,32,34,-1,-1,36,-1,38,40,42,44,-1,-1,46,48,50,52,-1,-1,54,56,58,60,-1,-1,62,-1,64,66,-1,68,-1,-1,-1,70,-1,-1,72,74,76,-1,-1,-1,-1,-1,78,-1,-1,80,82,-1,-1,-1,84,86,-1,-1,-1,-1,88,-1,-1,90,-1,-1,-1,92,-1,-1,94,96,-1,-1,-1,-1,98,-1,100,-1,-1,-1,-1,-1],"split_conditions":[4E0,1.42E2,2.06E2,2E0,3E0,1.8E2,5E0,6.1E1,1E-45,3E0,7.513244E1,5.1891777E1,-2.7053618E0,1E0,5.24E2,-2.4452269E1,1E0,3E0,6.6E1,2E2,2.02E2,2.2369493E2,1.5363236E1,8E0,6.3177116E1,6.6E1,1E0,1.25E2,1.03E2,-1.3715528E1,2.1693083E1,1E0,2.5E2,1.75E2,2.26E2,-1.7139019E0,9.7150755E-1,6.5E1,1.12E2,1E0,2E0,-1.3298476E1,-4.2282206E-1,7.1E1,-2.2221603E0,1.94E2,1.6E2,4.391179E1,3.12E2,-8.628067E0,1.4530326E1,-1.1927042E1,2.63E2,-3.9084728E0,1.508604E0,2E0,1.32E2,7.5E1,-1.1445072E0,-7.2238913E0,-6.486894E-1,-1.3172259E0,1.8840823E0,1E0,-1.2555009E0,-6.21716E0,1.63E2,1E0,2.5400324E1,2.1093875E-1,3.6656814E0,1E0,1E-45,7.2263985E0,-1.0359977E1,4.615033E0,-1.5553796E-1,2E0,2.4558819E1,3.720879E0,2E0,-4.3379593E0,2.434063E0,-2.4697828E1,6.8E1,1.2518508E0,-6.083248E0,1E0,1E0,7.511374E-2,-1.2164267E0,-4.042948E0,1.3146675E0,1.63E2,-4.5489774E0,1.5E2,1.1757411E1,3.0432135E1,3.4033415E0,8.700062E0,-6.2335954E0],"split_indices":[2,3,3,2,1,3,2,3,17,2,0,0,0,6,3,0,10,2,3,3,3,0,0,2,0,3,11,3,3,0,0,7,3,3,3,0,0,3,3,6,1,0,0,3,0,3,3,0,3,0,0,0,3,0,0,1,3,3,0,0,0,0,0,8,0,0,3,16,0,0,0,7,17,0,0,0,0,2,0,0,1,0,0,0,3,0,0,16,16,0,0,0,0,3,0,3,0,0,0,0,0],"split_type":[0,0,0,0,0,0,0,0,1,0,0,0,0,0,0,0,0,0,0,0,0,0,0,0,0,0,0,0,0,0,0,0,0,0,0,0,0,0,0,0,0,0,0,0,0,0,0,0,0,0,0,0,0,0,0,0,0,0,0,0,0,0,0,0,0,0,0,0,0,0,0,0,1,0,0,0,0,0,0,0,0,0,0,0,0,0,0,0,0,0,0,0,0,0,0,0,0,0,0,0,0],"sum_hessian":[3.29E2,3.08E2,2.1E1,2.5E2,5.8E1,6E0,1.5E1,2E2,5E1,5.3E1,5E0,4E0,2E0,1E1,5E0,1.47E2,5.3E1,2.7E1,2.3E1,4.5E1,8E0,9E0,1E0,2E0,3E0,4E1,1.3E1,2.4E1,3E0,6E0,1.7E1,2.6E1,1.9E1,3E0,5E0,1E0,1E0,5E0,3.5E1,8E0,5E0,2.3E1,1E0,2E0,1E0,2.1E1,5E0,1.1E1,8E0,1E0,2E0,2E0,3E0,3E0,2E0,3.2E1,3E0,6E0,2E0,4E0,1E0,1E0,1E0,2E1,1E0,1E0,4E0,5E0,3E0,1E0,2E0,2.8E1,4E0,1E0,2E0,5E0,1E0,1.8E1,2E0,2E0,2E0,4E0,1E0,2.6E1,2E0,1E0,3E0,6E0,1.2E1,1E0,1E0,1E0,1E0,5E0,1E0,1.1E1,1E0,2E0,3E0,1E0,1E1],"tree_param":{"num_deleted":"0","num_feature":"18","num_nodes":"101","size_leaf_vector":"1"}},{"base_weights":[5.14829E1,-3.498134E2,2.4440518E3,-5.334412E2,1.8501553E2,1.3693818E3,4.7938345E3,-5.689452E2,6.82813E1,3.792136E1,5.9864124E2,1.3122415E2,8.982921E2,2.0310112E2,6.135951E2,-5.825615E2,-8.6830536E1,1.9783646E1,-1.2548677E2,-2.8649716E2,1.6666441E2,1.0271273E3,1.584253E2,4.000762E2,1.9043499E3,5.039008E-1,2.4620678E1,-2.4935133E1,-5.0363434E2,-2.4040128E2,9.138958E0,-2.771989E2,1.2633657E2,6.963202E1,-4.0875708E2,6.0449894E1,2.175188E1,4.0311077E1,7.457327E-2,1.8221567E1,-7.285126E1,-1.0069062E2,1.0538568E3,7.177974E1,2.7024455E0,-4.1896295E2,-7.258081E2,-1.1189638E1,-3.6333244E1,-3.6442297E2,3.5507228E0,-6.847788E0,9.897678E0,-1.2273142E2,9.975033E0,-1.6358276E1,2.6526215E0,-5.9335953E1,1.7634714E1,-1.9504778E2,6.299475E0,-2.3703534E2,1.7743681E1,9.645253E-1,1.1314166E3,-3.2440405E2,-2.1661045E1,-2.7396091E1,-8.159509E0,-1.742518E0,3.0853018E-1,-1.405744E1,-4.1978276E-1,1.0375527E1,-6.4828296E0,1.3779218E2,-1.187415E2,-8.15423E0,-1.4369077E1,-3.7839383E2,1.1363686E1,3.5855835E2,4.7030094E1,-4.2735464E2,-1.3892325E2,9.496392E-1,-5.0874937E-1,-1.591843E2,2.9160873E2,-8.221073E0,-1.9857973E1,-6.440269E-1,3.524294E-2,-5.077838E2,-4.0474514E1,-2.6672664E0,2.4000713E1,-1.2537555E2,-5.468985E2,9.632628E1,-3.2356213E2,-7.8922777E0,1.1952744E0,1.2212215E1,-7.928532E-1,-6.992343E1,3.1678638E0,-1.8467772E1,-1.9230951E0,1.05032616E2,-1.4208607E2,-4.0947607E2,5.7252525E1,-5.8941016E2,-4.7976906E1,1.6071423E2,-1.4142117E2,-3.9444794E2,3.256236E1,-3.2068164E0,1.8498251E0,-1.8993597E0,6.3197565E0,2.4459693E0,-7.8305573E0,-1.503726E0,-1.5287525E1,1.2926437E2,-6.7520447E0,-6.03207E2,-1.2717521E0,1.6116978E1,-3.0441208E0,1.8164488E1,1.3675236E1,-2.7699995E-1,-5.6638403E0,-1.4587003E1,-7.364742E1,-1.1308671E0,2.971779E0,-3.051335E0,6.773942E0,-3.5968046E0,-2.1777557E1,-5.9418816E-2,7.416867E-1,4.4995446E0,-1.0139341E0,2.4499843E0,-5.5509067E0],"categories":[],"categories_nodes":[],"categories_segments":[],"categories_sizes":[],"default_left":[0,0,0,0,0,0,0,0,0,0,0,0,0,0,0,0,0,0,0,0,0,0,0,0,0,0,0,0,0,0,0,0,0,0,0,0,0,0,0,0,0,0,0,0,0,0,0,0,0,0,0,0,0,0,0,0,0,0,0,0,0,0,0,0,0,0,0,0,0,0,0,0,0,0,0,0,0,0,0,0,0,0,0,0,0,0,0,0,0,0,0,0,0,0,0,0,0,0,0,0,0,0,0,0,0,0,0,0,0,0,0,0,0,0,0,0,0,0,0,0,0,0,0,0,0,0,0,0,0,0,0,0,0,0,0,0,0,0,0,0,0,0,0,0,0,0,0,0,0,0,0],"id":17,"left_children":[1,3,5,7,9,11,13,15,17,19,21,-1,23,-1,25,27,29,-1,31,33,35,37,39,41,43,-1,-1,-1,45,47,-1,49,51,53,55,57,-1,-1,-1,-1,59,61,63,-1,-1,65,67,-1,69,71,-1,-1,-1,73,-1,-1,-1,75,-1,77,-1,79,-1,-1,81,83,-1,-1,-1,-1,-1,-1,-1,85,-1,87,89,-1,91,93,-1,95,-1,97,99,-1,-1,101,103,-1,105,-1,-1,107,109,-1,-1,111,113,115,117,-1,-1,-1,-1,119,-1,-1,-1,121,123,125,127,129,131,133,135,137,139,-1,-1,-1,-1,-1,-1,-1,-1,141,-1,143,-1,145,-1,147,-1,-1,-1,-1,149,-1,-1,-1,-1,-1,-1,-1,-1,-1,-1,-1,-1],"loss_changes":[3.0654806E8,2.7274682E7,9.050826E7,4.526168E6,4.344484E6,2.8565208E7,4.174061E7,1.077408E6,1.7111945E6,2.5998732E6,2.9283275E6,0E0,1.5034712E7,0E0,3.41057E5,5.82204E5,7.7055E5,0E0,6.6399494E5,8.869319E5,1.9847696E6,1.163898E6,1.3139825E6,9.854014E6,2.458168E6,0E0,0E0,0E0,1.290294E6,1.0049906E5,0E0,4.687258E5,6.1423994E5,4.622958E5,5.445715E5,2.2424502E6,0E0,0E0,0E0,0E0,5.0288238E5,2.114567E6,9.01394E5,0E0,0E0,1.212106E6,2.04554E5,0E0,5.9584434E3,1.02345375E5,0E0,0E0,0E0,6.522379E4,0E0,0E0,0E0,4.7106556E5,0E0,5.613703E4,0E0,1.975206E6,0E0,0E0,1.32453E5,1.276762E6,0E0,0E0,0E0,0E0,0E0,0E0,0E0,4.0033345E3,0E0,6.286652E5,3.1594847E5,0E0,4.529579E2,6.5723375E5,0E0,1.3303902E6,0E0,1.499077E6,1.5903915E6,0E0,0E0,1.0612794E5,1.759205E5,0E0,1.3450547E5,0E0,0E0,5.51475E3,1.8830245E5,0E0,0E0,1.0684462E6,6.08677E5,3.6073156E5,5.507485E5,0E0,0E0,0E0,0E0,6.187329E4,0E0,0E0,0E0,1.0930239E5,1.808509E5,1.064775E4,3.6472E5,1.50199E5,2.2744537E4,4.9565716E5,1.1376703E4,1.11615E4,3.4148625E4,0E0,0E0,0E0,0E0,0E0,0E0,0E0,0E0,2.6100319E5,0E0,7.4035E4,0E0,6.9061426E2,0E0,8.712145E4,0E0,0E0,0E0,0E0,1.1523142E5,0E0,0E0,0E0,0E0,0E0,0E0,0E0,0E0,0E0,0E0,0E0,0E0],"parents":[2147483647,0,0,1,1,2,2,3,3,4,4,5,5,6,6,7,7,8,8,9,9,10,10,12,12,14,14,15,15,16,16,18,18,19,19,20,20,21,21,22,22,23,23,24,24,28,28,29,29,31,31,32,32,33,33,34,34,35,35,40,40,41,41,42,42,45,45,46,46,48,48,49,49,53,53,57,57,59,59,61,61,64,64,65,65,73,73,75,75,76,76,78,78,79,79,81,81,83,83,84,84,87,87,88,88,90,90,93,93,94,94,97,97,98,98,99,99,100,100,105,105,109,109,110,110,111,111,112,112,113,113,114,114,115,115,116,116,117,117,118,118,127,127,129,129,131,131,133,133,138,138],"right_children":[2,4,6,8,10,12,14,16,18,20,22,-1,24,-1,26,28,30,-1,32,34,36,38,40,42,44,-1,-1,-1,46,48,-1,50,52,54,56,58,-1,-1,-1,-1,60,62,64,-1,-1,66,68,-1,70,72,-1,-1,-1,74,-1,-1,-1,76,-1,78,-1,80,-1,-1,82,84,-1,-1,-1,-1,-1,-1,-1,86,-1,88,90,-1,92,94,-1,96,-1,98,100,-1,-1,102,104,-1,106,-1,-1,108,110,-1,-1,112,114,116,118,-1,-1,-1,-1,120,-1,-1,-1,122,124,126,128,130,132,134,136,138,140,-1,-1,-1,-1,-1,-1,-1,-1,142,-1,144,-1,146,-1,148,-1,-1,-1,-1,150,-1,-1,-1,-1,-1,-1,-1,-1,-1,-1,-1,-1],"split_conditions":[2.6E2,3E0,5.85E2,1.59E2,1E0,1E0,1E3,7.4E2,1.6E2,1.12E2,1E0,1.3122415E2,4E1,2.0310112E2,3E0,4.6E1,1E0,1.9783646E1,2.07E2,7E1,4E1,4E0,1E0,2E0,2E0,5.039008E-1,2.4620678E1,-2.4935133E1,7.8E1,5.5E1,9.138958E0,4E1,2E0,6.2E1,2E0,4E0,2.175188E1,4.0311077E1,7.457327E-2,1.8221567E1,1E2,1E0,2E0,7.177974E1,2.7024455E0,1E0,2E0,-1.1189638E1,9.5E1,2E0,3.5507228E0,-6.847788E0,9.897678E0,3.69E2,9.975033E0,-1.6358276E1,2.6526215E0,1.53E2,1.7634714E1,2E0,6.299475E0,1E0,1.7743681E1,9.645253E-1,3.2E2,3.26E2,-2.1661045E1,-2.7396091E1,-8.159509E0,-1.742518E0,3.0853018E-1,-1.405744E1,-4.1978276E-1,5.1E1,-6.4828296E0,1.3E2,2.2E2,-8.15423E0,6.4E1,3.6E2,1.1363686E1,3E0,4.7030094E1,2.1E2,3.9E2,9.496392E-1,-5.0874937E-1,2E0,2E0,-8.221073E0,2E0,-6.440269E-1,3.524294E-2,4E0,4.07E2,-2.6672664E0,2.4000713E1,2E0,6.2E1,6.8E1,1E0,-7.8922777E0,1.1952744E0,1.2212215E1,-7.928532E-1,1E0,3.1678638E0,-1.8467772E1,-1.9230951E0,3E0,2E0,4.7E1,6E1,2E0,2E0,3.6E2,7.1E1,4.7E2,6.6E1,-3.2068164E0,1.8498251E0,-1.8993597E0,6.3197565E0,2.4459693E0,-7.8305573E0,-1.503726E0,-1.5287525E1,5E1,-6.7520447E0,4.8E1,-1.2717521E0,6.4E1,-3.0441208E0,2E0,1.3675236E1,-2.7699995E-1,-5.6638403E0,-1.4587003E1,5.7E1,-1.1308671E0,2.971779E0,-3.051335E0,6.773942E0,-3.5968046E0,-2.1777557E1,-5.9418816E-2,7.416867E-1,4.4995446E0,-1.0139341E0,2.4499843E0,-5.5509067E0],"split_indices":[4,0,4,4,6,0,4,5,4,4,12,0,5,0,1,4,6,0,4,4,5,0,10,1,1,0,0,0,4,4,0,5,0,4,1,0,0,0,0,0,4,15,0,0,0,12,1,0,4,1,0,0,0,5,0,0,0,4,0,1,0,14,0,0,4,5,0,0,0,0,0,0,0,4,0,4,4,0,4,4,0,1,0,5,5,0,0,1,1,0,1,0,0,0,4,0,0,0,4,4,6,0,0,0,0,14,0,0,0,0,0,4,4,1,1,5,4,5,4,0,0,0,0,0,0,0,0,4,0,4,0,4,0,0,0,0,0,0,4,0,0,0,0,0,0,0,0,0,0,0,0],"split_type":[0,0,0,0,0,0,0,0,0,0,0,0,0,0,0,0,0,0,0,0,0,0,0,0,0,0,0,0,0,0,0,0,0,0,0,0,0,0,0,0,0,0,0,0,0,0,0,0,0,0,0,0,0,0,0,0,0,0,0,0,0,0,0,0,0,0,0,0,0,0,0,0,0,0,0,0,0,0,0,0,0,0,0,0,0,0,0,0,0,0,0,0,0,0,0,0,0,0,0,0,0,0,0,0,0,0,0,0,0,0,0,0,0,0,0,0,0,0,0,0,0,0,0,0,0,0,0,0,0,0,0,0,0,0,0,0,0,0,0,0,0,0,0,0,0,0,0,0,0,0,0],"sum_hessian":[3.12E2,2.7E2,4.2E1,2.01E2,6.9E1,3.3E1,9E0,1.9E2,1.1E1,5.4E1,1.5E1,1E0,3.2E1,6E0,3E0,1.84E2,6E0,1E0,1E1,1.4E1,4E1,5E0,1E1,2.5E1,7E0,1E0,2E0,5.7E1,1.27E2,5E0,1E0,6E0,4E0,4E0,1E1,3.6E1,4E0,4E0,1E0,2E0,8E0,1.6E1,9E0,6E0,1E0,1E2,2.7E1,2E0,3E0,5E0,1E0,1E0,3E0,3E0,1E0,9E0,1E0,3.1E1,5E0,6E0,2E0,1.5E1,1E0,1E0,8E0,7.5E1,2.5E1,2.2E1,5E0,2E0,1E0,4E0,1E0,2E0,1E0,6E0,2.5E1,4E0,2E0,1.3E1,2E0,4E0,4E0,4.5E1,3E1,1E0,1E0,2E0,4E0,9E0,1.6E1,1E0,1E0,8E0,5E0,3E0,1E0,1.5E1,3E1,1.4E1,1.6E1,1E0,1E0,3E0,1E0,1.2E1,4E0,7E0,1E0,2E0,3E0,4E0,1.1E1,2.7E1,3E0,1.2E1,2E0,1.3E1,3E0,1.1E1,1E0,1E0,1E0,1E0,2E0,1E0,3E0,1E1,1E0,2.6E1,1E0,2E0,1E0,1E1,2E0,1E0,1E0,1.1E1,2E0,2E0,1E0,2E0,8E0,2E0,2.4E1,1E0,1E0,1E0,9E0,1E0,1E0],"tree_param":{"num_deleted":"0","num_feature":"18","num_nodes":"151","size_leaf_vector":"1"}},{"base_weights":[1.0391498E1,-2.6155643E2,4.1165737E3,-5.5695294E2,5.122098E2,1.1344081E3,5.4013384E3,-2.4146353E1,-3.6834598E2,1.3648877E2,9.6487256E2,1.3549912E3,-7.457077E0,2.4323372E2,1.6527158E3,-4.447344E2,3.1741738E0,-9.014062E1,7.670643E2,1.0575471E3,9.197092E1,5.5808704E1,-5.9179683E0,-1.9092726E0,6.612441E1,-4.9987146E2,4.797262E1,1.14759125E2,-1.0083526E1,-3.5704175E2,4.090524E1,3.0246096E1,-3.785643E0,1.26291485E1,1.1216171E3,-6.8174415E0,5.5289927E0,1.8186669E0,-5.1007538E2,-6.923722E1,9.489476E0,-4.2678466E-1,9.124756E0,-1.4408334E1,2.6335557E0,1.23248566E2,-4.56093E1,-4.139569E0,4.675204E0,1.2437548E3,4.4387653E2,3.030086E-1,-7.0580107E-1,-1.8443409E1,-8.995788E1,1.9351909E2,-7.4193654E0,3.4579605E1,-2.4806523E0,-4.352828E1,9.022159E0,-5.101116E0,4.197963E0,4.508752E1,2.3035677E2,-1.4184393E0,1.7742147E1,4.256828E1,-7.1754003E0,-3.7539157E-1,8.515874E0,5.798003E1,-1.4991959E1,2.003186E2,-2.3504568E2,1.1451591E1,-1.7624046E0,-8.932706E1,5.8557067E0,-1.6363626E0,3.2920992E0,1.2885543E0,-1.6840005E0,7.9575357E0,2.5821483E-1,-1.1324605E1,9.391718E0,2.5707945E-1,-4.0171943E0,-7.8715354E-1,1.1866828E0],"categories":[0],"categories_nodes":[11],"categories_segments":[0],"categories_sizes":[1],"default_left":[0,0,0,0,0,0,0,0,0,0,0,1,0,0,0,0,0,0,0,0,0,0,0,0,0,0,0,0,0,0,0,0,0,0,0,0,0,0,0,0,0,0,0,0,0,0,0,0,0,0,0,0,0,0,0,0,0,0,0,0,0,0,0,0,0,0,0,0,0,0,0,0,0,0,0,0,0,0,0,0,0,0,0,0,0,0,0,0,0,0,0],"id":18,"left_children":[1,3,5,7,9,11,13,-1,15,17,19,21,-1,-1,23,25,27,29,31,33,35,-1,-1,-1,-1,37,39,41,-1,43,45,-1,-1,47,49,51,-1,-1,53,55,-1,57,-1,-1,-1,59,61,-1,-1,63,65,-1,-1,-1,67,69,-1,71,-1,73,-1,-1,-1,-1,75,-1,-1,77,-1,-1,-1,79,81,83,85,-1,-1,87,-1,-1,-1,-1,-1,-1,-1,-1,89,-1,-1,-1,-1],"loss_changes":[3.5684538E8,6.9633944E7,5.2460544E7,4.624064E6,1.3923078E7,4.343421E6,3.1576288E7,0E0,2.839422E6,7.53327E6,2.686704E6,4.74539E6,0E0,0E0,4.095378E6,2.343313E6,8.0812975E5,1.4851712E6,1.584996E6,2.210864E6,5.5952734E4,0E0,0E0,0E0,0E0,5.24374E5,3.8419762E5,3.029157E5,0E0,4.5807525E5,2.4145316E5,0E0,0E0,1.5472E5,5.10304E5,2.112268E3,0E0,0E0,4.08706E5,5.680305E5,0E0,4.3795508E4,0E0,0E0,0E0,4.245798E5,3.6648194E5,0E0,0E0,1.07816E5,4.226605E5,0E0,0E0,0E0,1.54414E5,7.099892E4,0E0,1.7118709E4,0E0,6.8791625E5,0E0,0E0,0E0,0E0,2.254961E5,0E0,0E0,1.711355E5,0E0,0E0,0E0,5.0968383E4,1.8742943E4,3.0323344E4,1.843834E5,0E0,0E0,1.8010418E4,0E0,0E0,0E0,0E0,0E0,0E0,0E0,0E0,7.578682E3,0E0,0E0,0E0,0E0],"parents":[2147483647,0,0,1,1,2,2,3,3,4,4,5,5,6,6,8,8,9,9,10,10,11,11,14,14,15,15,16,16,17,17,18,18,19,19,20,20,25,25,26,26,27,27,29,29,30,30,33,33,34,34,35,35,38,38,39,39,41,41,45,45,46,46,49,49,50,50,54,54,55,55,57,57,59,59,64,64,67,67,71,71,72,72,73,73,74,74,77,77,86,86],"right_children":[2,4,6,8,10,12,14,-1,16,18,20,22,-1,-1,24,26,28,30,32,34,36,-1,-1,-1,-1,38,40,42,-1,44,46,-1,-1,48,50,52,-1,-1,54,56,-1,58,-1,-1,-1,60,62,-1,-1,64,66,-1,-1,-1,68,70,-1,72,-1,74,-1,-1,-1,-1,76,-1,-1,78,-1,-1,-1,80,82,84,86,-1,-1,88,-1,-1,-1,-1,-1,-1,-1,-1,90,-1,-1,-1,-1],"split_conditions":[3.44E2,3E0,4E0,5.6E1,1.72E2,1E0,4.8E2,-2.4146353E1,1E0,1E0,1E0,1E-45,-7.457077E0,2.4323372E2,2E0,2E0,1E0,9.8E1,1E0,1E0,4E0,5.5808704E1,-5.9179683E0,-1.9092726E0,6.612441E1,6E1,3E0,7.1E1,-1.0083526E1,2E0,1.3E2,3.0246096E1,-3.785643E0,2.02E2,2.47E2,2.63E2,5.5289927E0,1.8186669E0,1E0,7E1,9.489476E0,1E0,9.124756E0,-1.4408334E1,2.6335557E0,1.12E2,1.53E2,-4.139569E0,4.675204E0,1E0,2.57E2,3.030086E-1,-7.0580107E-1,-1.8443409E1,6.4E1,6.4E1,-7.4193654E0,1E0,-2.4806523E0,1.03E2,9.022159E0,-5.101116E0,4.197963E0,4.508752E1,1.75E2,-1.4184393E0,1.7742147E1,6.1E1,-7.1754003E0,-3.7539157E-1,8.515874E0,1E0,6.1E1,2E0,2E0,1.1451591E1,-1.7624046E0,1E0,5.8557067E0,-1.6363626E0,3.2920992E0,1.2885543E0,-1.6840005E0,7.9575357E0,2.5821483E-1,-1.1324605E1,1.09E2,2.5707945E-1,-4.0171943E0,-7.8715354E-1,1.1866828E0],"split_indices":[3,0,0,3,3,16,3,0,10,6,10,17,0,0,1,1,11,3,9,13,0,0,0,0,0,3,1,3,0,1,3,0,0,3,3,3,0,0,12,3,0,6,0,0,0,3,3,0,0,8,3,0,0,0,3,3,0,12,0,3,0,0,0,0,3,0,0,3,0,0,0,13,3,1,1,0,0,6,0,0,0,0,0,0,0,0,3,0,0,0,0],"split_type":[0,0,0,0,0,0,0,0,0,0,0,1,0,0,0,0,0,0,0,0,0,0,0,0,0,0,0,0,0,0,0,0,0,0,0,0,0,0,0,0,0,0,0,0,0,0,0,0,0,0,0,0,0,0,0,0,0,0,0,0,0,0,0,0,0,0,0,0,0,0,0,0,0,0,0,0,0,0,0,0,0,0,0,0,0,0,0,0,0,0,0],"sum_hessian":[3.12E2,2.96E2,1.6E1,2.15E2,8.1E1,7E0,9E0,1.19E2,9.6E1,4.7E1,3.4E1,6E0,1E0,4E0,5E0,7.9E1,1.7E1,3.7E1,1E1,3E1,4E0,5E0,1E0,1E0,4E0,7.1E1,8E0,1.4E1,3E0,1E1,2.7E1,9E0,1E0,2E0,2.8E1,3E0,1E0,1E0,7E1,7E0,1E0,1E1,4E0,9E0,1E0,1.3E1,1.4E1,1E0,1E0,2.1E1,7E0,2E0,1E0,6.6E1,4E0,2E0,5E0,8E0,2E0,7E0,6E0,9E0,5E0,1.9E1,2E0,1E0,6E0,3E0,1E0,1E0,1E0,5E0,3E0,3E0,4E0,1E0,1E0,2E0,1E0,1E0,4E0,1E0,2E0,2E0,1E0,2E0,2E0,1E0,1E0,1E0,1E0],"tree_param":{"num_deleted":"0","num_feature":"18","num_nodes":"91","size_leaf_vector":"1"}},{"base_weights":[1.1119113E2,-3.4437216E2,2.45636E3,-5.4793756E2,1.2748083E2,6.904665E2,3.241513E3,-6.0556335E2,5.0466278E2,-1.312501E2,4.55295E2,1.6372281E2,5.1670895E1,3.5440527E3,4.627694E2,-6.2673944E2,7.61821E1,5.828702E2,-2.466546E0,-3.1540094E2,2.1500603E1,1.7420163E2,8.939569E2,-5.2413414E1,6.047988E2,2.283164E3,2.132724E2,-1.1434304E1,7.6269904E2,-2.2058508E1,-1.130707E0,-9.7989006E1,8.020145E0,6.7222534E2,-2.1314654E0,9.764409E0,-1.6024773E1,1.3887216E2,-2.4408017E2,-1.19476795E1,2.8974298E2,3.608451E1,-6.6250124E0,-2.0003098E2,1.4312813E1,1.9177061E0,2.3504133E1,1.0739831E2,6.7739325E2,2.4998419E-2,3.1103003E1,-1.2732956E-1,-3.8897233E0,2.7186178E1,8.5105194E1,-3.634379E-1,5.130158E0,1.2351012E0,-3.22742E2,3.8499835E2,-1.7686464E2,-9.531869E0,5.341189E0,-8.562793E0,9.130599E2,-2.5369906E0,6.1196127E0,-1.2142702E1,-8.68027E-1,-1.2606816E1,4.7685724E2,-7.5860095E0,4.388767E-1,3.3612442E1,2.555497E0,3.9120758E0,-4.5056E0,5.36232E2,-3.758433E0,2.0347748E2,2.2585442E1,1.2285637E1,-1.3028062E2,-5.738214E0,2.5635824E-1],"categories":[],"categories_nodes":[],"categories_segments":[],"categories_sizes":[],"default_left":[0,0,0,0,0,0,0,0,0,0,0,0,0,0,0,0,0,0,0,0,0,0,0,0,0,0,0,0,0,0,0,0,0,0,0,0,0,0,0,0,0,0,0,0,0,0,0,0,0,0,0,0,0,0,0,0,0,0,0,0,0,0,0,0,0,0,0,0,0,0,0,0,0,0,0,0,0,0,0,0,0,0,0,0,0],"id":19,"left_children":[1,3,5,7,9,11,13,15,17,19,21,23,-1,25,27,29,31,33,-1,35,37,39,41,43,45,47,-1,-1,49,-1,-1,51,-1,53,-1,-1,-1,55,57,-1,59,-1,-1,61,-1,-1,-1,-1,63,-1,-1,-1,-1,-1,65,-1,-1,-1,67,69,71,-1,-1,-1,73,-1,-1,-1,-1,75,77,-1,-1,-1,-1,-1,-1,79,-1,81,-1,-1,83,-1,-1],"loss_changes":[3.4070192E8,2.5996838E7,6.3271136E7,1.257072E7,7.34194E6,7.763003E6,2.2981536E7,2.780564E6,6.9234975E5,1.4285074E6,4.0668695E6,1.7286414E6,0E0,4.6381056E7,2.8251542E6,5.59624E5,3.2411753E5,7.8296675E5,0E0,2.4605155E6,1.0920166E6,2.0458215E6,2.880238E6,1.3310809E6,8.041325E4,2.6378368E7,0E0,0E0,6.737905E5,0E0,0E0,7.1508047E3,0E0,3.67196E5,0E0,0E0,0E0,3.561925E4,2.8275175E5,0E0,1.3666952E6,0E0,0E0,5.207627E5,0E0,0E0,0E0,0E0,3.8765555E6,0E0,0E0,0E0,0E0,0E0,1.3281794E5,0E0,0E0,0E0,3.3960125E4,8.21449E5,6.3610594E4,0E0,0E0,0E0,2.3788E5,0E0,0E0,0E0,0E0,1.7018797E5,8.424995E5,0E0,0E0,0E0,0E0,0E0,0E0,1.186075E5,0E0,6.667501E5,0E0,0E0,3.2422492E4,0E0,0E0],"parents":[2147483647,0,0,1,1,2,2,3,3,4,4,5,5,6,6,7,7,8,8,9,9,10,10,11,11,13,13,14,14,15,15,16,16,17,17,19,19,20,20,21,21,22,22,23,23,24,24,25,25,28,28,31,31,33,33,37,37,38,38,40,40,43,43,48,48,54,54,58,58,59,59,60,60,64,64,69,69,70,70,77,77,79,79,82,82],"right_children":[2,4,6,8,10,12,14,16,18,20,22,24,-1,26,28,30,32,34,-1,36,38,40,42,44,46,48,-1,-1,50,-1,-1,52,-1,54,-1,-1,-1,56,58,-1,60,-1,-1,62,-1,-1,-1,-1,64,-1,-1,-1,-1,-1,66,-1,-1,-1,68,70,72,-1,-1,-1,74,-1,-1,-1,-1,76,78,-1,-1,-1,-1,-1,-1,80,-1,82,-1,-1,84,-1,-1],"split_conditions":[2.6E2,2E0,3E0,1.53E2,4E1,1.9E2,8.1E2,6E2,4E1,1.81E2,1.09E2,1E0,5.1670895E1,6.65E2,9.46E2,1E0,7.8E2,1E0,-2.466546E0,7.4E1,3E0,2.76E2,4E0,1E0,2E0,4.44E2,2.132724E2,-1.1434304E1,4E0,-2.2058508E1,-1.130707E0,6.2E2,8.020145E0,1E0,-2.1314654E0,9.764409E0,-1.6024773E1,1.9E2,2.45E2,-1.19476795E1,7.8E2,3.608451E1,-6.6250124E0,4.89E2,1.4312813E1,1.9177061E0,2.3504133E1,1.0739831E2,4.55E2,2.4998419E-2,3.1103003E1,-1.2732956E-1,-3.8897233E0,2.7186178E1,2.19E2,-3.634379E-1,5.130158E0,1.2351012E0,1E0,6.7E1,1E2,-9.531869E0,5.341189E0,-8.562793E0,5.84E2,-2.5369906E0,6.1196127E0,-1.2142702E1,-8.68027E-1,1E0,1E0,-7.5860095E0,4.388767E-1,3.3612442E1,2.555497E0,3.9120758E0,-4.5056E0,1E0,-3.758433E0,5.89E2,2.2585442E1,1.2285637E1,7.1E1,-5.738214E0,2.5635824E-1],"split_indices":[4,2,2,4,5,5,4,5,5,4,4,14,0,4,4,9,5,7,0,4,2,5,2,10,2,4,0,0,2,0,0,5,0,14,0,0,0,4,4,0,5,0,0,4,0,0,0,0,4,0,0,0,0,0,4,0,0,0,7,4,4,0,0,0,5,0,0,0,0,10,9,0,0,0,0,0,0,6,0,5,0,0,4,0,0],"split_type":[0,0,0,0,0,0,0,0,0,0,0,0,0,0,0,0,0,0,0,0,0,0,0,0,0,0,0,0,0,0,0,0,0,0,0,0,0,0,0,0,0,0,0,0,0,0,0,0,0,0,0,0,0,0,0,0,0,0,0,0,0,0,0,0,0,0,0,0,0,0,0,0,0,0,0,0,0,0,0,0,0,0,0,0,0],"sum_hessian":[3.12E2,2.64E2,4.8E1,1.84E2,8E1,1.7E1,3.1E1,1.76E2,8E0,4.6E1,3.4E1,1.3E1,4E0,2.7E1,4E0,1.71E2,5E0,7E0,1E0,1.9E1,2.7E1,2.4E1,1E1,1.1E1,2E0,2.3E1,4E0,1E0,3E0,1.69E2,2E0,3E0,2E0,6E0,1E0,3E0,1.6E1,2E1,7E0,3E0,2.1E1,9E0,1E0,1E1,1E0,1E0,1E0,1.3E1,1E1,1E0,2E0,1E0,2E0,4E0,2E0,1E0,1.9E1,2E0,5E0,1.8E1,3E0,9E0,1E0,2E0,8E0,1E0,1E0,4E0,1E0,4E0,1.4E1,2E0,1E0,7E0,1E0,2E0,2E0,1.3E1,1E0,6E0,7E0,4E0,2E0,1E0,1E0],"tree_param":{"num_deleted":"0","num_feature":"18","num_nodes":"85","size_leaf_vector":"1"}},{"base_weights":[1.1605082E2,-4.18817E2,2.0305363E3,-5.5013666E2,1.1322933E2,8.202413E2,2.3039517E3,-2.191664E1,-3.1242615E2,-6.672768E0,8.040009E2,-4.0600956E1,1.3420386E3,1.3401813E3,2.7494595E3,-8.292067E0,-3.9985654E2,-2.4513707E2,1.2685718E2,-4.1046414E0,3.502312E1,-2.5118268E2,1.4610972E1,1.4972025E3,-2.4488175E0,7.287174E1,2.0420917E3,2.7997295E3,7.8883405E0,-1.3219827E2,8.688164E1,-4.909928E2,1.3400446E1,1.8944347E1,-3.4579187E2,-5.9934826E1,3.290527E2,-2.99951E2,1.2917674E0,5.739244E1,1.7559709E-1,2.5299952E1,-1.0629859E1,2.1871877E3,-8.0360305E-1,9.9304634E1,8.796284E0,2.522561E0,-1.9383696E2,9.792266E0,-1.0104522E2,-5.742583E2,2.2184633E1,-1.810232E2,3.320771E2,2.3690207E0,-1.1667253E0,-1.5171528E1,6.296113E1,-1.3215482E1,7.5451294E1,4.8268237E2,-8.372165E1,-1.0491539E0,-1.1135251E1,1.9039222E0,2.325944E3,-8.6909685E0,1.3352284E0,-4.5807728E-1,-4.1556745E0,-6.0494934E2,2.672949E0,8.384481E0,-1.23523094E2,-8.413436E0,-1.882533E1,1.9789331E1,-5.8236904E0,8.52986E-2,2.5569797E0,1.4447412E2,-8.325114E1,-7.605832E1,6.127291E2,-7.399026E0,3.4793713E0,8.497221E1,6.36702E0,-2.197287E1,-8.1051285E1,-6.732835E0,2.730323E1,-2.6799383E0,4.1590008E1,2.270333E2,-2.9886784E1,-1.0583142E1,-3.5210116E0,-5.0450964E0,1.8428166E0,2.3396526E1,2.545157E-1,4.3572158E-1,-3.847912E0,1.5133774E0,-3.6082497E-1,1.7932452E0,-4.005811E-2,1.0517325E1,-3.1162133E0,-3.7833016E0,3.6529171E0,2.16698E-1,-6.663163E-1],"categories":[],"categories_nodes":[],"categories_segments":[],"categories_sizes":[],"default_left":[0,0,0,0,0,0,0,0,0,0,0,0,0,0,0,0,0,0,0,0,0,0,0,0,0,0,0,0,0,0,0,0,0,0,0,0,0,0,0,0,0,0,0,0,0,0,0,0,0,0,0,0,0,0,