{"learner":{"attributes":{"scikit_learn":"{\"_estimator_type\": \"regressor\"}"},"feature_names":["bedrooms","bathrooms","parking_spaces","area_util","area_total","condominium_fee","amenity_score","has_pool","has_bbq","has_playground","has_sauna","has_party_room","has_sports_court","has_24h_security","has_laundry","has_closet","has_office","has_pantry","property_type","property_subtype","size_category"],"feature_types":["float","float","float","float","float","float","float","i","i","i","i","i","i","i","i","i","i","i","c","c","c"],"gradient_booster":{"model":{"cats":{"enc":[{"offsets":[],"values":[]},{"offsets":[],"values":[]},{"offsets":[],"values":[]},{"offsets":[],"values":[]},{"offsets":[],"values":[]},{"offsets":[],"values":[]},{"offsets":[],"values":[]},{"offsets":[],"values":[]},{"offsets":[],"values":[]},{"offsets":[],"values":[]},{"offsets":[],"values":[]},{"offsets":[],"values":[]},{"offsets":[],"values":[]},{"offsets":[],"values":[]},{"offsets":[],"values":[]},{"offsets":[],"values":[]},{"offsets":[],"values":[]},{"offsets":[],"values":[]},{"offsets":[0,11,15],"values":[65,112,97,114,116,97,109,101,110,116,111,67,97,115,97]},{"offsets":[0,18,27,33,37,55,59,65,72],"values":[67,97,115,97,32,100,101,32,67,111,110,100,111,109,-61,-83,110,105,111,67,111,98,101,114,116,117,114,97,68,117,112,108,101,120,70,108,97,116,75,105,116,99,104,101,110,101,116,116,101,47,83,116,117,100,105,111,76,111,102,116,80,97,100,114,-61,-93,111,83,111,98,114,97]},{"offsets":[0,11,16,22,27],"values":[101,120,116,114,97,95,108,97,114,103,101,108,97,114,103,101,109,101,100,105,117,109,115,109,97,108,108]}],"feature_segments":[0,0,0,0,0,0,0,0,0,0,0,0,0,0,0,0,0,0,0,2,10,14],"sorted_idx":[0,1,7,0,2,1,5,4,6,3,0,1,2,3]},"gbtree_model_param":{"num_parallel_tree":"1","num_trees":"294"},"iteration_indptr":[0,1,2,3,4,5,6,7,8,9,10,11,12,13,14,15,16,17,18,19,20,21,22,23,24,25,26,27,28,29,30,31,32,33,34,35,36,37,38,39,40,41,42,43,44,45,46,47,48,49,50,51,52,53,54,55,56,57,58,59,60,61,62,63,64,65,66,67,68,69,70,71,72,73,74,75,76,77,78,79,80,81,82,83,84,85,86,87,88,89,90,91,92,93,94,95,96,97,98,99,100,101,102,103,104,105,106,107,108,109,110,111,112,113,114,115,116,117,118,119,120,121,122,123,124,125,126,127,128,129,130,131,132,133,134,135,136,137,138,139,140,141,142,143,144,145,146,147,148,149,150,151,152,153,154,155,156,157,158,159,160,161,162,163,164,165,166,167,168,169,170,171,172,173,174,175,176,177,178,179,180,181,182,183,184,185,186,187,188,189,190,191,192,193,194,195,196,197,198,199,200,201,202,203,204,205,206,207,208,209,210,211,212,213,214,215,216,217,218,219,220,221,222,223,224,225,226,227,228,229,230,231,232,233,234,235,236,237,238,239,240,241,242,243,244,245,246,247,248,249,250,251,252,253,254,255,256,257,258,259,260,261,262,263,264,265,266,267,268,269,270,271,272,273,274,275,276,277,278,279,280,281,282,283,284,285,286,287,288,289,290,291,292,293,294],"tree_info":[0,0,0,0,0,0,0,0,0,0,0,0,0,0,0,0,0,0,0,0,0,0,0,0,0,0,0,0,0,0,0,0,0,0,0,0,0,0,0,0,0,0,0,0,0,0,0,0,0,0,0,0,0,0,0,0,0,0,0,0,0,0,0,0,0,0,0,0,0,0,0,0,0,0,0,0,0,0,0,0,0,0,0,0,0,0,0,0,0,0,0,0,0,0,0,0,0,0,0,0,0,0,0,0,0,0,0,0,0,0,0,0,0,0,0,0,0,0,0,0,0,0,0,0,0,0,0,0,0,0,0,0,0,0,0,0,0,0,0,0,0,0,0,0,0,0,0,0,0,0,0,0,0,0,0,0,0,0,0,0,0,0,0,0,0,0,0,0,0,0,0,0,0,0,0,0,0,0,0,0,0,0,0,0,0,0,0,0,0,0,0,0,0,0,0,0,0,0,0,0,0,0,0,0,0,0,0,0,0,0,0,0,0,0,0,0,0,0,0,0,0,0,0,0,0,0,0,0,0,0,0,0,0,0,0,0,0,0,0,0,0,0,0,0,0,0,0,0,0,0,0,0,0,0,0,0,0,0,0,0,0,0,0,0,0,0,0,0,0,0,0,0,0,0,0,0,0,0,0,0,0,0,0,0,0,0,0,0,0,0,0,0,0,0],"trees":[{"base_weights":[8.186079E-3,-1.1995283E0,6.313887E0,2.387871E-2,-2.2874668E0,1.3129815E1,3.4385839E0,-5.692823E-1,3.3514407E0,-2.492831E0,-4.9080712E-1,9.499193E0,2.3277868E1,1.7588071E0,6.4103713E0,9.229648E-1,-9.6846193E-1,1.9492116E0,5.930183E0,-2.9305E0,-2.155586E0,-1.2633673E0,3.1897187E-1,7.388372E0,1.2467011E1,1.9078396E1,1.8912706E0,2.7654805E0,1.4887823E-1,4.966931E0,8.889157E0,4.1422635E-1,6.6629493E-1,-1.4540623E0,-3.209598E-1,3.1158063E-1,1.6005061E0,5.5135636E0,5.333349E-1,-2.95388E0,-8.698271E-2,-2.347364E0,-1.533791E0,-1.0316011E0,-1.8945512E-1,-2.053393E-1,2.029679E0,8.423415E0,2.5587353E-1,1.0548974E1,1.39567175E1,1.6653402E1,1.4752097E0,2.4685867E0,3.835765E-1,3.1756294E-1,-2.9125785E-2,5.6235046E0,1.0459358E-1,7.5786715E0,8.512154E-1,2.8501196E-2,1.5832573E-1,1.517462E-2,-9.565988E-2,2.1657535E-1,-2.8712235E-2,7.728734E-2,2.1335903E-1,2.6353526E-1,3.5914546E-1,-1.534631E-1,-1.8064114E-1,-1.4662006E-1,-1.1049714E-1,-1.0751688E-1,-7.225402E-2,-8.2954675E-2,-1.4991919E-2,-3.8737234E-2,1.12404935E-2,1.8081826E-1,4.5753162E-2,4.2791978E-1,7.5884897E-1,5.567109E-1,7.054404E-1,6.973309E-1,8.7824345E-1,6.8714845E-1,1.17916E0,1.3092346E-1,3.2191408E-1,5.9170373E-2,4.550553E-3,2.8838807E-1,5.0017625E-1,3.781849E-1,5.8605796E-1],"categories":[2,3,1,2,3,4,5,6,1,1,2,3,1,2,3,4,5,6,7,0,2,3,4,5,6,7,3,1,2,3,4,5,6,7,1,2,3,6,7,1,2,3,4,5,6,7],"categories_nodes":[1,2,7,13,15,17,21,23,29,33,34],"categories_segments":[0,2,8,9,12,19,26,27,34,37,39],"categories_sizes":[2,6,1,3,7,7,1,7,3,2,7],"default_left":[0,1,1,0,0,0,0,1,0,0,0,0,0,1,0,1,0,1,0,0,0,1,0,1,0,0,0,0,0,1,0,0,0,1,1,0,0,0,0,0,0,0,0,0,0,0,0,0,0,0,0,0,0,0,0,0,0,0,0,0,0,0,0,0,0,0,0,0,0,0,0,0,0,0,0,0,0,0,0,0,0,0,0,0,0,0,0,0,0,0,0,0,0,0,0,0,0,0,0],"id":0,"left_children":[1,3,5,7,9,11,13,15,17,19,21,23,25,27,29,31,33,35,37,39,41,43,45,47,49,51,-1,53,55,57,59,-1,61,63,65,-1,67,69,-1,71,-1,73,75,77,-1,79,81,83,-1,85,87,89,-1,91,-1,93,-1,95,-1,97,-1,-1,-1,-1,-1,-1,-1,-1,-1,-1,-1,-1,-1,-1,-1,-1,-1,-1,-1,-1,-1,-1,-1,-1,-1,-1,-1,-1,-1,-1,-1,-1,-1,-1,-1,-1,-1,-1,-1],"loss_changes":[1.8858201E4,2.7665342E3,7.7938125E3,1.9313667E3,4.0494873E2,4.328744E3,1.3950337E3,4.9449768E2,5.324584E2,1.438833E2,7.1021484E1,5.349033E2,1.082666E3,2.893061E2,3.5528564E2,2.702516E2,2.0542163E2,1.0846243E2,5.9916748E1,1.3152344E1,6.5227295E1,2.462899E1,4.9932537E1,1.5658911E2,8.846631E1,2.6451904E2,0E0,1.17801025E2,7.4180765E0,1.3195654E2,2.5425952E2,0E0,6.1438263E1,1.0334607E2,1.8221909E2,0E0,4.9848984E1,2.251233E1,0E0,1.2623779E1,0E0,2.4760254E1,1.0663879E1,1.4444019E1,0E0,7.5959983E0,1.5544022E1,1.8970215E2,0E0,1.3280884E1,2.1583008E1,2.2663623E2,0E0,7.53418E1,0E0,8.710598E0,0E0,1.0699402E2,0E0,7.514734E1,0E0,0E0,0E0,0E0,0E0,0E0,0E0,0E0,0E0,0E0,0E0,0E0,0E0,0E0,0E0,0E0,0E0,0E0,0E0,0E0,0E0,0E0,0E0,0E0,0E0,0E0,0E0,0E0,0E0,0E0,0E0,0E0,0E0,0E0,0E0,0E0,0E0,0E0,0E0],"parents":[2147483647,0,0,1,1,2,2,3,3,4,4,5,5,6,6,7,7,8,8,9,9,10,10,11,11,12,12,13,13,14,14,15,15,16,16,17,17,18,18,19,19,20,20,21,21,22,22,23,23,24,24,25,25,27,27,28,28,29,29,30,30,32,32,33,33,34,34,36,36,37,37,39,39,41,41,42,42,43,43,45,45,46,46,47,47,49,49,50,50,51,51,53,53,55,55,57,57,59,59],"right_children":[2,4,6,8,10,12,14,16,18,20,22,24,26,28,30,32,34,36,38,40,42,44,46,48,50,52,-1,54,56,58,60,-1,62,64,66,-1,68,70,-1,72,-1,74,76,78,-1,80,82,84,-1,86,88,90,-1,92,-1,94,-1,96,-1,98,-1,-1,-1,-1,-1,-1,-1,-1,-1,-1,-1,-1,-1,-1,-1,-1,-1,-1,-1,-1,-1,-1,-1,-1,-1,-1,-1,-1,-1,-1,-1,-1,-1,-1,-1,-1,-1,-1,-1],"split_conditions":[7.4588066E-1,1E-45,1E-45,1.8609251E-1,1.3298287E0,2.2137218E0,1.983343E0,1E-45,2.0613645E-1,-8.73352E-1,-7.482893E-1,1.2790426E0,1.7954928E0,1E-45,3.4972596E0,1E-45,1.00820504E-1,1E-45,5.0469713E0,1.753583E1,7.70215E-1,1E-45,2.2693264E0,1E-45,3.2619927E0,3.2619927E0,1.8912706E0,6.830452E0,2.1845672E0,1E-45,3.2619927E0,4.1422635E-1,7.4552007E0,1E-45,1E-45,3.1158063E-1,5.0469713E0,1E0,5.333349E-1,-9.6550345E-1,-8.698271E-2,3.2619927E0,-8.075295E-1,6.830452E0,-1.8945512E-1,3.2619927E0,-6.0347986E-1,1.048664E0,2.5587353E-1,-2.223847E-1,1.4633455E0,2.1845672E0,1.4752097E0,7.4552007E0,3.835765E-1,8.906901E-1,-2.9125785E-2,3.2619927E0,1.0459358E-1,1E0,8.512154E-1,2.8501196E-2,1.5832573E-1,1.517462E-2,-9.565988E-2,2.1657535E-1,-2.8712235E-2,7.728734E-2,2.1335903E-1,2.6353526E-1,3.5914546E-1,-1.534631E-1,-1.8064114E-1,-1.4662006E-1,-1.1049714E-1,-1.0751688E-1,-7.225402E-2,-8.2954675E-2,-1.4991919E-2,-3.8737234E-2,1.12404935E-2,1.8081826E-1,4.5753162E-2,4.2791978E-1,7.5884897E-1,5.567109E-1,7.054404E-1,6.973309E-1,8.7824345E-1,6.8714845E-1,1.17916E0,1.3092346E-1,3.2191408E-1,5.9170373E-2,4.550553E-3,2.8838807E-1,5.0017625E-1,3.781849E-1,5.8605796E-1],"split_indices":[4,20,19,5,5,4,4,20,4,4,4,4,5,20,4,19,4,19,5,6,5,20,5,19,6,6,0,6,1,20,6,0,1,19,19,0,5,15,0,4,0,6,4,6,0,6,4,4,0,5,4,1,0,1,0,4,0,6,0,15,0,0,0,0,0,0,0,0,0,0,0,0,0,0,0,0,0,0,0,0,0,0,0,0,0,0,0,0,0,0,0,0,0,0,0,0,0,0,0],"split_type":[0,1,1,0,0,0,0,1,0,0,0,0,0,1,0,1,0,1,0,0,0,1,0,1,0,0,0,0,0,1,0,0,0,1,1,0,0,0,0,0,0,0,0,0,0,0,0,0,0,0,0,0,0,0,0,0,0,0,0,0,0,0,0,0,0,0,0,0,0,0,0,0,0,0,0,0,0,0,0,0,0,0,0,0,0,0,0,0,0,0,0,0,0,0,0,0,0,0,0],"sum_hessian":[2.476E3,2.078E3,3.98E2,9.78E2,1.1E3,1.18E2,2.8E2,8.3E2,1.48E2,9.87E2,1.13E2,8.7E1,3.1E1,1.79E2,1.01E2,1.75E2,6.55E2,9.6E1,5.2E1,4.29E2,5.58E2,5.8E1,5.5E1,5.1E1,3.6E1,2.1E1,1E1,1.1E2,6.9E1,6.4E1,3.7E1,7E0,1.68E2,3.74E2,2.81E2,9E0,8.7E1,4.6E1,6E0,4.22E2,7E0,4.26E2,1.32E2,5.2E1,6E0,4.2E1,1.3E1,3.8E1,1.3E1,1.6E1,2E1,1.5E1,6E0,1.02E2,8E0,5.5E1,1.4E1,5.3E1,1.1E1,3E1,7E0,1.54E2,1.4E1,3.2E1,3.42E2,1.1E1,2.7E2,7.6E1,1.1E1,1.6E1,3E1,8.9E1,3.33E2,3.36E2,9E1,6.9E1,6.3E1,3.5E1,1.7E1,2E1,2.2E1,7E0,6E0,3E1,8E0,9E0,7E0,6E0,1.4E1,6E0,9E0,9.4E1,8E0,1.4E1,4.1E1,4.2E1,1.1E1,2E1,1E1],"tree_param":{"num_deleted":"0","num_feature":"21","num_nodes":"99","size_leaf_vector":"1"}},{"base_weights":[-1.4941684E-2,-1.1357397E0,5.7703176E0,-2.195753E0,3.789736E-1,1.1966598E1,3.2278006E0,-1.6628765E-1,-1.8625638E0,3.120362E0,-4.6584364E-2,9.325833E0,1.8864119E1,2.2078254E0,7.855244E0,-2.039373E0,-1.1298714E0,9.565551E-1,5.5160604E0,-2.072109E-1,4.308153E0,7.054083E0,1.1927201E1,7.542904E-1,2.2998545E1,3.2476006E0,6.896225E-2,6.967701E0,6.521665E-1,-2.2557116E0,-1.4940192E0,-1.4038535E0,7.8564227E-1,-2.2058321E-2,4.1815248E0,8.123831E0,4.673185E0,1.0369922E0,-5.3943765E-1,2.9562693E0,4.6729577E-1,7.8327775E0,2.7224672E-1,9.312527E0,1.41270075E1,1.1894909E0,1.5447444E0,2.9325433E0,4.926203E-1,-9.979471E-1,4.3469384E-2,4.4287956E-1,2.3671772E-1,-1.3989542E-1,-9.9588536E-2,-9.5782235E-2,2.1796983E-2,-8.9298375E-2,-4.2467702E-2,4.4272607E-3,1.3411196E-1,3.9536778E-2,-9.5708124E-2,1.5263763E-1,3.3851808E-1,6.7927784E-1,3.0535433E-1,2.4044429E-1,3.4460363E-1,3.307028E-2,1.5663081E-1,-4.384236E-2,2.3792803E-2,6.8038434E-2,2.355871E-1,3.8507816E-1,7.60893E-1,6.729609E-1,3.5504958E-1,7.297612E-1,1.0932759E0,1.06256194E-1,2.1147396E-1,-8.203146E-2,-2.4995869E-2],"categories":[1,2,3,4,5,6,2,3,4,5,6,7,1,2,3,1,2,3,1,2,3,1,2,3,4,5,6,7,1,2],"categories_nodes":[2,4,13,18,19,21,27],"categories_segments":[0,6,12,15,18,21,28],"categories_sizes":[6,6,3,3,3,7,2],"default_left":[0,0,1,0,1,0,0,0,0,0,0,0,0,1,0,0,0,0,1,1,0,1,0,0,0,0,0,1,0,0,0,0,0,0,0,0,0,0,0,0,0,0,0,0,0,0,0,0,0,0,0,0,0,0,0,0,0,0,0,0,0,0,0,0,0,0,0,0,0,0,0,0,0,0,0,0,0,0,0,0,0,0,0,0,0],"id":1,"left_children":[1,3,5,7,9,11,13,-1,15,17,19,21,23,25,27,29,31,33,35,37,39,41,43,-1,45,47,49,51,-1,53,55,57,59,61,63,65,67,69,71,73,-1,75,-1,77,79,-1,-1,81,-1,83,-1,-1,-1,-1,-1,-1,-1,-1,-1,-1,-1,-1,-1,-1,-1,-1,-1,-1,-1,-1,-1,-1,-1,-1,-1,-1,-1,-1,-1,-1,-1,-1,-1,-1,-1],"loss_changes":[1.5943713E4,3.3082246E3,6.2803076E3,2.4534326E2,9.9026056E2,2.0967617E3,1.3321438E3,0E0,1.00656006E2,5.8905334E2,5.122997E2,4.869375E2,7.87167E2,5.1508044E2,1.338374E2,7.3302E1,8.0559525E1,1.907421E2,1.1315405E2,2.9255975E2,1.2175989E2,8.078174E1,2.111626E2,0E0,1.3148828E2,2.4469629E2,5.3908035E1,5.5729248E1,0E0,2.6151855E1,4.16333E1,8.842834E0,1.9327934E1,5.0936794E1,3.1404266E1,1.2172302E2,2.4767944E1,1.1366531E2,1.05719635E2,3.342598E1,0E0,2.1747266E2,0E0,1.14216064E2,1.443164E2,0E0,0E0,1.0487317E2,0E0,5.914835E0,0E0,0E0,0E0,0E0,0E0,0E0,0E0,0E0,0E0,0E0,0E0,0E0,0E0,0E0,0E0,0E0,0E0,0E0,0E0,0E0,0E0,0E0,0E0,0E0,0E0,0E0,0E0,0E0,0E0,0E0,0E0,0E0,0E0,0E0,0E0],"parents":[2147483647,0,0,1,1,2,2,3,3,4,4,5,5,6,6,8,8,9,9,10,10,11,11,12,12,13,13,14,14,15,15,16,16,17,17,18,18,19,19,20,20,21,21,22,22,24,24,25,25,26,26,27,27,29,29,30,30,31,31,32,32,33,33,34,34,35,35,36,36,37,37,38,38,39,39,41,41,43,43,44,44,47,47,49,49],"right_children":[2,4,6,8,10,12,14,-1,16,18,20,22,24,26,28,30,32,34,36,38,40,42,44,-1,46,48,50,52,-1,54,56,58,60,62,64,66,68,70,72,74,-1,76,-1,78,80,-1,-1,82,-1,84,-1,-1,-1,-1,-1,-1,-1,-1,-1,-1,-1,-1,-1,-1,-1,-1,-1,-1,-1,-1,-1,-1,-1,-1,-1,-1,-1,-1,-1,-1,-1,-1,-1,-1,-1],"split_conditions":[7.4588066E-1,1.0492289E0,1E-45,-8.73352E-1,1E-45,2.2137218E0,2.9048576E0,-1.6628765E-1,7.70215E-1,1.4031398E-1,4.140152E0,1.1473978E0,2.6838706E0,1E-45,3.2619927E0,-8.34824E-2,-6.495556E-1,1.0643185E0,1E-45,1E-45,2.0613645E-1,1E-45,3.2619927E0,7.542904E-1,3.1813118E0,6.830452E0,1.0492289E0,1E-45,6.521665E-1,3.2619927E0,3.2619927E0,1.7954928E0,2.310174E0,6.830452E0,6.830452E0,3.2619927E0,4.2335057E-1,1E0,3.2619927E0,-2.5462082E-1,4.6729577E-1,9.96006E-1,2.7224672E-1,2.6838706E0,1.7332176E0,1.1894909E0,1.5447444E0,1.2198024E0,4.926203E-1,1.2790426E0,4.3469384E-2,4.4287956E-1,2.3671772E-1,-1.3989542E-1,-9.9588536E-2,-9.5782235E-2,2.1796983E-2,-8.9298375E-2,-4.2467702E-2,4.4272607E-3,1.3411196E-1,3.9536778E-2,-9.5708124E-2,1.5263763E-1,3.3851808E-1,6.7927784E-1,3.0535433E-1,2.4044429E-1,3.4460363E-1,3.307028E-2,1.5663081E-1,-4.384236E-2,2.3792803E-2,6.8038434E-2,2.355871E-1,3.8507816E-1,7.60893E-1,6.729609E-1,3.5504958E-1,7.297612E-1,1.0932759E0,1.06256194E-1,2.1147396E-1,-8.203146E-2,-2.4995869E-2],"split_indices":[4,0,19,4,19,4,4,0,5,4,5,4,0,20,6,4,4,5,20,20,4,19,6,0,4,6,0,20,0,6,6,5,5,6,6,6,4,15,6,4,0,4,0,0,4,0,0,4,0,4,0,0,0,0,0,0,0,0,0,0,0,0,0,0,0,0,0,0,0,0,0,0,0,0,0,0,0,0,0,0,0,0,0,0,0],"split_type":[0,0,1,0,1,0,0,0,0,0,0,0,0,1,0,0,0,0,1,1,0,1,0,0,0,0,0,1,0,0,0,0,0,0,0,0,0,0,0,0,0,0,0,0,0,0,0,0,0,0,0,0,0,0,0,0,0,0,0,0,0,0,0,0,0,0,0,0,0,0,0,0,0,0,0,0,0,0,0,0,0,0,0,0,0],"sum_hessian":[2.459E3,2.06E3,3.99E2,1.212E3,8.48E2,1.16E2,2.83E2,4.27E2,7.85E2,1.14E2,7.34E2,8.4E1,3.2E1,2.32E2,5.1E1,6.32E2,1.53E2,6E1,5.4E1,7.08E2,2.6E1,4.5E1,3.9E1,1.3E1,1.9E1,1.56E2,7.6E1,4E1,1.1E1,4.52E2,1.8E2,1.34E2,1.9E1,4.6E1,1.4E1,1.3E1,4.1E1,1.49E2,5.59E2,1.9E1,7E0,3.4E1,1.1E1,1.8E1,2.1E1,1E1,9E0,1.47E2,9E0,2.9E1,4.7E1,3.4E1,6E0,3.81E2,7.1E1,1.69E2,1.1E1,1.16E2,1.8E1,1.3E1,6E0,3.2E1,1.4E1,7E0,7E0,6E0,7E0,2.7E1,1.4E1,1.15E2,3.4E1,4.61E2,9.8E1,7E0,1.2E1,2.7E1,7E0,1.1E1,7E0,1.5E1,6E0,5.3E1,9.4E1,1.7E1,1.2E1],"tree_param":{"num_deleted":"0","num_feature":"21","num_nodes":"85","size_leaf_vector":"1"}},{"base_weights":[4.465443E-2,-1.0397601E0,5.6044703E0,-1.5908577E0,6.8928677E-1,4.3941727E0,1.3387472E1,-1.8665009E0,7.11434E-1,7.016538E-2,5.200172E0,2.951687E0,8.174141E0,1.1263796E1,1.6244285E0,-2.532754E0,-1.4837235E0,-7.7293736E-1,2.0470083E0,-4.34321E-2,2.4349108E-1,4.001952E0,7.396731E0,2.3544247E0,6.300005E0,7.3719163E0,1.0785146E0,4.412738E-1,1.3207764E1,-2.612457E0,-5.8137227E-2,-1.5362788E0,-4.4477415E-1,-1.309498E0,2.1915307E0,8.780516E-1,3.105838E0,-2.751969E-1,1.6165215E0,2.8053398E0,2.9053298E-1,2.8993937E-1,9.22075E0,1.5487068E0,3.8727229E0,4.1116285E0,8.4564705E0,4.0848026E0,8.719542E0,1.2148726E1,1.0327542E0,-1.566187E-1,-7.7882715E-2,1.08537376E-1,-9.2578076E-2,-9.741481E-2,-6.2572874E-2,-5.224887E-2,2.6325523E-3,-1.00871034E-1,-3.49672E-2,5.6721672E-2,1.989602E-1,3.240994E-2,8.9719824E-2,3.1189054E-1,1.6398352E-1,-2.9610306E-2,1.7183455E-2,4.7689863E-2,2.1260124E-1,9.9343665E-2,2.1049486E-1,6.8054706E-1,4.044315E-1,5.2889258E-2,1.7320952E-1,2.7405852E-1,1.5914142E-1,1.4009441E-1,3.5516736E-1,2.9418933E-1,6.476679E-1,1.905392E-1,3.5359251E-1,9.112745E-1,4.6606496E-1,5.847526E-1,7.9233587E-1],"categories":[],"categories_nodes":[],"categories_segments":[],"categories_sizes":[],"default_left":[0,0,0,0,0,0,0,0,0,0,0,0,0,0,0,0,0,0,0,0,0,0,0,0,0,0,0,0,0,0,0,0,0,0,0,0,0,0,0,0,0,0,0,0,0,0,0,0,0,0,0,0,0,0,0,0,0,0,0,0,0,0,0,0,0,0,0,0,0,0,0,0,0,0,0,0,0,0,0,0,0,0,0,0,0,0,0,0,0],"id":2,"left_children":[1,3,5,7,9,11,13,15,17,19,21,23,25,27,-1,29,31,33,35,37,-1,39,41,43,45,47,-1,-1,49,51,53,55,57,59,61,63,65,67,69,71,-1,-1,73,75,77,79,81,83,85,87,-1,-1,-1,-1,-1,-1,-1,-1,-1,-1,-1,-1,-1,-1,-1,-1,-1,-1,-1,-1,-1,-1,-1,-1,-1,-1,-1,-1,-1,-1,-1,-1,-1,-1,-1,-1,-1,-1,-1],"loss_changes":[1.4851715E4,1.9642397E3,3.7790557E3,9.92333E2,1.3893827E3,1.8932915E3,1.5844111E3,3.5466455E2,3.3162726E2,2.022636E2,1.5322754E2,5.0077612E2,7.5892236E2,3.3787793E2,0E0,9.961157E1,4.7819824E1,1.2562277E2,1.0767706E2,1.6353821E2,0E0,3.924225E1,8.966736E1,2.5996216E2,1.7414124E2,3.8893896E2,0E0,0E0,1.197583E2,1.8897705E1,4.5722878E1,4.299182E1,9.45764E0,1.824878E1,1.5930874E1,8.212009E0,3.0471954E1,4.75795E1,8.188016E1,1.2562042E1,0E0,0E0,5.612256E1,1.25082275E2,6.3456665E1,5.9535583E1,1.5734302E2,3.8964417E1,3.4486816E2,5.6606934E1,0E0,0E0,0E0,0E0,0E0,0E0,0E0,0E0,0E0,0E0,0E0,0E0,0E0,0E0,0E0,0E0,0E0,0E0,0E0,0E0,0E0,0E0,0E0,0E0,0E0,0E0,0E0,0E0,0E0,0E0,0E0,0E0,0E0,0E0,0E0,0E0,0E0,0E0,0E0],"parents":[2147483647,0,0,1,1,2,2,3,3,4,4,5,5,6,6,7,7,8,8,9,9,10,10,11,11,12,12,13,13,15,15,16,16,17,17,18,18,19,19,21,21,22,22,23,23,24,24,25,25,28,28,29,29,30,30,31,31,32,32,33,33,34,34,35,35,36,36,37,37,38,38,39,39,42,42,43,43,44,44,45,45,46,46,47,47,48,48,49,49],"right_children":[2,4,6,8,10,12,14,16,18,20,22,24,26,28,-1,30,32,34,36,38,-1,40,42,44,46,48,-1,-1,50,52,54,56,58,60,62,64,66,68,70,72,-1,-1,74,76,78,80,82,84,86,88,-1,-1,-1,-1,-1,-1,-1,-1,-1,-1,-1,-1,-1,-1,-1,-1,-1,-1,-1,-1,-1,-1,-1,-1,-1,-1,-1,-1,-1,-1,-1,-1,-1,-1,-1,-1,-1,-1,-1],"split_conditions":[7.656274E-1,1.00820504E-1,1.0969968E0,1.3706765E0,8.805798E-2,2.2137218E0,3.1813118E0,-8.4044075E-1,9.8248065E-1,7.4552007E0,2.7769709E0,3.2619927E0,6.830452E0,1.048664E0,1.6244285E0,9.8248065E-1,1E0,-3.0727878E-1,-5.8373314E-1,3.2619927E0,2.4349108E-1,1.03989105E1,4.2335057E-1,4.571461E0,1.2790426E0,2.7769709E0,1.0785146E0,4.412738E-1,4.819884E0,1.753583E1,-2.223847E-1,2.1845672E0,9.8248065E-1,-6.758846E-1,4.140152E0,1E0,1.5544913E0,1E0,1E0,3.3778137E-1,2.9053298E-1,2.8993937E-1,6.4714694E-1,1E0,6.3659515E0,6.830452E0,4.571461E0,5.3402886E0,1E0,3.2619927E0,1.0327542E0,-1.566187E-1,-7.7882715E-2,1.08537376E-1,-9.2578076E-2,-9.741481E-2,-6.2572874E-2,-5.224887E-2,2.6325523E-3,-1.00871034E-1,-3.49672E-2,5.6721672E-2,1.989602E-1,3.240994E-2,8.9719824E-2,3.1189054E-1,1.6398352E-1,-2.9610306E-2,1.7183455E-2,4.7689863E-2,2.1260124E-1,9.9343665E-2,2.1049486E-1,6.8054706E-1,4.044315E-1,5.2889258E-2,1.7320952E-1,2.7405852E-1,1.5914142E-1,1.4009441E-1,3.5516736E-1,2.9418933E-1,6.476679E-1,1.905392E-1,3.5359251E-1,9.112745E-1,4.6606496E-1,5.847526E-1,7.9233587E-1],"split_indices":[4,4,5,5,5,4,4,4,2,1,2,6,6,4,0,2,7,4,4,6,0,6,4,2,4,2,0,0,1,6,5,1,2,4,5,9,5,17,17,4,0,0,4,17,2,6,2,4,14,6,0,0,0,0,0,0,0,0,0,0,0,0,0,0,0,0,0,0,0,0,0,0,0,0,0,0,0,0,0,0,0,0,0,0,0,0,0,0,0],"split_type":[0,0,0,0,0,0,0,0,0,0,0,0,0,0,0,0,0,0,0,0,0,0,0,0,0,0,0,0,0,0,0,0,0,0,0,0,0,0,0,0,0,0,0,0,0,0,0,0,0,0,0,0,0,0,0,0,0,0,0,0,0,0,0,0,0,0,0,0,0,0,0,0,0,0,0,0,0,0,0,0,0,0,0,0,0,0,0,0,0],"sum_hessian":[2.463E3,2.061E3,4.02E2,1.563E3,4.98E2,3.48E2,5.4E1,1.396E3,1.67E2,4.38E2,6E1,2.52E2,9.6E1,4.7E1,7E0,5.09E2,8.87E2,7.9E1,8.8E1,4.26E2,1.2E1,3.9E1,2.1E1,2.14E2,3.8E1,8.9E1,7E0,1.6E1,3.1E1,4.93E2,1.6E1,8.44E2,4.3E1,6.7E1,1.2E1,4.2E1,4.6E1,3.74E2,5.2E1,1.7E1,2.2E1,9E0,1.2E1,1.4E2,7.4E1,1.9E1,1.9E1,2.6E1,6.3E1,2.5E1,6E0,4.81E2,1.2E1,7E0,9E0,6.88E2,1.56E2,2.3E1,2E1,4.3E1,2.4E1,6E0,6E0,2.8E1,1.4E1,6E0,4E1,2.68E2,1.06E2,3.7E1,1.5E1,7E0,1E1,6E0,6E0,9.5E1,4.5E1,4.5E1,2.9E1,1E1,9E0,8E0,1.1E1,1.8E1,8E0,7E0,5.6E1,9E0,1.6E1],"tree_param":{"num_deleted":"0","num_feature":"21","num_nodes":"89","size_leaf_vector":"1"}},{"base_weights":[2.7475761E-2,4.5362186E0,-1.0635463E0,3.4672563E0,1.1049858E1,-5.2099463E-2,-1.9304533E0,3.2315624E0,8.1946856E-1,1.191098E1,3.599918E-1,-5.9413326E-1,2.8447366E0,-2.086093E0,-3.4776834E-1,2.5139606E0,5.1187577E0,9.300717E0,1.5215208E1,-7.467801E-1,1.1311667E0,2.1926327E0,4.511753E0,-1.8763703E0,-2.489639E0,-7.232958E-1,5.867509E-1,1.9925534E0,5.131815E0,5.8930945E0,4.3890905E0,6.321646E-1,8.729297E0,1.2225844E0,1.3038047E1,-8.6403805E-1,-3.1964695E-1,6.9047403E-1,2.0013689E-1,1.7409141E0,3.8347673E0,5.197089E0,1.2457387E-1,-1.9312147E0,-5.3126156E-2,-2.3860154E0,-1.650718E-1,-6.1374187E-2,-1.0218338E-2,3.936548E-3,1.196935E-1,1.0020715E-1,2.9479975E-1,2.6611197E-1,4.279883E-1,2.603471E-1,3.8324776E-1,2.46602E-1,3.5066646E-1,4.806298E-1,6.1262107E-1,5.3915185E-1,1.1297764E0,-5.3885173E-2,2.7882628E-2,-8.107258E-3,-4.5074586E-2,2.6807413E-3,1.6631383E-1,8.181449E-2,2.03197E-1,1.7894474E-1,3.502786E-1,2.4402641E-1,3.6564296E-1,-1.2052843E-1,-9.34501E-2,-1.4338161E-1,-5.63304E-2],"categories":[1,2,3,2,3,3],"categories_nodes":[0,2,13],"categories_segments":[0,3,5],"categories_sizes":[3,2,1],"default_left":[1,0,1,0,0,0,0,0,0,0,0,0,0,1,0,0,0,0,0,0,0,0,0,0,0,0,0,0,0,0,0,0,0,0,0,0,0,0,0,0,0,0,0,0,0,0,0,0,0,0,0,0,0,0,0,0,0,0,0,0,0,0,0,0,0,0,0,0,0,0,0,0,0,0,0,0,0,0,0],"id":3,"left_children":[1,3,5,7,9,11,13,15,-1,17,-1,19,21,23,25,27,29,31,33,35,37,39,41,43,45,47,49,51,53,55,57,-1,59,-1,61,63,65,67,-1,69,71,73,-1,75,-1,77,-1,-1,-1,-1,-1,-1,-1,-1,-1,-1,-1,-1,-1,-1,-1,-1,-1,-1,-1,-1,-1,-1,-1,-1,-1,-1,-1,-1,-1,-1,-1,-1,-1],"loss_changes":[1.2018958E4,3.3084863E3,1.7241826E3,9.9227344E2,2.7820508E2,1.4252289E3,2.6012378E2,5.388882E2,0E0,4.7779297E2,0E0,2.0141425E2,1.5304468E2,8.007666E1,3.3417847E1,3.933086E2,5.7871826E1,1.4777832E1,2.7254102E2,3.4851135E1,6.0150497E1,7.4471954E1,6.3425232E1,3.3198242E1,8.282715E0,1.1362156E1,1.9562365E1,2.1492981E2,5.9247925E1,4.124182E1,1.5541138E1,0E0,1.3269897E1,0E0,4.1182446E2,3.3738678E1,1.1996209E1,7.026263E1,0E0,4.760753E1,3.3787445E1,2.835376E1,0E0,2.0791748E1,0E0,1.1060913E1,0E0,0E0,0E0,0E0,0E0,0E0,0E0,0E0,0E0,0E0,0E0,0E0,0E0,0E0,0E0,0E0,0E0,0E0,0E0,0E0,0E0,0E0,0E0,0E0,0E0,0E0,0E0,0E0,0E0,0E0,0E0,0E0,0E0],"parents":[2147483647,0,0,1,1,2,2,3,3,4,4,5,5,6,6,7,7,9,9,11,11,12,12,13,13,14,14,15,15,16,16,17,17,18,18,19,19,20,20,21,21,22,22,23,23,24,24,25,25,26,26,27,27,28,28,29,29,30,30,32,32,34,34,35,35,36,36,37,37,39,39,40,40,41,41,43,43,45,45],"right_children":[2,4,6,8,10,12,14,16,-1,18,-1,20,22,24,26,28,30,32,34,36,38,40,42,44,46,48,50,52,54,56,58,-1,60,-1,62,64,66,68,-1,70,72,74,-1,76,-1,78,-1,-1,-1,-1,-1,-1,-1,-1,-1,-1,-1,-1,-1,-1,-1,-1,-1,-1,-1,-1,-1,-1,-1,-1,-1,-1,-1,-1,-1,-1,-1,-1,-1],"split_conditions":[1E-45,6.517565E-1,1E-45,1.396737E1,4.140152E0,1.8609251E-1,1.3298287E0,1E0,8.1946856E-1,1.8731035E0,3.599918E-1,3.2619927E0,1E0,1E-45,1E0,1E0,1E0,1.2808114E0,2.2489026E0,1E0,1E0,1E0,1.7505603E0,1.753583E1,1E0,1.9833924E0,2.310174E0,1E0,3.2619927E0,1E0,3.2619927E0,6.321646E-1,1E0,1.2225844E0,2.8003469E0,1E0,1E0,1E0,2.0013689E-1,1E0,3.0862808E0,6.272479E-1,1.2457387E-1,6.762652E-1,-5.3126156E-2,1E0,-1.650718E-1,-6.1374187E-2,-1.0218338E-2,3.936548E-3,1.196935E-1,1.0020715E-1,2.9479975E-1,2.6611197E-1,4.279883E-1,2.603471E-1,3.8324776E-1,2.46602E-1,3.5066646E-1,4.806298E-1,6.1262107E-1,5.3915185E-1,1.1297764E0,-5.3885173E-2,2.7882628E-2,-8.107258E-3,-4.5074586E-2,2.6807413E-3,1.6631383E-1,8.181449E-2,2.03197E-1,1.7894474E-1,3.502786E-1,2.4402641E-1,3.6564296E-1,-1.2052843E-1,-9.34501E-2,-1.4338161E-1,-5.63304E-2],"split_indices":[20,5,20,6,5,5,5,15,0,5,0,6,15,20,7,16,16,5,5,17,12,7,5,6,13,5,5,7,6,17,6,0,13,0,5,16,15,17,0,17,5,5,0,5,0,7,0,0,0,0,0,0,0,0,0,0,0,0,0,0,0,0,0,0,0,0,0,0,0,0,0,0,0,0,0,0,0,0,0],"split_type":[1,0,1,0,0,0,0,0,0,0,0,0,0,1,0,0,0,0,0,0,0,0,0,0,0,0,0,0,0,0,0,0,0,0,0,0,0,0,0,0,0,0,0,0,0,0,0,0,0,0,0,0,0,0,0,0,0,0,0,0,0,0,0,0,0,0,0,0,0,0,0,0,0,0,0,0,0,0,0],"sum_hessian":[2.443E3,4.76E2,1.967E3,4.09E2,6.7E1,9.08E2,1.059E3,4E2,9E0,5.7E1,1E1,7.65E2,1.43E2,9.64E2,9.5E1,2.9E2,1.1E2,3.2E1,2.5E1,7.03E2,6.2E1,1.03E2,4E1,6.35E2,3.29E2,6.8E1,2.7E1,2.42E2,4.8E1,5.3E1,5.7E1,9E0,2.3E1,7E0,1.8E1,5.51E2,1.52E2,5.2E1,1E1,8.1E1,2.2E1,3.1E1,9E0,6.01E2,3.4E1,2.45E2,8.4E1,4.3E1,2.5E1,2E1,7E0,2.2E2,2.2E1,3.7E1,1.1E1,1.5E1,3.8E1,5E1,7E0,1.7E1,6E0,1.1E1,7E0,5.33E2,1.8E1,1.08E2,4.4E1,4E1,1.2E1,6.7E1,1.4E1,1.6E1,6E0,1.5E1,1.6E1,4.64E2,1.37E2,2.39E2,6E0],"tree_param":{"num_deleted":"0","num_feature":"21","num_nodes":"79","size_leaf_vector":"1"}},{"base_weights":[-5.155794E-2,4.1482105E0,-1.0424334E0,1.0848248E1,2.589306E0,-4.671546E-2,-1.849517E0,6.972463E0,1.2615334E1,2.2854912E0,8.71038E0,2.8540378E0,-5.3071034E-1,-1.9940037E0,-4.557238E-1,4.8439378E-1,5.7215986E0,1.5139387E1,1.083584E1,1.5369896E0,3.9295418E0,7.0684564E-1,3.2028392E-1,2.374168E0,3.4092823E-1,-7.3040754E-1,1.5878475E0,-1.763201E0,-2.4092274E0,-1.3833845E0,7.07798E-1,2.3399937E-1,4.728367E-1,1.7364048E1,5.5056274E-1,8.105554E0,1.3519898E1,1.2223816E0,2.489554E0,3.28567E0,8.479727E0,1.8291327E0,4.307162E0,-9.2668325E-1,2.1599445E-2,1.507045E-1,2.5738165E0,-1.8994545E0,-1.312035E0,-1.4428215E-1,-4.7286943E-2,-9.42584E-2,-4.8339944E-2,6.5332875E-2,3.3182567E-1,1.2327634E0,7.650321E-1,3.7100014E-1,5.3147763E-1,1.1720817E0,6.0967994E-1,5.9613638E-2,1.1405373E-1,1.1007485E-1,1.6603641E-1,1.6518593E-1,2.918456E-1,6.213623E-1,3.368269E-1,8.0768846E-2,2.1105368E-1,2.9367337E-1,1.3515536E-1,-5.8916207E-2,2.883449E-3,-4.721973E-3,1.2125221E-1,-5.332549E-2,7.72465E-2,2.2152263E-1,1.3648486E-1,-1.1438634E-1,-4.68249E-2,-9.129011E-2,-1.7898846E-2,-3.3443626E-2,4.730861E-2],"categories":[1,2,3,1,2,3,4,5,6,7,2,3,2,6,7,3],"categories_nodes":[0,1,2,5,13],"categories_segments":[0,3,10,12,15],"categories_sizes":[3,7,2,3,1],"default_left":[1,1,1,0,0,1,0,0,0,0,0,0,0,1,0,0,0,0,0,0,0,0,0,0,0,0,0,0,0,0,0,0,0,0,0,0,0,0,0,0,0,0,0,0,0,0,0,0,0,0,0,0,0,0,0,0,0,0,0,0,0,0,0,0,0,0,0,0,0,0,0,0,0,0,0,0,0,0,0,0,0,0,0,0,0,0,0],"id":4,"left_children":[1,3,5,7,9,11,13,15,17,19,21,23,25,27,29,-1,31,33,35,37,39,-1,-1,41,-1,43,45,47,49,51,53,-1,-1,55,-1,57,59,61,63,65,67,69,71,73,75,77,79,81,83,-1,-1,-1,-1,-1,85,-1,-1,-1,-1,-1,-1,-1,-1,-1,-1,-1,-1,-1,-1,-1,-1,-1,-1,-1,-1,-1,-1,-1,-1,-1,-1,-1,-1,-1,-1,-1,-1],"loss_changes":[1.0290772E4,4.925086E3,1.6075383E3,5.99751E2,7.0812866E2,1.2574032E3,2.2177637E2,3.5873413E1,2.5839746E2,4.4731628E2,1.8384595E2,1.7522925E2,3.247453E2,9.449927E1,1.12553696E2,0E0,5.1188538E1,3.098296E2,2.5236816E2,7.3995056E1,3.292942E2,0E0,0E0,1.1374994E2,0E0,1.0388953E2,9.277286E1,3.852527E1,1.4245117E1,6.0759125E0,6.4026737E0,0E0,0E0,2.5353027E2,0E0,2.1554565E1,3.4608423E2,2.7750183E1,1.065271E1,7.86593E1,7.117236E1,6.777783E1,2.9008942E1,3.7202423E1,3.0350723E1,3.2966183E1,1.0074249E1,1.6464478E1,3.415912E1,0E0,0E0,0E0,0E0,0E0,1.0156066E1,0E0,0E0,0E0,0E0,0E0,0E0,0E0,0E0,0E0,0E0,0E0,0E0,0E0,0E0,0E0,0E0,0E0,0E0,0E0,0E0,0E0,0E0,0E0,0E0,0E0,0E0,0E0,0E0,0E0,0E0,0E0,0E0],"parents":[2147483647,0,0,1,1,2,2,3,3,4,4,5,5,6,6,7,7,8,8,9,9,10,10,11,11,12,12,13,13,14,14,16,16,17,17,18,18,19,19,20,20,23,23,25,25,26,26,27,27,28,28,29,29,30,30,33,33,35,35,36,36,37,37,38,38,39,39,40,40,41,41,42,42,43,43,44,44,45,45,46,46,47,47,48,48,54,54],"right_children":[2,4,6,8,10,12,14,16,18,20,22,24,26,28,30,-1,32,34,36,38,40,-1,-1,42,-1,44,46,48,50,52,54,-1,-1,56,-1,58,60,62,64,66,68,70,72,74,76,78,80,82,84,-1,-1,-1,-1,-1,86,-1,-1,-1,-1,-1,-1,-1,-1,-1,-1,-1,-1,-1,-1,-1,-1,-1,-1,-1,-1,-1,-1,-1,-1,-1,-1,-1,-1,-1,-1,-1,-1],"split_conditions":[1E-45,1E-45,1E-45,2.7769709E0,6.517565E-1,1E-45,1.3298287E0,3.2619927E0,-2.223847E-1,4.571461E0,4.140152E0,2.7769709E0,1.8609251E-1,1E-45,9.8248065E-1,4.8439378E-1,1E0,1E0,1.6688648E0,1E0,3.2619927E0,7.0684564E-1,3.2028392E-1,1E0,3.4092823E-1,2.7769709E0,9.8248065E-1,7.8655404E-1,1E0,1.03989105E1,1E0,2.3399937E-1,4.728367E-1,1E0,5.5056274E-1,1.2195399E0,2.2489026E0,2.7769709E0,-8.120097E-1,1E0,1E0,8.641647E-1,2.1104288E1,3.2619927E0,9.954932E0,3.4947581E0,9.7853833E-1,1.753583E1,9.8248065E-1,-1.4428215E-1,-4.7286943E-2,-9.42584E-2,-4.8339944E-2,6.5332875E-2,1E0,1.2327634E0,7.650321E-1,3.7100014E-1,5.3147763E-1,1.1720817E0,6.0967994E-1,5.9613638E-2,1.1405373E-1,1.1007485E-1,1.6603641E-1,1.6518593E-1,2.918456E-1,6.213623E-1,3.368269E-1,8.0768846E-2,2.1105368E-1,2.9367337E-1,1.3515536E-1,-5.8916207E-2,2.883449E-3,-4.721973E-3,1.2125221E-1,-5.332549E-2,7.72465E-2,2.2152263E-1,1.3648486E-1,-1.1438634E-1,-4.68249E-2,-9.129011E-2,-1.7898846E-2,-3.3443626E-2,4.730861E-2],"split_indices":[20,19,20,2,5,19,5,6,5,2,5,2,5,20,2,0,7,7,5,16,6,0,0,7,0,2,2,5,16,6,11,0,0,16,0,5,5,2,2,16,8,5,6,6,2,5,5,6,2,0,0,0,0,0,7,0,0,0,0,0,0,0,0,0,0,0,0,0,0,0,0,0,0,0,0,0,0,0,0,0,0,0,0,0,0,0,0],"split_type":[1,1,1,0,0,1,0,0,0,0,0,0,0,1,0,0,0,0,0,0,0,0,0,0,0,0,0,0,0,0,0,0,0,0,0,0,0,0,0,0,0,0,0,0,0,0,0,0,0,0,0,0,0,0,0,0,0,0,0,0,0,0,0,0,0,0,0,0,0,0,0,0,0,0,0,0,0,0,0,0,0,0,0,0,0,0,0],"sum_hessian":[2.473E3,4.72E2,2.001E3,8.9E1,3.83E2,8.96E2,1.105E3,2.8E1,6.1E1,3.65E2,1.8E1,1.28E2,7.68E2,1.001E3,1.04E2,1.4E1,1.4E1,2.5E1,3.6E1,2.51E2,1.14E2,9E0,9E0,1.1E2,1.8E1,7.02E2,6.6E1,6.44E2,3.57E2,5.8E1,4.6E1,8E0,6E0,1.8E1,7E0,1.8E1,1.8E1,1.89E2,6.2E1,1E2,1.4E1,8.6E1,2.4E1,5.57E2,1.45E2,2.7E1,3.9E1,4.94E2,1.5E2,3.51E2,6E0,4.2E1,1.6E1,2.2E1,2.4E1,1E1,8E0,6E0,1.2E1,6E0,1.2E1,1.45E2,4.4E1,2.1E1,4.1E1,7.7E1,2.3E1,8E0,6E0,6.8E1,1.8E1,1.8E1,6E0,5.21E2,3.6E1,1.38E2,7E0,1.4E1,1.3E1,7E0,3.2E1,4.8E2,1.4E1,1.22E2,2.8E1,8E0,1.6E1],"tree_param":{"num_deleted":"0","num_feature":"21","num_nodes":"87","size_leaf_vector":"1"}},{"base_weights":[4.848645E-2,-8.3260316E-1,5.765165E0,-1.3911796E0,9.769631E-1,4.389525E0,1.3208362E1,-2.1265938E0,-9.251912E-1,3.3064017E-1,4.3525014E0,3.0185926E0,6.5603404E0,1.03326235E1,1.5864425E0,-2.150574E0,-1.1146852E-2,-1.1540103E0,7.145782E-1,-1.3957669E-1,1.963983E0,4.016805E0,5.027711E-1,2.3146167E0,7.161499E0,5.8934574E0,9.491271E0,4.7811346E0,1.2716565E1,-2.2538118E0,-1.7965828E0,-1.1818094E0,1.103363E-1,-7.7738595E-1,1.9077748E0,-2.1564895E-1,1.348891E-1,-3.4003925E-2,2.3651462E0,2.325603E0,4.425628E0,1.7683998E0,3.729079E0,5.7807465E0,5.6499E-1,3.8986435E0,6.708322E0,4.9289727E-1,6.26987E-1,2.078581E-1,3.6579543E-1,7.1196666E0,1.6945957E1,-9.222616E-2,-1.3493848E-1,-1.1054688E-1,-2.2940462E-2,-8.644303E-2,-5.940149E-2,-5.9543345E-2,6.087907E-2,3.2865014E-2,1.476335E-1,-4.546648E-2,2.0287014E-3,1.0694502E-1,2.502791E-1,5.2317E-2,2.3186997E-1,1.9861765E-1,2.9983023E-1,8.177351E-2,2.0975585E-1,1.2419383E-1,3.8636643E-1,3.9504007E-1,2.4929836E-1,1.8535583E-1,3.2953137E-1,3.638511E-1,6.218798E-1,2.1250486E-1,6.5917313E-1,1.2039474E0,8.1825686E-1],"categories":[],"categories_nodes":[],"categories_segments":[],"categories_sizes":[],"default_left":[0,0,0,0,0,0,0,0,0,0,0,0,0,0,0,0,0,0,0,0,0,0,0,0,0,0,0,0,0,0,0,0,0,0,0,0,0,0,0,0,0,0,0,0,0,0,0,0,0,0,0,0,0,0,0,0,0,0,0,0,0,0,0,0,0,0,0,0,0,0,0,0,0,0,0,0,0,0,0,0,0,0,0,0,0],"id":5,"left_children":[1,3,5,7,9,11,13,15,17,19,21,23,25,27,-1,29,-1,31,33,35,37,39,-1,41,43,45,47,49,51,53,55,57,-1,59,61,63,-1,-1,65,67,69,71,73,75,-1,77,79,-1,-1,-1,-1,81,83,-1,-1,-1,-1,-1,-1,-1,-1,-1,-1,-1,-1,-1,-1,-1,-1,-1,-1,-1,-1,-1,-1,-1,-1,-1,-1,-1,-1,-1,-1,-1,-1],"loss_changes":[1.2599239E4,2.1906025E3,3.412334E3,5.665259E2,1.1135061E3,8.3559375E2,2.0071377E3,2.9138428E1,3.8065234E2,3.3007004E2,1.0853516E2,5.0109424E2,2.058418E2,5.6157275E2,0E0,2.1781494E1,0E0,7.4552124E1,2.2124013E2,6.065187E1,9.83884E1,5.0086914E1,0E0,1.124422E2,7.496228E1,1.4033398E2,1.5713623E1,1.922284E1,6.9824316E2,6.9816895E0,1.3452728E1,4.302002E1,0E0,2.2686516E1,5.3652084E1,4.477336E1,0E0,0E0,8.4310425E1,3.2911217E1,3.8339966E1,7.192105E1,1.839928E2,1.782367E1,0E0,2.9945038E1,1.270896E2,0E0,0E0,0E0,0E0,1.784649E2,1.5642285E2,0E0,0E0,0E0,0E0,0E0,0E0,0E0,0E0,0E0,0E0,0E0,0E0,0E0,0E0,0E0,0E0,0E0,0E0,0E0,0E0,0E0,0E0,0E0,0E0,0E0,0E0,0E0,0E0,0E0,0E0,0E0,0E0],"parents":[2147483647,0,0,1,1,2,2,3,3,4,4,5,5,6,6,7,7,8,8,9,9,10,10,11,11,12,12,13,13,15,15,17,17,18,18,19,19,20,20,21,21,23,23,24,24,25,25,26,26,27,27,28,28,29,29,30,30,31,31,33,33,34,34,35,35,38,38,39,39,40,40,41,41,42,42,43,43,45,45,46,46,51,51,52,52],"right_children":[2,4,6,8,10,12,14,16,18,20,22,24,26,28,-1,30,-1,32,34,36,38,40,-1,42,44,46,48,50,52,54,56,58,-1,60,62,64,-1,-1,66,68,70,72,74,76,-1,78,80,-1,-1,-1,-1,82,84,-1,-1,-1,-1,-1,-1,-1,-1,-1,-1,-1,-1,-1,-1,-1,-1,-1,-1,-1,-1,-1,-1,-1,-1,-1,-1,-1,-1,-1,-1,-1,-1],"split_conditions":[1.0797762E0,1.762314E-1,2.78419E0,-7.58116E-1,8.805798E-2,1.6673952E0,1.2808114E0,4.571461E0,1.4115242E0,7.4588066E-1,1.048664E0,2.3510978E-1,3.7399203E-1,1.7332176E0,1.5864425E0,-8.2998884E-1,-1.1146852E-2,2.12157E0,9.8248065E-1,1E0,9.8248065E-1,2.0613645E-1,5.027711E-1,4.571461E0,1.048664E0,2.7769709E0,2.310174E0,1.2198024E0,4.571461E0,-1.03534E0,1.7954928E0,9.8248065E-1,1.103363E-1,-3.0727878E-1,-6.758846E-1,2.0613645E-1,1.348891E-1,-3.4003925E-2,1E0,5.537144E0,3.4051225E-1,1E0,1.6444916E0,1.4083378E0,5.6499E-1,2.209207E0,5.3402886E0,4.9289727E-1,6.26987E-1,2.078581E-1,3.6579543E-1,2.1845672E0,2.70739E0,-9.222616E-2,-1.3493848E-1,-1.1054688E-1,-2.2940462E-2,-8.644303E-2,-5.940149E-2,-5.9543345E-2,6.087907E-2,3.2865014E-2,1.476335E-1,-4.546648E-2,2.0287014E-3,1.0694502E-1,2.502791E-1,5.2317E-2,2.3186997E-1,1.9861765E-1,2.9983023E-1,8.177351E-2,2.0975585E-1,1.2419383E-1,3.8636643E-1,3.9504007E-1,2.4929836E-1,1.8535583E-1,3.2953137E-1,3.638511E-1,6.218798E-1,2.1250486E-1,6.5917313E-1,1.2039474E0,8.1825686E-1],"split_indices":[3,3,3,3,5,4,5,2,5,4,4,5,5,4,0,3,0,4,2,13,2,4,0,2,4,2,5,4,2,3,5,2,0,4,4,4,0,0,15,5,3,15,3,3,0,3,4,0,0,0,0,1,4,0,0,0,0,0,0,0,0,0,0,0,0,0,0,0,0,0,0,0,0,0,0,0,0,0,0,0,0,0,0,0,0],"split_type":[0,0,0,0,0,0,0,0,0,0,0,0,0,0,0,0,0,0,0,0,0,0,0,0,0,0,0,0,0,0,0,0,0,0,0,0,0,0,0,0,0,0,0,0,0,0,0,0,0,0,0,0,0,0,0,0,0,0,0,0,0,0,0,0,0,0,0,0,0,0,0,0,0,0,0,0,0,0,0,0,0,0,0,0,0],"sum_hessian":[2.501E3,2.167E3,3.34E2,1.656E3,5.11E2,2.82E2,5.2E1,6.42E2,1.014E3,4.29E2,8.2E1,1.73E2,1.09E2,4.3E1,9E0,6.34E2,8E0,8.9E2,1.24E2,3.33E2,9.6E1,7.6E1,6E0,1.48E2,2.5E1,8.9E1,2E1,1.3E1,3E1,4.9E2,1.44E2,8.82E2,8E0,5.5E1,6.9E1,3.23E2,1E1,1.3E1,8.3E1,1.5E1,6.1E1,1.07E2,4.1E1,1.6E1,9E0,2.6E1,6.3E1,1E1,1E1,7E0,6E0,1.3E1,1.7E1,1.7E1,4.73E2,1.37E2,7E0,3.45E2,5.37E2,4.9E1,6E0,2.1E1,4.8E1,1.01E2,2.22E2,6.4E1,1.9E1,8E0,7E0,2.3E1,3.8E1,8.8E1,1.9E1,2.6E1,1.5E1,1E1,6E0,1.8E1,8E0,5.5E1,8E0,7E0,6E0,8E0,9E0],"tree_param":{"num_deleted":"0","num_feature":"21","num_nodes":"85","size_leaf_vector":"1"}},{"base_weights":[9.110421E-3,-7.8053385E-1,5.28569E0,-1.6241994E0,4.328725E-1,1.2363693E1,3.139348E0,-2.092684E0,-1.3150018E0,2.9381905E0,-5.859693E-2,9.441853E0,2.4155603E1,2.2979155E0,7.084155E0,-2.1270216E0,2.0166196E-2,-1.3941995E0,-7.850305E-2,1.3946664E0,5.6663427E0,-4.306808E-1,4.7909755E-1,7.3404236E0,1.2877628E1,1.5225852E0,1.2788844E0,2.055512E0,4.1523635E-1,7.6031214E-1,5.7818656E0,-1.2704422E-1,-5.80436E-2,-1.4875917E0,-7.812689E-1,-1.1181587E0,1.4371396E0,5.8574975E-1,3.0255618E0,4.9121714E0,6.7022057E0,-7.0571786E-1,6.4461166E-1,3.3613807E-1,3.2227054E0,8.022232E0,3.1819168E-1,8.689565E-1,6.608307E-1,1.4578873E0,2.5971E0,4.9460936E0,5.8267784E-1,-9.511953E-2,-5.6049142E-2,-5.7093583E-2,3.6211486E-3,-9.0437986E-2,-1.2995844E-2,4.451443E-2,1.3818881E-1,-3.6565483E-2,6.586915E-2,1.10083096E-1,2.7281788E-1,3.7297815E-1,2.6094025E-1,4.614436E-1,2.7989307E-1,-7.951256E-2,-2.6606562E-2,-2.1435728E-2,7.467648E-2,1.4800113E-2,2.2321692E-1,1.3897282E-1,2.463609E-1,6.344655E-1,4.198891E-1,7.698944E-2,1.9893567E-1,3.2224834E-2,1.638717E-1,2.218045E-1,4.1277692E-1],"categories":[1,2,3,4,5,6,7,2,6,7,0,1,2,3,4,5,6],"categories_nodes":[2,4,14],"categories_segments":[0,7,10],"categories_sizes":[7,3,7],"default_left":[0,0,1,0,1,0,0,0,0,0,0,0,0,0,1,0,0,0,0,0,0,0,0,0,0,0,0,0,0,0,0,0,0,0,0,0,0,0,0,0,0,0,0,0,0,0,0,0,0,0,0,0,0,0,0,0,0,0,0,0,0,0,0,0,0,0,0,0,0,0,0,0,0,0,0,0,0,0,0,0,0,0,0,0,0],"id":6,"left_children":[1,3,5,7,9,11,13,15,17,19,21,23,25,27,29,31,-1,33,35,37,39,41,43,45,47,-1,-1,49,-1,-1,51,-1,-1,53,55,57,59,61,63,65,67,69,71,73,75,77,-1,-1,-1,79,81,83,-1,-1,-1,-1,-1,-1,-1,-1,-1,-1,-1,-1,-1,-1,-1,-1,-1,-1,-1,-1,-1,-1,-1,-1,-1,-1,-1,-1,-1,-1,-1,-1,-1],"loss_changes":[1.0468286E4,2.2372402E3,4.961996E3,1.855874E2,1.1041478E3,2.5989873E3,8.2974243E2,4.3341064E1,7.565735E1,6.167571E2,1.4985661E2,4.301328E2,1.8216797E1,2.3312598E2,3.20781E2,9.276123E0,0E0,4.1066772E1,7.4125465E1,1.2292844E2,3.639319E1,1.3107056E2,1.1894245E2,4.499121E1,5.5364746E1,0E0,0E0,6.2400085E1,0E0,0E0,1.15411865E2,0E0,0E0,3.9697876E1,1.5196266E1,9.772999E0,1.0708122E1,4.009854E1,5.4941833E1,1.7267883E1,4.191986E1,5.7105057E1,5.6126316E1,8.496335E1,9.957779E0,6.140161E1,0E0,0E0,0E0,2.6681717E1,3.47995E1,6.857953E1,0E0,0E0,0E0,0E0,0E0,0E0,0E0,0E0,0E0,0E0,0E0,0E0,0E0,0E0,0E0,0E0,0E0,0E0,0E0,0E0,0E0,0E0,0E0,0E0,0E0,0E0,0E0,0E0,0E0,0E0,0E0,0E0,0E0],"parents":[2147483647,0,0,1,1,2,2,3,3,4,4,5,5,6,6,7,7,8,8,9,9,10,10,11,11,12,12,13,13,14,14,15,15,17,17,18,18,19,19,20,20,21,21,22,22,23,23,24,24,27,27,30,30,33,33,34,34,35,35,36,36,37,37,38,38,39,39,40,40,41,41,42,42,43,43,44,44,45,45,49,49,50,50,51,51],"right_children":[2,4,6,8,10,12,14,16,18,20,22,24,26,28,30,32,-1,34,36,38,40,42,44,46,48,-1,-1,50,-1,-1,52,-1,-1,54,56,58,60,62,64,66,68,70,72,74,76,78,-1,-1,-1,80,82,84,-1,-1,-1,-1,-1,-1,-1,-1,-1,-1,-1,-1,-1,-1,-1,-1,-1,-1,-1,-1,-1,-1,-1,-1,-1,-1,-1,-1,-1,-1,-1,-1,-1],"split_conditions":[1.0797762E0,1.0492289E0,1E-45,-8.094537E-1,1E-45,2.969006E0,2.7225847E0,2.7769709E0,1.3829308E0,3.4051225E-1,2.5837183E-1,1.8601102E0,2.02424E0,5.6189156E-1,1E-45,1.753583E1,2.0166196E-2,1.8649895E-1,9.8248065E-1,1.3516119E-1,6.3827133E-1,1.3298287E0,6.354935E-2,1E0,3.2619927E0,1.5225852E0,1.2788844E0,2.7769709E0,4.1523635E-1,7.6031214E-1,7.4552007E0,-1.2704422E-1,-5.80436E-2,3.2619927E0,4.571461E0,1E0,-5.6303245E-1,-3.3714628E-1,1E0,-2.223847E-1,8.7442505E-1,9.8248065E-1,9.8248065E-1,9.954932E0,1E0,1E0,3.1819168E-1,8.689565E-1,6.608307E-1,2.4042904E0,1.0492289E0,1E0,5.8267784E-1,-9.511953E-2,-5.6049142E-2,-5.7093583E-2,3.6211486E-3,-9.0437986E-2,-1.2995844E-2,4.451443E-2,1.3818881E-1,-3.6565483E-2,6.586915E-2,1.10083096E-1,2.7281788E-1,3.7297815E-1,2.6094025E-1,4.614436E-1,2.7989307E-1,-7.951256E-2,-2.6606562E-2,-2.1435728E-2,7.467648E-2,1.4800113E-2,2.2321692E-1,1.3897282E-1,2.463609E-1,6.344655E-1,4.198891E-1,7.698944E-2,1.9893567E-1,3.2224834E-2,1.638717E-1,2.218045E-1,4.1277692E-1],"split_indices":[3,0,19,3,19,3,3,2,5,3,3,3,5,5,19,6,0,3,2,3,3,5,5,12,6,0,0,2,0,0,1,0,0,6,2,8,3,3,7,5,3,2,2,2,15,15,0,0,0,3,0,15,0,0,0,0,0,0,0,0,0,0,0,0,0,0,0,0,0,0,0,0,0,0,0,0,0,0,0,0,0,0,0,0,0],"split_type":[0,0,1,0,1,0,0,0,0,0,0,0,0,0,1,0,0,0,0,0,0,0,0,0,0,0,0,0,0,0,0,0,0,0,0,0,0,0,0,0,0,0,0,0,0,0,0,0,0,0,0,0,0,0,0,0,0,0,0,0,0,0,0,0,0,0,0,0,0,0,0,0,0,0,0,0,0,0,0,0,0,0,0,0,0],"sum_hessian":[2.512E3,2.185E3,3.27E2,1.289E3,8.96E2,7.6E1,2.51E2,5.12E2,7.77E2,1.47E2,7.49E2,6.1E1,1.5E1,2.07E2,4.4E1,5.05E2,7E0,7.3E2,4.7E1,9.4E1,5.3E1,4.43E2,3.06E2,3.8E1,2.3E1,9E0,6E0,1.97E2,1E1,8E0,3.6E1,4.97E2,8E0,6.33E2,9.7E1,2.8E1,1.9E1,6.3E1,3.1E1,3.1E1,2.2E1,3.53E2,9E1,2.91E2,1.5E1,2.8E1,1E1,1.1E1,1.2E1,9.4E1,1.03E2,3E1,6E0,5.19E2,1.14E2,8E1,1.7E1,1.9E1,9E0,1.1E1,8E0,1.9E1,4.4E1,1.8E1,1.3E1,8E0,2.3E1,1.4E1,8E0,1.01E2,2.52E2,3.4E1,5.6E1,2.84E2,7E0,8E0,7E0,7E0,2.1E1,8.7E1,7E0,8E0,9.5E1,1.9E1,1.1E1],"tree_param":{"num_deleted":"0","num_feature":"21","num_nodes":"85","size_leaf_vector":"1"}},{"base_weights":[-2.1258309E-3,-6.7246747E-1,5.7001805E0,-1.5743121E0,5.125241E-1,4.1424074E0,1.3019785E1,-1.9663495E0,-1.2876759E0,1.0374034E-1,2.471252E0,3.4663467E0,8.748882E0,9.503627E0,1.407944E0,-1.9904567E0,3.8900732E-3,-1.3758395E0,-6.3594437E-1,-5.0249994E-1,6.601728E-1,-3.6880204E-1,3.397005E0,2.2049608E0,5.152667E0,9.303286E0,3.968196E-1,6.8538165E0,1.243579E1,-1.2414863E-1,-1.0817426E-1,-1.4763861E0,-9.3494177E-1,-7.384771E-1,4.013026E-2,-7.876132E-1,4.6332997E-1,3.0405954E-1,4.0173445E0,7.505089E-2,-1.0004978E0,2.152575E0,4.6139193E0,1.6468618E0,4.7340546E0,3.2791214E0,6.630922E0,4.6343043E-1,1.0157865E1,1.1038026E-1,5.5126363E-1,1.1299115E0,4.2425647E-1,-9.9446245E-2,-7.093635E-2,-7.8306526E-2,4.3825533E-2,-2.7764875E-2,-8.492003E-2,-1.0692931E-1,-4.0860355E-2,-2.201201E-2,6.2399022E-2,2.2918794E-3,8.039452E-2,1.5946786E-1,2.6411054E-1,-8.591741E-2,3.990546E-2,6.710388E-2,1.9332655E-1,1.9781822E-1,3.3870685E-1,7.772591E-2,2.8945535E-1,3.5332054E-1,2.4421266E-1,3.0857196E-2,2.2732753E-1,4.3349266E-1,2.3098634E-1,7.0319694E-1,5.0785136E-1],"categories":[],"categories_nodes":[],"categories_segments":[],"categories_sizes":[],"default_left":[0,0,0,0,0,0,0,0,0,0,0,0,0,0,0,0,0,0,0,0,0,0,0,0,0,0,0,0,0,0,0,0,0,0,0,0,0,0,0,0,0,0,0,0,0,0,0,0,0,0,0,0,0,0,0,0,0,0,0,0,0,0,0,0,0,0,0,0,0,0,0,0,0,0,0,0,0,0,0,0,0,0,0],"id":7,"left_children":[1,3,5,7,9,11,13,15,17,19,21,23,25,27,-1,29,-1,31,33,35,37,39,41,43,45,47,-1,49,51,-1,-1,53,55,57,-1,59,61,63,65,-1,67,69,71,73,75,77,79,-1,81,-1,-1,-1,-1,-1,-1,-1,-1,-1,-1,-1,-1,-1,-1,-1,-1,-1,-1,-1,-1,-1,-1,-1,-1,-1,-1,-1,-1,-1,-1,-1,-1,-1,-1],"loss_changes":[9.341083E3,2.3376045E3,2.9232285E3,1.3849072E2,7.559297E2,6.55281E2,1.6817129E3,2.6242676E1,4.0624756E1,2.638731E2,4.296399E2,3.9089478E2,2.2932129E1,2.5464331E2,0E0,7.630127E0,0E0,2.724292E1,1.1631222E1,1.0311584E2,4.865089E2,4.1370655E1,1.8386182E2,1.4742706E2,2.1494238E2,1.737207E1,0E0,2.1679205E2,5.4744727E2,0E0,0E0,2.8078735E1,7.674417E1,1.4419128E1,0E0,2.7971771E1,4.212416E1,1.02730194E2,2.014685E1,0E0,2.216168E1,6.770261E1,8.3700806E1,9.2247284E1,1.0143555E1,5.263214E1,7.7992065E1,0E0,2.4348877E1,0E0,0E0,0E0,0E0,0E0,0E0,0E0,0E0,0E0,0E0,0E0,0E0,0E0,0E0,0E0,0E0,0E0,0E0,0E0,0E0,0E0,0E0,0E0,0E0,0E0,0E0,0E0,0E0,0E0,0E0,0E0,0E0,0E0,0E0],"parents":[2147483647,0,0,1,1,2,2,3,3,4,4,5,5,6,6,7,7,8,8,9,9,10,10,11,11,12,12,13,13,15,15,17,17,18,18,19,19,20,20,21,21,22,22,23,23,24,24,25,25,27,27,28,28,31,31,32,32,33,33,35,35,36,36,37,37,38,38,40,40,41,41,42,42,43,43,44,44,45,45,46,46,48,48],"right_children":[2,4,6,8,10,12,14,16,18,20,22,24,26,28,-1,30,-1,32,34,36,38,40,42,44,46,48,-1,50,52,-1,-1,54,56,58,-1,60,62,64,66,-1,68,70,72,74,76,78,80,-1,82,-1,-1,-1,-1,-1,-1,-1,-1,-1,-1,-1,-1,-1,-1,-1,-1,-1,-1,-1,-1,-1,-1,-1,-1,-1,-1,-1,-1,-1,-1,-1,-1,-1,-1],"split_conditions":[1.2198024E0,1.0492289E0,2.78419E0,-8.094537E-1,1E0,9.4586015E-1,1.2808114E0,4.571461E0,1E0,1.5569629E-1,9.8248065E-1,1.4904783E0,2.6838706E0,1E0,1.407944E0,3.9033112E-1,3.8900732E-3,6.721804E-1,2.2756916E-1,1.3298287E0,5.414677E-1,1E0,4.4967958E-1,2.9048576E0,4.571461E0,1E0,3.968196E-1,3.3386378E0,1E0,-1.2414863E-1,-1.0817426E-1,-1.8879835E-1,9.8248065E-1,-7.022136E-1,4.013026E-2,-7.067782E-1,9.8248065E-1,1.1105788E0,9.8670787E-1,7.505089E-2,1.2337894E0,8.805798E-2,-2.223847E-1,1E0,3.905359E0,1.4633455E0,8.160442E0,4.6343043E-1,1E0,1.1038026E-1,5.5126363E-1,1.1299115E0,4.2425647E-1,-9.9446245E-2,-7.093635E-2,-7.8306526E-2,4.3825533E-2,-2.7764875E-2,-8.492003E-2,-1.0692931E-1,-4.0860355E-2,-2.201201E-2,6.2399022E-2,2.2918794E-3,8.039452E-2,1.5946786E-1,2.6411054E-1,-8.591741E-2,3.990546E-2,6.710388E-2,1.9332655E-1,1.9781822E-1,3.3870685E-1,7.772591E-2,2.8945535E-1,3.5332054E-1,2.4421266E-1,3.0857196E-2,2.2732753E-1,4.3349266E-1,2.3098634E-1,7.0319694E-1,5.0785136E-1],"split_indices":[4,0,3,3,15,5,5,2,8,3,2,3,0,15,0,5,0,5,3,5,5,16,4,4,2,16,0,3,16,0,0,4,2,4,0,3,2,3,5,0,3,5,5,8,4,4,2,0,8,0,0,0,0,0,0,0,0,0,0,0,0,0,0,0,0,0,0,0,0,0,0,0,0,0,0,0,0,0,0,0,0,0,0],"split_type":[0,0,0,0,0,0,0,0,0,0,0,0,0,0,0,0,0,0,0,0,0,0,0,0,0,0,0,0,0,0,0,0,0,0,0,0,0,0,0,0,0,0,0,0,0,0,0,0,0,0,0,0,0,0,0,0,0,0,0,0,0,0,0,0,0,0,0,0,0,0,0,0,0,0,0,0,0,0,0,0,0,0,0],"sum_hessian":[2.444E3,2.187E3,2.57E2,1.242E3,9.45E2,2.12E2,4.5E1,5.24E2,7.18E2,7.82E2,1.63E2,1.85E2,2.7E1,3.4E1,1.1E1,5.18E2,6E0,6.32E2,8.6E1,3.74E2,4.08E2,4E1,1.23E2,1.06E2,7.9E1,2.1E1,6E0,1.8E1,1.6E1,3.14E2,2.04E2,5.14E2,1.18E2,8E1,6E0,2.89E2,8.5E1,3.69E2,3.9E1,1.1E1,2.9E1,6.1E1,6.2E1,8.7E1,1.9E1,3.5E1,4.4E1,8E0,1.3E1,6E0,1.2E1,7E0,9E0,2.97E2,2.17E2,9.6E1,2.2E1,5.8E1,2.2E1,2.5E1,2.64E2,3.5E1,5E1,2.95E2,7.4E1,1E1,2.9E1,2.3E1,6E0,3.2E1,2.9E1,2.9E1,3.3E1,7.9E1,8E0,6E0,1.3E1,6E0,2.9E1,3.5E1,9E0,6E0,7E0],"tree_param":{"num_deleted":"0","num_feature":"21","num_nodes":"83","size_leaf_vector":"1"}},{"base_weights":[-4.499827E-3,-4.9427363E-1,6.122589E0,-1.1608808E0,8.9355296E-1,1.2122867E1,3.2382717E0,-1.7525023E0,-8.6557776E-1,4.451928E0,2.6383346E-1,7.899752E0,1.5909007E1,2.0784104E0,5.545499E0,-1.8301684E0,1.4325249E-1,1.670871E-1,-9.1695094E-1,3.6251774E0,8.685379E0,1.757464E-1,3.8316426E0,3.68598E-1,1.0076327E1,1.3888874E1,1.1261748E0,6.856241E-1,3.5308342E0,4.68921E0,5.043749E-1,-1.1677715E-1,-1.6565962E0,1.465137E-1,-4.9743578E-2,-1.0038205E0,1.6553544E-1,3.0905962E0,4.421101E0,3.710322E-1,6.250728E-1,-1.04283564E-1,9.0110034E-1,1.7421596E-1,2.8311875E-1,6.658493E-1,5.2006906E-1,1.4917701E1,6.815749E-1,1.7882578E-1,1.23210154E-1,2.7542949E0,4.634261E-1,3.7269604E0,3.8351128E-1,-9.202894E-2,-1.1579274E-1,-6.323479E-2,-3.5637304E-2,-3.4502767E-2,4.142043E-2,1.2545338E-1,2.3580228E-1,2.9546508E-1,1.8952931E-1,-1.6068341E-2,5.193876E-2,1.6156392E-1,4.356922E-2,6.257347E-1,1.1739897E0,2.7968567E-2,-4.6294346E-2,1.9873105E-1,7.545384E-2,7.393681E-2,2.9241392E-1],"categories":[1,2,3,4,5,6,1,2,3,4,5,6,7,0,2,6,7,0,1,2,3,4,5,6],"categories_nodes":[2,4,8,42],"categories_segments":[0,6,13,17],"categories_sizes":[6,7,4,7],"default_left":[0,0,1,0,1,0,0,0,1,0,0,0,0,0,0,0,0,0,0,0,0,0,0,0,0,0,0,0,0,0,0,0,0,0,0,0,0,0,0,0,0,0,1,0,0,0,0,0,0,0,0,0,0,0,0,0,0,0,0,0,0,0,0,0,0,0,0,0,0,0,0,0,0,0,0,0,0],"id":8,"left_children":[1,3,5,7,9,11,13,15,17,19,21,23,25,27,29,31,33,-1,35,37,39,41,43,-1,45,47,-1,49,51,53,-1,-1,55,-1,-1,57,59,61,63,-1,-1,65,67,-1,-1,-1,-1,69,-1,71,-1,73,-1,75,-1,-1,-1,-1,-1,-1,-1,-1,-1,-1,-1,-1,-1,-1,-1,-1,-1,-1,-1,-1,-1,-1,-1],"loss_changes":[7.380833E3,2.1076343E3,3.1442197E3,2.6804053E2,1.6546052E3,9.309082E2,3.2647778E2,7.58999E1,1.9407501E2,3.8349268E2,1.9617322E2,9.4472534E1,1.7182373E2,1.6462256E2,9.851294E1,1.084021E1,4.6511395E1,0E0,9.551648E1,3.670581E1,7.3381836E1,1.2476161E2,9.738907E0,0E0,7.393799E0,3.0369873E1,0E0,2.9035662E1,1.2933069E2,5.0862732E1,0E0,0E0,5.6364746E0,0E0,0E0,2.3520325E1,3.0017939E1,4.632611E1,2.2461243E1,0E0,0E0,7.225766E1,5.060556E1,0E0,0E0,0E0,0E0,2.5914917E2,0E0,8.675228E0,0E0,2.8711945E1,0E0,6.099466E1,0E0,0E0,0E0,0E0,0E0,0E0,0E0,0E0,0E0,0E0,0E0,0E0,0E0,0E0,0E0,0E0,0E0,0E0,0E0,0E0,0E0,0E0,0E0],"parents":[2147483647,0,0,1,1,2,2,3,3,4,4,5,5,6,6,7,7,8,8,9,9,10,10,11,11,12,12,13,13,14,14,15,15,16,16,18,18,19,19,20,20,21,21,22,22,24,24,25,25,27,27,28,28,29,29,32,32,35,35,36,36,37,37,38,38,41,41,42,42,47,47,49,49,51,51,53,53],"right_children":[2,4,6,8,10,12,14,16,18,20,22,24,26,28,30,32,34,-1,36,38,40,42,44,-1,46,48,-1,50,52,54,-1,-1,56,-1,-1,58,60,62,64,-1,-1,66,68,-1,-1,-1,-1,70,-1,72,-1,74,-1,76,-1,-1,-1,-1,-1,-1,-1,-1,-1,-1,-1,-1,-1,-1,-1,-1,-1,-1,-1,-1,-1,-1,-1],"split_conditions":[1.6673952E0,1.00820504E-1,1E-45,-8.4044075E-1,1E-45,2.279544E0,3.1813118E0,9.8248065E-1,1E-45,1.048664E0,1.03989105E1,3.2619927E0,1E0,4.571461E0,3.2619927E0,-9.194277E-1,-9.6550345E-1,1.670871E-1,1E0,1E0,2.7769709E0,7.656274E-1,1E0,3.68598E-1,1.396737E1,8.160442E0,1.1261748E0,1E0,3.2619927E0,1E0,5.043749E-1,-1.1677715E-1,1E0,1.465137E-1,-4.9743578E-2,1E0,9.8248065E-1,6.800582E-1,1E0,3.710322E-1,6.250728E-1,1E0,1E-45,1.7421596E-1,2.8311875E-1,6.658493E-1,5.2006906E-1,3.1813118E0,6.815749E-1,2.7769709E0,1.23210154E-1,2.5099227E0,4.634261E-1,2.7769709E0,3.8351128E-1,-9.202894E-2,-1.1579274E-1,-6.323479E-2,-3.5637304E-2,-3.4502767E-2,4.142043E-2,1.2545338E-1,2.3580228E-1,2.9546508E-1,1.8952931E-1,-1.6068341E-2,5.193876E-2,1.6156392E-1,4.356922E-2,6.257347E-1,1.1739897E0,2.7968567E-2,-4.6294346E-2,1.9873105E-1,7.545384E-2,7.393681E-2,2.9241392E-1],"split_indices":[4,4,19,4,19,4,4,2,19,4,6,6,16,2,6,4,4,0,7,17,2,4,11,0,6,2,0,16,6,16,0,0,13,0,0,17,2,4,11,0,0,16,19,0,0,0,0,4,0,2,0,4,0,2,0,0,0,0,0,0,0,0,0,0,0,0,0,0,0,0,0,0,0,0,0,0,0],"split_type":[0,0,1,0,1,0,0,0,1,0,0,0,0,0,0,0,0,0,0,0,0,0,0,0,0,0,0,0,0,0,0,0,0,0,0,0,0,0,0,0,0,0,1,0,0,0,0,0,0,0,0,0,0,0,0,0,0,0,0,0,0,0,0,0,0,0,0,0,0,0,0,0,0,0,0,0,0],"sum_hessian":[2.46E3,2.278E3,1.82E2,1.539E3,7.39E2,5.9E1,1.23E2,5.12E2,1.027E3,1.11E2,6.28E2,2.8E1,3.1E1,8.2E1,4.1E1,4.92E2,2E1,1.4E1,1.013E3,9.3E1,1.8E1,6.13E2,1.5E1,1.6E1,1.2E1,1.9E1,1.2E1,4.2E1,4E1,3.2E1,9E0,2.7E2,2.22E2,6E0,1.4E1,9.38E2,7.5E1,5.6E1,3.7E1,8E0,1E1,4.42E2,1.71E2,8E0,7E0,6E0,6E0,1.3E1,6E0,3.1E1,1.1E1,3.4E1,6E0,2.1E1,1.1E1,1.66E2,5.6E1,8.09E2,1.29E2,3.1E1,4.4E1,2.7E1,2.9E1,2.5E1,1.2E1,3.78E2,6.4E1,1.4E1,1.57E2,7E0,6E0,2.4E1,7E0,2.4E1,1E1,7E0,1.4E1],"tree_param":{"num_deleted":"0","num_feature":"21","num_nodes":"77","size_leaf_vector":"1"}},{"base_weights":[-1.898594E-2,-6.961946E-1,4.099525E0,-1.3931813E0,3.601708E-1,9.883877E0,2.6871514E0,-1.7799294E0,-1.1629943E0,2.4433866E0,-6.037526E-2,6.7614837E0,1.849824E1,2.2398934E0,9.132002E0,-1.5072536E0,-1.8509235E0,-1.1936324E0,1.0749287E-1,1.1483313E0,4.719674E0,-2.2647856E-1,1.030083E0,4.5981474E0,7.9601483E0,1.6713747E1,1.2943354E0,1.2227517E0,4.3405724E0,2.2282568E-1,1.1766043E1,-1.1029097E-1,-1.2801408E0,-3.4161344E-2,-1.1123011E-1,-1.3371507E0,-6.219872E-1,-5.2454427E-2,1.6262716E0,4.10292E0,4.0913886E-1,-3.2514006E-1,2.1495745E0,8.230977E-1,2.3202497E-1,1.9666962E-1,3.866158E-1,6.3100797E-1,6.872961E0,1.1033175E0,8.656739E-1,9.2688394E-1,4.896899E-1,4.8198023E-1,3.991128E0,5.400519E-1,8.4521663E-1,-3.2038372E-2,-8.845395E-2,-8.174048E-2,-4.40667E-2,-4.628632E-2,8.828089E-2,4.2877723E-2,1.5698008E-1,1.1044306E-1,2.6572257E-1,-3.4445774E-2,4.0770946E-3,8.3245724E-2,2.5492162E-1,3.160712E-2,1.7654671E-1,4.5212692E-1,2.74015E-1,2.1952976E-2,9.592628E-2,1.6959825E-1,2.9299337E-1],"categories":[1,2,3,4,5,6,7,2,6,7,0,0,1,2,3,4,5,6],"categories_nodes":[2,4,27,28],"categories_segments":[0,7,10,11],"categories_sizes":[7,3,1,7],"default_left":[0,0,1,0,1,0,0,0,0,0,0,0,0,0,0,0,0,0,0,0,0,0,0,0,0,0,0,1,1,0,0,0,0,0,0,0,0,0,0,0,0,0,0,0,0,0,0,0,0,0,0,0,0,0,0,0,0,0,0,0,0,0,0,0,0,0,0,0,0,0,0,0,0,0,0,0,0,0,0],"id":9,"left_children":[1,3,5,7,9,11,13,15,17,19,21,23,25,27,29,31,33,35,-1,37,39,41,43,45,47,49,-1,51,53,-1,55,-1,57,-1,-1,59,61,-1,63,65,-1,67,69,71,-1,-1,-1,-1,73,-1,-1,75,-1,-1,77,-1,-1,-1,-1,-1,-1,-1,-1,-1,-1,-1,-1,-1,-1,-1,-1,-1,-1,-1,-1,-1,-1,-1,-1],"loss_changes":[6.85487E3,1.5546362E3,2.830269E3,1.122771E2,7.35788E2,1.8167139E3,8.0000745E2,8.05249E0,7.273352E1,4.1381207E2,1.2621286E2,1.2427417E2,7.845361E1,5.558856E2,2.485575E2,6.938751E0,1.2078491E1,6.420068E1,0E0,8.782437E1,6.42301E1,1.4157301E2,5.345517E1,4.052011E1,8.502881E1,2.5040771E1,0E0,3.6384244E2,1.07649536E2,0E0,6.653711E1,0E0,8.983482E0,0E0,0E0,1.53532715E1,5.3414703E1,0E0,6.641084E1,3.206201E1,0E0,5.8943737E1,3.6577072E1,5.2633728E1,0E0,0E0,0E0,0E0,3.4001953E1,0E0,0E0,6.4513596E1,0E0,0E0,8.109839E1,0E0,0E0,0E0,0E0,0E0,0E0,0E0,0E0,0E0,0E0,0E0,0E0,0E0,0E0,0E0,0E0,0E0,0E0,0E0,0E0,0E0,0E0,0E0,0E0],"parents":[2147483647,0,0,1,1,2,2,3,3,4,4,5,5,6,6,7,7,8,8,9,9,10,10,11,11,12,12,13,13,14,14,15,15,16,16,17,17,19,19,20,20,21,21,22,22,23,23,24,24,25,25,27,27,28,28,30,30,32,32,35,35,36,36,38,38,39,39,41,41,42,42,43,43,48,48,51,51,54,54],"right_children":[2,4,6,8,10,12,14,16,18,20,22,24,26,28,30,32,34,36,-1,38,40,42,44,46,48,50,-1,52,54,-1,56,-1,58,-1,-1,60,62,-1,64,66,-1,68,70,72,-1,-1,-1,-1,74,-1,-1,76,-1,-1,78,-1,-1,-1,-1,-1,-1,-1,-1,-1,-1,-1,-1,-1,-1,-1,-1,-1,-1,-1,-1,-1,-1,-1,-1],"split_conditions":[9.771006E-1,1.0492289E0,1E-45,-8.2998884E-1,1E-45,2.2708123E0,5.6189156E-1,-5.854126E-1,1.8846093E0,4.2335057E-1,7.4588066E-1,1.048664E0,4.445103E0,1.8846093E0,1.2337894E0,-9.737346E-1,-9.840022E-1,7.70215E-1,1.0749287E-1,-3.3714628E-1,9.96006E-1,3.9032352E0,2.70739E0,2.6838706E0,1E0,-2.223847E-1,1.2943354E0,1E-45,1E-45,2.2282568E-1,1E0,-1.1029097E-1,-2.223847E-1,-3.4161344E-2,-1.1123011E-1,1E0,-4.6035692E-1,-5.2454427E-2,3.2619927E0,2.5837183E-1,4.0913886E-1,1.00820504E-1,6.14986E0,1E0,2.3202497E-1,1.9666962E-1,3.866158E-1,6.3100797E-1,2.0491655E0,1.1033175E0,8.656739E-1,1E0,4.896899E-1,4.8198023E-1,2.9048576E0,5.400519E-1,8.4521663E-1,-3.2038372E-2,-8.845395E-2,-8.174048E-2,-4.40667E-2,-4.628632E-2,8.828089E-2,4.2877723E-2,1.5698008E-1,1.1044306E-1,2.6572257E-1,-3.4445774E-2,4.0770946E-3,8.3245724E-2,2.5492162E-1,3.160712E-2,1.7654671E-1,4.5212692E-1,2.74015E-1,2.1952976E-2,9.592628E-2,1.6959825E-1,2.9299337E-1],"split_indices":[3,0,19,3,19,3,5,0,4,4,4,4,4,4,3,3,3,5,0,3,4,5,4,0,17,5,0,18,19,0,15,0,5,0,0,9,3,0,6,3,0,4,5,15,0,0,0,0,4,0,0,17,0,0,4,0,0,0,0,0,0,0,0,0,0,0,0,0,0,0,0,0,0,0,0,0,0,0,0],"split_type":[0,0,1,0,1,0,0,0,0,0,0,0,0,0,0,0,0,0,0,0,0,0,0,0,0,0,0,1,1,0,0,0,0,0,0,0,0,0,0,0,0,0,0,0,0,0,0,0,0,0,0,0,0,0,0,0,0,0,0,0,0,0,0,0,0,0,0,0,0,0,0,0,0,0,0,0,0,0,0],"sum_hessian":[2.458E3,2.111E3,3.47E2,1.272E3,8.39E2,6.8E1,2.79E2,4.74E2,7.98E2,1.41E2,6.98E2,5E1,1.8E1,2.61E2,1.8E1,9.9E1,3.75E2,7.9E2,8E0,9E1,5.1E1,6.06E2,9.2E1,1.8E1,3.2E1,1.2E1,6E0,1.76E2,8.5E1,6E0,1.2E1,3.8E1,6.1E1,8E0,3.67E2,6.31E2,1.59E2,1.7E1,7.3E1,4E1,1.1E1,5.82E2,2.4E1,8.6E1,6E0,1.1E1,7E0,9E0,2.3E1,6E0,6E0,1.69E2,7E0,7E0,7.8E1,6E0,6E0,1.4E1,4.7E1,5.88E2,4.3E1,1.48E2,1.1E1,3.9E1,3.4E1,6E0,3.4E1,3.53E2,2.29E2,1.8E1,6E0,7.6E1,1E1,1.7E1,6E0,9.4E1,7.5E1,3.6E1,4.2E1],"tree_param":{"num_deleted":"0","num_feature":"21","num_nodes":"79","size_leaf_vector":"1"}},{"base_weights":[2.8025746E-2,-5.127107E-1,5.017635E0,-1.0392485E0,7.8981876E-1,1.0757998E1,3.1638625E0,-1.2137206E0,5.913137E-1,3.1774208E-1,4.2370996E0,7.8935227E0,1.540353E1,2.4590516E0,6.28614E0,-1.6237663E0,-9.8456275E-1,-4.3939543E-1,1.5340886E0,3.369822E0,1.0557695E-1,3.5308905E0,5.302526E0,7.3689823E0,6.1515814E-1,1.2477213E1,1.2071227E0,1.6533701E0,4.3966856E0,3.6454785E0,8.73631E0,-1.7554643E0,-1.4549633E0,-4.5232356E-1,-1.080475E0,-8.7157637E-1,7.859881E-2,2.666375E-2,2.1906142E0,5.0921545E0,6.339455E-1,-7.6190814E-2,7.626015E-1,2.7117789E0,2.7658206E-1,4.2850003E0,4.5062628E-1,8.176921E0,3.7096447E-1,5.448551E-1,9.255888E-1,1.1852633E0,3.19583E0,3.7931073E0,5.487552E0,1.4482911E-1,3.294001E-1,6.2449676E-1,3.918094E-1,-1.0575303E-1,-5.3637695E-2,-8.830147E-2,-3.9113548E-2,-6.527695E-2,-9.925535E-3,-7.536795E-2,-3.9506953E-2,-6.2250514E-2,1.2588195E-2,2.3611838E-1,1.017744E-1,4.39475E-1,1.8396707E-1,-1.6036533E-2,9.333674E-2,7.036608E-2,-9.051817E-3,1.6405255E-2,1.0368891E-1,2.0934105E-1,1.1357603E-1,2.9209927E-1,1.9952288E-1,3.888233E-1,5.3288966E-1,1.3626742E-1,4.780326E-2,9.809924E-2,3.6780593E-1,1.1089272E-1,2.6143044E-1,2.7424225E-1,3.954925E-1],"categories":[1,2,3,4,5,6,7,1,2,3,4,5,6,7,6,0,6],"categories_nodes":[2,9,16,34,41],"categories_segments":[0,7,14,15,16],"categories_sizes":[7,7,1,1,1],"default_left":[0,0,1,0,0,0,0,0,0,1,0,0,0,0,0,0,1,0,0,0,0,0,0,0,0,0,0,0,0,0,0,0,0,0,1,0,0,0,0,0,0,1,0,0,0,0,0,0,0,0,0,0,0,0,0,0,0,0,0,0,0,0,0,0,0,0,0,0,0,0,0,0,0,0,0,0,0,0,0,0,0,0,0,0,0,0,0,0,0,0,0,0,0],"id":10,"left_children":[1,3,5,7,9,11,13,15,17,19,21,23,25,27,29,31,33,35,37,39,41,43,45,47,-1,49,-1,51,53,55,57,59,61,63,65,67,-1,-1,69,71,73,75,77,79,-1,81,-1,83,-1,-1,-1,85,87,89,91,-1,-1,-1,-1,-1,-1,-1,-1,-1,-1,-1,-1,-1,-1,-1,-1,-1,-1,-1,-1,-1,-1,-1,-1,-1,-1,-1,-1,-1,-1,-1,-1,-1,-1,-1,-1,-1,-1],"loss_changes":[6.5686714E3,1.506233E3,2.5273843E3,4.4517126E2,1.0271829E3,7.595674E2,3.9288367E2,1.3193262E2,1.47134E2,3.5903018E2,5.3695312E1,3.8089355E1,2.9870654E2,2.274245E2,2.0861353E2,1.0180908E1,4.5829346E1,5.4925026E1,5.5431076E1,1.6802988E2,6.231164E1,4.014502E1,6.5365234E1,2.0065796E1,0E0,1.3059961E2,0E0,7.365372E1,2.458368E1,3.387941E1,5.6838623E1,6.3202515E0,5.659363E0,2.534365E1,6.0337585E1,1.154409E1,0E0,0E0,3.959381E1,9.769147E1,1.23748665E1,3.9133675E1,5.361898E1,1.5733261E1,0E0,9.206177E0,0E0,1.5019531E1,0E0,0E0,0E0,3.276281E1,1.0877049E2,3.1174988E1,1.0491821E1,0E0,0E0,0E0,0E0,0E0,0E0,0E0,0E0,0E0,0E0,0E0,0E0,0E0,0E0,0E0,0E0,0E0,0E0,0E0,0E0,0E0,0E0,0E0,0E0,0E0,0E0,0E0,0E0,0E0,0E0,0E0,0E0,0E0,0E0,0E0,0E0,0E0,0E0],"parents":[2147483647,0,0,1,1,2,2,3,3,4,4,5,5,6,6,7,7,8,8,9,9,10,10,11,11,12,12,13,13,14,14,15,15,16,16,17,17,18,18,19,19,20,20,21,21,22,22,23,23,25,25,27,27,28,28,29,29,30,30,31,31,32,32,33,33,34,34,35,35,38,38,39,39,40,40,41,41,42,42,43,43,45,45,47,47,51,51,52,52,53,53,54,54],"right_children":[2,4,6,8,10,12,14,16,18,20,22,24,26,28,30,32,34,36,38,40,42,44,46,48,-1,50,-1,52,54,56,58,60,62,64,66,68,-1,-1,70,72,74,76,78,80,-1,82,-1,84,-1,-1,-1,86,88,90,92,-1,-1,-1,-1,-1,-1,-1,-1,-1,-1,-1,-1,-1,-1,-1,-1,-1,-1,-1,-1,-1,-1,-1,-1,-1,-1,-1,-1,-1,-1,-1,-1,-1,-1,-1,-1,-1,-1],"split_conditions":[1.2790426E0,2.127187E-1,1E-45,1.4115242E0,4.3117884E-1,2.279544E0,3.2619927E0,-8.4044075E-1,9.8248065E-1,1E-45,2.7769709E0,2.310174E0,6.3659515E0,2.9048576E0,4.571461E0,3.9033112E-1,1E-45,-3.0727878E-1,-6.2980884E-1,-2.223847E-1,7.656274E-1,7.4588066E-1,1.8731035E0,1.2808114E0,6.1515814E-1,3.1813118E0,1.2071227E0,1E0,1E0,2.9048576E0,1E0,9.8248065E-1,1.753583E1,-3.9943025E-1,1E-45,3.4947581E0,7.859881E-2,2.666375E-2,1.8608491E0,3.2619927E0,8.805798E-2,1E-45,1E0,6.517565E-1,2.7658206E-1,1E0,4.5062628E-1,2.7769709E0,3.7096447E-1,5.448551E-1,9.255888E-1,1.5225857E0,2.12157E0,2.7769709E0,4.571461E0,1.4482911E-1,3.294001E-1,6.2449676E-1,3.918094E-1,-1.0575303E-1,-5.3637695E-2,-8.830147E-2,-3.9113548E-2,-6.527695E-2,-9.925535E-3,-7.536795E-2,-3.9506953E-2,-6.2250514E-2,1.2588195E-2,2.3611838E-1,1.017744E-1,4.39475E-1,1.8396707E-1,-1.6036533E-2,9.333674E-2,7.036608E-2,-9.051817E-3,1.6405255E-2,1.0368891E-1,2.0934105E-1,1.1357603E-1,2.9209927E-1,1.9952288E-1,3.888233E-1,5.3288966E-1,1.3626742E-1,4.780326E-2,9.809924E-2,3.6780593E-1,1.1089272E-1,2.6143044E-1,2.7424225E-1,3.954925E-1],"split_indices":[4,4,19,5,5,4,6,4,2,19,2,5,2,4,2,5,19,4,4,5,4,4,5,5,0,4,0,16,16,4,8,2,6,4,18,5,0,0,5,6,5,19,17,5,0,9,0,2,0,0,0,4,4,2,2,0,0,0,0,0,0,0,0,0,0,0,0,0,0,0,0,0,0,0,0,0,0,0,0,0,0,0,0,0,0,0,0,0,0,0,0,0,0],"split_type":[0,0,1,0,0,0,0,0,0,1,0,0,0,0,0,0,1,0,0,0,0,0,0,0,0,0,0,0,0,0,0,0,0,0,1,0,0,0,0,0,0,1,0,0,0,0,0,0,0,0,0,0,0,0,0,0,0,0,0,0,0,0,0,0,0,0,0,0,0,0,0,0,0,0,0,0,0,0,0,0,0,0,0,0,0,0,0,0,0,0,0,0,0],"sum_hessian":[2.434E3,2.196E3,2.38E2,1.564E3,6.32E2,5.8E1,1.8E2,1.413E3,1.51E2,5.56E2,7.6E1,3.6E1,2.2E1,1.47E2,3.3E1,5.06E2,9.07E2,7.2E1,7.9E1,3.6E1,5.2E2,4.6E1,3E1,3E1,6E0,1.4E1,8E0,1.04E2,4.3E1,1.6E1,1.7E1,2.83E2,2.23E2,1.39E2,7.68E2,5.8E1,1.4E1,3E1,4.9E1,2.2E1,1.4E1,4.07E2,1.13E2,2.7E1,1.9E1,2.1E1,9E0,1.7E1,1.3E1,7E0,7E0,8E1,2.4E1,2.8E1,1.5E1,1E1,6E0,9E0,8E0,2.73E2,1E1,2.13E2,1E1,4.2E1,9.7E1,5.24E2,2.44E2,5E1,8E0,1E1,3.9E1,1E1,1.2E1,7E0,7E0,2.3E1,3.84E2,7.6E1,3.7E1,1.3E1,1.4E1,1.2E1,9E0,6E0,1.1E1,2E1,6E1,1.6E1,8E0,7E0,2.1E1,9E0,6E0],"tree_param":{"num_deleted":"0","num_feature":"21","num_nodes":"93","size_leaf_vector":"1"}},{"base_weights":[-5.8914325E-3,-6.5941364E-1,3.2638795E0,-1.2427204E0,1.9380799E-1,2.345481E0,7.942212E0,-1.5013165E0,-9.927403E-1,-2.5075233E-1,7.677237E-1,2.0313513E0,6.304947E0,6.989264E0,9.454512E-1,-1.5200273E0,-4.138309E-2,-1.140729E0,-3.34392E-1,-5.846986E-1,3.9024356E-1,5.5422676E-1,4.054874E0,-1.5158446E-1,2.4509363E0,2.6492843E-1,7.1344023E0,4.9689636E0,1.0992797E1,-1.450053E0,-1.08690575E-1,-8.9049244E-1,-1.2600694E0,-8.8633037E-1,-4.307726E-2,-6.5480256E-1,1.1157397E0,-1.8999031E-1,1.5337709E0,2.7324393E-1,2.4921145E0,1.6961205E-1,4.2255536E-1,-1.0276212E0,8.218488E-1,1.7251319E0,3.278706E0,4.698968E-1,3.49712E-1,2.6699545E0,6.1881413E0,2.3805726E-1,1.4695723E1,-1.05476886E-1,-8.281009E-2,-5.8051582E-2,2.7094632E-2,-8.22273E-2,-5.418203E-2,-8.6527206E-2,1.4291913E-2,-3.4705646E-2,4.5078788E-2,-8.2229935E-2,-3.131927E-2,-4.701794E-3,1.3920671E-1,-7.7053435E-2,3.8823402E-3,1.8285212E-1,6.39658E-2,6.3106925E-3,6.983789E-2,1.625253E-1,8.879196E-2,-9.3566485E-2,-3.333444E-2,-3.036434E-3,1.01638764E-1,8.164223E-2,3.6988127E-1,1.7467494E-1,2.6669893E-1,2.2439618E-1,1.0522566E-1,4.2611763E-1,1.6322656E-1,1.0849015E0,6.77847E-1],"categories":[0,0,0,0],"categories_nodes":[9,10,18,29],"categories_segments":[0,1,2,3],"categories_sizes":[1,1,1,1],"default_left":[0,0,0,0,0,0,0,0,0,1,1,0,0,0,0,0,0,0,1,0,0,0,0,0,0,0,0,0,0,1,0,0,0,0,0,0,0,0,0,0,0,0,0,0,0,0,0,0,0,0,0,0,0,0,0,0,0,0,0,0,0,0,0,0,0,0,0,0,0,0,0,0,0,0,0,0,0,0,0,0,0,0,0,0,0,0,0,0,0],"id":11,"left_children":[1,3,5,7,9,11,13,15,17,19,21,23,25,27,-1,29,-1,31,33,35,37,39,41,43,45,-1,47,49,51,53,-1,55,57,59,61,63,65,67,69,71,73,-1,-1,75,77,79,81,-1,-1,83,85,-1,87,-1,-1,-1,-1,-1,-1,-1,-1,-1,-1,-1,-1,-1,-1,-1,-1,-1,-1,-1,-1,-1,-1,-1,-1,-1,-1,-1,-1,-1,-1,-1,-1,-1,-1,-1,-1],"loss_changes":[5.2475977E3,1.0191159E3,1.7535659E3,7.78042E1,2.1219543E2,4.2235254E2,5.0008203E2,8.263184E0,5.9861145E1,1.00258354E2,2.5332303E2,2.9108752E2,3.30744E1,4.7829517E2,0E0,1.1751709E1,0E0,1.4395691E1,1.8063335E1,3.6623146E1,1.0660394E2,1.8486111E2,7.6931854E1,4.363604E1,1.580924E2,0E0,1.0355347E1,1.08832886E2,5.0932373E2,7.1672974E0,0E0,1.9977524E1,1.435083E1,2.566993E1,3.273001E1,2.6772995E1,1.8451828E1,3.0469713E1,3.671473E1,4.462159E1,9.310394E0,0E0,0E0,6.268265E0,1.9266018E1,2.1998465E2,4.7217773E1,0E0,0E0,1.2071411E1,8.601776E1,0E0,1.344331E2,0E0,0E0,0E0,0E0,0E0,0E0,0E0,0E0,0E0,0E0,0E0,0E0,0E0,0E0,0E0,0E0,0E0,0E0,0E0,0E0,0E0,0E0,0E0,0E0,0E0,0E0,0E0,0E0,0E0,0E0,0E0,0E0,0E0,0E0,0E0,0E0],"parents":[2147483647,0,0,1,1,2,2,3,3,4,4,5,5,6,6,7,7,8,8,9,9,10,10,11,11,12,12,13,13,15,15,17,17,18,18,19,19,20,20,21,21,22,22,23,23,24,24,26,26,27,27,28,28,29,29,31,31,32,32,33,33,34,34,35,35,36,36,37,37,38,38,39,39,40,40,43,43,44,44,45,45,46,46,49,49,50,50,52,52],"right_children":[2,4,6,8,10,12,14,16,18,20,22,24,26,28,-1,30,-1,32,34,36,38,40,42,44,46,-1,48,50,52,54,-1,56,58,60,62,64,66,68,70,72,74,-1,-1,76,78,80,82,-1,-1,84,86,-1,88,-1,-1,-1,-1,-1,-1,-1,-1,-1,-1,-1,-1,-1,-1,-1,-1,-1,-1,-1,-1,-1,-1,-1,-1,-1,-1,-1,-1,-1,-1,-1,-1,-1,-1,-1,-1],"split_conditions":[7.4588066E-1,1.0492289E0,2.6096416E0,-7.58116E-1,2.5837183E-1,1.03989105E1,1.03989105E1,1.753583E1,3.2619927E0,1E-45,1E-45,1.0492289E0,8.051209E-1,3.8520155E0,9.454512E-1,1E0,-4.138309E-2,-4.1917697E-1,1E-45,1.753583E1,-3.2687873E-1,6.830452E0,2.6838706E0,1.4633455E0,1E0,2.6492843E-1,2.1845672E0,2.6838706E0,2.70739E0,1E-45,-1.08690575E-1,-3.1661117E-1,1.04358524E-1,1.00820504E-1,-6.5544045E-1,-3.9943025E-1,-4.5008937E-1,-6.862431E-1,-2.5500587E-1,1E0,1.0079032E0,1.6961205E-1,4.2255536E-1,1.6596384E-1,4.3292025E-1,2.9048576E0,3.2619927E0,4.698968E-1,3.49712E-1,2.78419E0,4.819884E0,2.3805726E-1,2.1845672E0,-1.05476886E-1,-8.281009E-2,-5.8051582E-2,2.7094632E-2,-8.22273E-2,-5.418203E-2,-8.6527206E-2,1.4291913E-2,-3.4705646E-2,4.5078788E-2,-8.2229935E-2,-3.131927E-2,-4.701794E-3,1.3920671E-1,-7.7053435E-2,3.8823402E-3,1.8285212E-1,6.39658E-2,6.3106925E-3,6.983789E-2,1.625253E-1,8.879196E-2,-9.3566485E-2,-3.333444E-2,-3.036434E-3,1.01638764E-1,8.164223E-2,3.6988127E-1,1.7467494E-1,2.6669893E-1,2.2439618E-1,1.0522566E-1,4.2611763E-1,1.6322656E-1,1.0849015E0,6.77847E-1],"split_indices":[4,0,3,3,3,6,6,6,6,18,18,0,4,3,0,9,0,4,18,6,3,6,0,4,17,0,1,0,4,18,0,3,3,4,3,4,3,3,3,15,3,0,0,3,3,4,6,0,0,3,1,0,1,0,0,0,0,0,0,0,0,0,0,0,0,0,0,0,0,0,0,0,0,0,0,0,0,0,0,0,0,0,0,0,0,0,0,0,0],"split_type":[0,0,0,0,0,0,0,0,0,1,1,0,0,0,0,0,0,0,1,0,0,0,0,0,0,0,0,0,0,1,0,0,0,0,0,0,0,0,0,0,0,0,0,0,0,0,0,0,0,0,0,0,0,0,0,0,0,0,0,0,0,0,0,0,0,0,0,0,0,0,0,0,0,0,0,0,0,0,0,0,0,0,0,0,0,0,0,0,0],"sum_hessian":[2.456E3,2.047E3,4.09E2,1.216E3,8.31E2,3.42E2,6.7E1,5.97E2,6.19E2,4.68E2,3.63E2,3.17E2,2.5E1,6E1,7E0,5.83E2,1.4E1,5.05E2,1.14E2,3.08E2,1.6E2,3.41E2,2.2E1,5.1E1,2.66E2,8E0,1.7E1,4E1,2E1,4.78E2,1.05E2,1.64E2,3.41E2,3.9E1,7.5E1,2.96E2,1.2E1,1.06E2,5.4E1,2.98E2,4.3E1,1.6E1,6E0,2.7E1,2.4E1,1.42E2,1.24E2,1E1,7E0,1.4E1,2.6E1,7E0,1.3E1,6.4E1,4.14E2,1.54E2,1E1,2.48E2,9.3E1,2.6E1,1.3E1,4.5E1,3E1,4.3E1,2.53E2,6E0,6E0,2E1,8.6E1,1.2E1,4.2E1,2.52E2,4.6E1,3.4E1,9E0,1.2E1,1.5E1,1.2E1,1.2E1,1.32E2,1E1,9.8E1,2.6E1,6E0,8E0,2E1,6E0,6E0,7E0],"tree_param":{"num_deleted":"0","num_feature":"21","num_nodes":"89","size_leaf_vector":"1"}},{"base_weights":[3.387804E-2,-5.181386E-1,3.7360525E0,-1.1543822E0,3.833667E-1,8.400865E0,2.466283E0,-1.1735089E0,1.660267E-1,2.3060954E0,-2.9762676E-3,5.789968E0,1.5745671E1,2.0864997E0,8.471009E0,-1.5177617E0,-9.6369785E-1,4.645198E-1,3.4630203E0,-1.4635311E-1,1.0125862E0,6.8644843E0,5.077361E0,6.8456167E-1,1.312491E0,1.6360217E0,4.31547E0,2.5327215E-1,6.6320276E-1,-9.074063E-2,-2.0905757E-2,-1.0258298E0,-4.3144614E-2,1.0197138E0,-7.524031E-1,3.0037947E0,4.609495E0,-5.635532E-1,1.6329545E-1,6.598522E-1,2.9476132E0,3.2772708E-1,4.9875987E-1,4.371315E0,4.3882564E-1,8.376153E-1,2.3765547E0,3.4886708E0,4.4686356E-1,-6.445997E-2,-4.1434083E-2,-5.279829E-2,7.843082E-2,7.4531086E-2,-3.8016024E-3,-9.122816E-2,4.586454E-2,1.4655358E-1,2.1249408E-1,2.2763754E-1,3.424567E-1,-6.1303563E-2,-2.0836692E-2,4.8309714E-3,2.035325E-1,1.2951669E-2,7.603209E-2,1.2777573E-1,2.3258625E-1,3.0497733E-1,2.0180416E-1,3.0716652E-2,9.049328E-2,1.1733601E-1,2.4289343E-1,1.688272E-1,3.3710036E-1],"categories":[1,2,3,4,5,6,7,2,3,4,5,6,7],"categories_nodes":[2,4],"categories_segments":[0,7],"categories_sizes":[7,6],"default_left":[0,0,1,0,1,0,0,0,0,0,0,0,0,0,0,0,0,0,0,0,0,0,0,0,0,0,0,0,0,0,0,0,0,0,0,0,0,0,0,0,0,0,0,0,0,0,0,0,0,0,0,0,0,0,0,0,0,0,0,0,0,0,0,0,0,0,0,0,0,0,0,0,0,0,0,0,0],"id":12,"left_children":[1,3,5,7,9,11,13,15,-1,17,19,21,23,25,27,29,31,33,35,37,39,41,43,-1,-1,45,47,-1,-1,-1,-1,49,51,53,55,57,59,61,63,65,67,-1,-1,69,-1,71,73,75,-1,-1,-1,-1,-1,-1,-1,-1,-1,-1,-1,-1,-1,-1,-1,-1,-1,-1,-1,-1,-1,-1,-1,-1,-1,-1,-1,-1,-1],"loss_changes":[5.087817E3,1.2426448E3,1.9092788E3,9.581604E1,6.662909E2,1.313269E3,5.7538074E2,9.049902E1,0E0,3.1845886E2,1.0838429E2,3.3846436E1,4.6212207E2,2.3793225E2,1.6514392E2,7.2978516E0,4.4643005E1,3.933689E1,4.553894E1,8.461571E1,6.1673477E1,3.511975E1,4.602997E1,0E0,0E0,1.1664545E2,1.023595E2,0E0,0E0,0E0,0E0,1.4426025E1,5.7975124E1,1.0709274E1,2.1991703E1,1.8194336E1,1.946698E1,2.743328E1,9.928415E1,2.1024277E1,8.665161E0,0E0,0E0,1.4645477E1,0E0,2.0508598E1,6.810376E1,4.175232E1,0E0,0E0,0E0,0E0,0E0,0E0,0E0,0E0,0E0,0E0,0E0,0E0,0E0,0E0,0E0,0E0,0E0,0E0,0E0,0E0,0E0,0E0,0E0,0E0,0E0,0E0,0E0,0E0,0E0],"parents":[2147483647,0,0,1,1,2,2,3,3,4,4,5,5,6,6,7,7,9,9,10,10,11,11,12,12,13,13,14,14,15,15,16,16,17,17,18,18,19,19,20,20,21,21,22,22,25,25,26,26,31,31,32,32,33,33,34,34,35,35,36,36,37,37,38,38,39,39,40,40,43,43,45,45,46,46,47,47],"right_children":[2,4,6,8,10,12,14,16,-1,18,20,22,24,26,28,30,32,34,36,38,40,42,44,-1,-1,46,48,-1,-1,-1,-1,50,52,54,56,58,60,62,64,66,68,-1,-1,70,-1,72,74,76,-1,-1,-1,-1,-1,-1,-1,-1,-1,-1,-1,-1,-1,-1,-1,-1,-1,-1,-1,-1,-1,-1,-1,-1,-1,-1,-1,-1,-1],"split_conditions":[1.0797762E0,1.0492289E0,1E-45,1.3543913E1,1E-45,2.6096416E0,5.6189156E-1,-8.2998884E-1,1.660267E-1,1.3516119E-1,1.4319481E0,-2.223847E-1,6.3659515E0,2.7225847E0,2.6838706E0,1.753583E1,1.3829308E0,1E0,2.7769709E0,1.1462608E-1,1.6596384E-1,1.5931538E0,2.310174E0,6.8456167E-1,1.312491E0,2.7769709E0,3.2619927E0,2.5327215E-1,6.6320276E-1,-9.074063E-2,-2.0905757E-2,7.70215E-1,9.8248065E-1,7.3555864E-2,5.6189156E-1,3.9185002E-1,5.76666E-1,9.8248065E-1,1E0,-3.2687873E-1,5.0469713E0,3.2772708E-1,4.9875987E-1,1.4083378E0,4.3882564E-1,2.6838706E0,4.819884E0,4.819884E0,4.4686356E-1,-6.445997E-2,-4.1434083E-2,-5.279829E-2,7.843082E-2,7.4531086E-2,-3.8016024E-3,-9.122816E-2,4.586454E-2,1.4655358E-1,2.1249408E-1,2.2763754E-1,3.424567E-1,-6.1303563E-2,-2.0836692E-2,4.8309714E-3,2.035325E-1,1.2951669E-2,7.603209E-2,1.2777573E-1,2.3258625E-1,3.0497733E-1,2.0180416E-1,3.0716652E-2,9.049328E-2,1.1733601E-1,2.4289343E-1,1.688272E-1,3.3710036E-1],"split_indices":[3,0,19,2,19,3,5,3,0,3,5,5,2,3,0,6,5,13,2,3,3,3,5,0,0,2,6,0,0,0,0,5,2,3,5,3,3,2,13,3,5,0,0,3,0,0,1,1,0,0,0,0,0,0,0,0,0,0,0,0,0,0,0,0,0,0,0,0,0,0,0,0,0,0,0,0,0],"split_type":[0,0,1,0,1,0,0,0,0,0,0,0,0,0,0,0,0,0,0,0,0,0,0,0,0,0,0,0,0,0,0,0,0,0,0,0,0,0,0,0,0,0,0,0,0,0,0,0,0,0,0,0,0,0,0,0,0,0,0,0,0,0,0,0,0,0,0,0,0,0,0,0,0,0,0,0,0],"sum_hessian":[2.489E3,2.166E3,3.23E2,1.27E3,8.96E2,6.9E1,2.54E2,1.264E3,6E0,1.5E2,7.46E2,5.1E1,1.8E1,2.39E2,1.5E1,4.78E2,7.86E2,5.8E1,9.2E1,6.54E2,9.2E1,2E1,3.1E1,1.1E1,7E0,1.99E2,4E1,6E0,9E0,4.72E2,6E0,7.36E2,5E1,4E1,1.8E1,6.6E1,2.6E1,2.79E2,3.75E2,7.8E1,1.4E1,1.1E1,9E0,2.4E1,7E0,9.6E1,1.03E2,3.2E1,8E0,6.17E2,1.19E2,3.1E1,1.9E1,3.3E1,7E0,1.2E1,6E0,3.5E1,3.1E1,1.6E1,1E1,8.6E1,1.93E2,3.66E2,9E0,4.6E1,3.2E1,8E0,6E0,1.3E1,1.1E1,6.6E1,3E1,8.4E1,1.9E1,2.5E1,7E0],"tree_param":{"num_deleted":"0","num_feature":"21","num_nodes":"77","size_leaf_vector":"1"}},{"base_weights":[7.339514E-3,-3.9714277E-1,4.726697E0,-1.1079662E0,4.8498088E-1,3.094548E0,7.3304305E0,-8.4044434E-2,-9.520943E-1,2.8386177E-3,1.5168616E0,1.5108588E0,4.4734383E0,5.829685E0,1.3274662E1,-1.0606232E0,-4.923775E-1,-1.2123732E-1,7.3147076E-1,1.0303614E0,3.0141594E0,1.0306134E0,2.3497257E-1,5.6867514E0,2.681374E0,4.434941E0,1.0359489E1,1.0880805E0,3.255314E-1,-9.250472E-2,-1.0210651E0,-1.2869789E-1,-9.605452E-1,-5.3826684E-1,1.0043776E-2,5.6882523E-2,1.9932901E0,7.9947484E-1,2.8702607E0,2.5535383E0,4.944994E0,1.3204037E0,2.4807267E-1,4.3169103E0,8.271985E0,1.690199E0,2.6664218E-1,2.830655E0,5.6499557E0,4.4638813E-1,7.74063E-1,-6.586735E-2,-4.9767222E-2,9.987325E-3,-3.377291E-2,-7.162341E-2,-3.53907E-2,-4.932547E-2,-6.3028373E-3,5.8491897E-2,-6.6232043E-3,1.2518737E-1,-2.0770105E-2,5.2946776E-2,1.6043149E-1,3.103698E-2,1.3155325E-1,1.1943633E-1,3.41727E-1,1.1937525E-1,2.1527086E-1,3.4910226E-1,2.5180975E-1,5.1311716E-2,1.6262084E-1,-5.764253E-2,1.0173803E-1,3.0789763E-1,1.1780651E-1,3.5295132E-1,6.427432E-1,2.2877984E-1,7.6346537E-3,2.254021E-1,7.805313E-2,6.5917146E-1,2.3505099E-1],"categories":[],"categories_nodes":[],"categories_segments":[],"categories_sizes":[],"default_left":[0,0,0,0,0,0,0,0,0,0,0,0,0,0,0,0,0,0,0,0,0,0,0,0,0,0,0,0,0,0,0,0,0,0,0,0,0,0,0,0,0,0,0,0,0,0,0,0,0,0,0,0,0,0,0,0,0,0,0,0,0,0,0,0,0,0,0,0,0,0,0,0,0,0,0,0,0,0,0,0,0,0,0,0,0,0,0],"id":13,"left_children":[1,3,5,7,9,11,13,-1,15,17,19,21,23,25,27,29,31,33,35,37,39,41,-1,43,45,47,49,-1,-1,-1,51,53,55,57,59,61,63,65,67,69,71,73,75,77,79,81,-1,83,85,-1,-1,-1,-1,-1,-1,-1,-1,-1,-1,-1,-1,-1,-1,-1,-1,-1,-1,-1,-1,-1,-1,-1,-1,-1,-1,-1,-1,-1,-1,-1,-1,-1,-1,-1,-1,-1,-1],"loss_changes":[4.7164326E3,1.4267437E3,8.2470996E2,6.029895E1,5.0455487E2,2.6006458E2,6.6003564E2,0E0,4.1430664E1,6.274868E1,2.3397986E2,6.444037E1,1.3605005E2,3.727572E2,5.8439966E2,1.2622498E1,2.7095207E1,3.2514053E1,8.540757E1,1.0248343E2,6.747571E1,1.0193256E1,0E0,1.2927295E2,4.480046E1,8.647601E1,9.6481445E1,0E0,0E0,0E0,9.743103E0,1.2072947E1,5.7572174E0,1.7783974E1,5.3748024E1,5.5911182E1,2.6381134E1,8.413522E1,6.4093796E1,3.5232452E1,5.6798706E0,2.0857681E1,2.372076E1,4.875998E1,6.969861E1,5.6626972E1,0E0,2.7812271E1,2.3337244E2,0E0,0E0,0E0,0E0,0E0,0E0,0E0,0E0,0E0,0E0,0E0,0E0,0E0,0E0,0E0,0E0,0E0,0E0,0E0,0E0,0E0,0E0,0E0,0E0,0E0,0E0,0E0,0E0,0E0,0E0,0E0,0E0,0E0,0E0,0E0,0E0,0E0,0E0],"parents":[2147483647,0,0,1,1,2,2,3,3,4,4,5,5,6,6,8,8,9,9,10,10,11,11,12,12,13,13,14,14,15,15,16,16,17,17,18,18,19,19,20,20,21,21,23,23,24,24,25,25,26,26,30,30,31,31,32,32,33,33,34,34,35,35,36,36,37,37,38,38,39,39,40,40,41,41,42,42,43,43,44,44,45,45,47,47,48,48],"right_children":[2,4,6,8,10,12,14,-1,16,18,20,22,24,26,28,30,32,34,36,38,40,42,-1,44,46,48,50,-1,-1,-1,52,54,56,58,60,62,64,66,68,70,72,74,76,78,80,82,-1,84,86,-1,-1,-1,-1,-1,-1,-1,-1,-1,-1,-1,-1,-1,-1,-1,-1,-1,-1,-1,-1,-1,-1,-1,-1,-1,-1,-1,-1,-1,-1,-1,-1,-1,-1,-1,-1,-1,-1],"split_conditions":[1.6673952E0,1.0492289E0,2.6838706E0,-8.73352E-1,4.2335057E-1,4.571461E0,8.160442E0,-8.4044434E-2,3.2619927E0,6.830452E0,1E0,3.905359E0,8.160442E0,6.830452E0,4.819884E0,-5.854126E-1,1E0,9.8248065E-1,-2.3487407E-1,1E0,1.03989105E1,2.7769709E0,2.3497257E-1,2.5099227E0,2.9048576E0,2.2137218E0,2.12157E0,1.0880805E0,3.255314E-1,-9.250472E-2,-1.8221611E-1,-6.0347986E-1,-7.7461827E-1,-2.3487407E-1,-4.1917697E-1,1E0,1E0,2.6838706E0,1.2198024E0,4.571461E0,1E0,1E0,2.279544E0,2.12157E0,1E0,2.12157E0,2.6664218E-1,2.1845672E0,2.70739E0,4.4638813E-1,7.74063E-1,-6.586735E-2,-4.9767222E-2,9.987325E-3,-3.377291E-2,-7.162341E-2,-3.53907E-2,-4.932547E-2,-6.3028373E-3,5.8491897E-2,-6.6232043E-3,1.2518737E-1,-2.0770105E-2,5.2946776E-2,1.6043149E-1,3.103698E-2,1.3155325E-1,1.1943633E-1,3.41727E-1,1.1937525E-1,2.1527086E-1,3.4910226E-1,2.5180975E-1,5.1311716E-2,1.6262084E-1,-5.764253E-2,1.0173803E-1,3.0789763E-1,1.1780651E-1,3.5295132E-1,6.427432E-1,2.2877984E-1,7.6346537E-3,2.254021E-1,7.805313E-2,6.5917146E-1,2.3505099E-1],"split_indices":[4,0,0,4,4,2,2,0,6,6,15,4,2,6,1,0,13,2,4,16,6,2,0,4,4,4,4,0,0,0,4,4,4,4,4,13,11,0,4,2,11,16,4,4,15,4,0,1,4,0,0,0,0,0,0,0,0,0,0,0,0,0,0,0,0,0,0,0,0,0,0,0,0,0,0,0,0,0,0,0,0,0,0,0,0,0,0],"split_type":[0,0,0,0,0,0,0,0,0,0,0,0,0,0,0,0,0,0,0,0,0,0,0,0,0,0,0,0,0,0,0,0,0,0,0,0,0,0,0,0,0,0,0,0,0,0,0,0,0,0,0,0,0,0,0,0,0,0,0,0,0,0,0,0,0,0,0,0,0,0,0,0,0,0,0,0,0,0,0,0,0,0,0,0,0,0,0],"sum_hessian":[2.47E3,2.275E3,1.95E2,1.26E3,1.015E3,1.2E2,7.5E1,4.2E2,8.4E2,6.92E2,3.23E2,5.6E1,6.4E1,6E1,1.5E1,6.79E2,1.61E2,5.91E2,1.01E2,2.44E2,7.9E1,4.7E1,9E0,3.8E1,2.6E1,4.6E1,1.4E1,9E0,6E0,4.9E1,6.3E2,9.1E1,7E1,1.42E2,4.49E2,6.6E1,3.5E1,2.17E2,2.7E1,6.4E1,1.5E1,3.4E1,1.3E1,2.5E1,1.3E1,1.7E1,9E0,2E1,2.6E1,7E0,7E0,4.18E2,2.12E2,5.4E1,3.7E1,4.1E1,2.9E1,8.4E1,5.8E1,5E1,3.99E2,1.1E1,5.5E1,1.4E1,2.1E1,1.82E2,3.5E1,2.1E1,6E0,4.3E1,2.1E1,6E0,9E0,2.6E1,8E0,7E0,6E0,1.8E1,7E0,7E0,6E0,7E0,1E1,1.2E1,8E0,6E0,2E1],"tree_param":{"num_deleted":"0","num_feature":"21","num_nodes":"87","size_leaf_vector":"1"}},{"base_weights":[-1.3749942E-2,-4.2733043E-1,3.7549813E0,-8.283532E-1,6.5270346E-1,8.252666E0,2.0177808E0,-9.403236E-1,2.4895987E-1,2.680488E-1,2.7417083E0,6.0716596E0,1.6038603E1,1.1420352E0,4.26795E0,-1.2615404E0,-7.0953727E-1,-2.0301609E-1,1.2617575E0,2.1718699E-1,2.3126653E-1,2.3009458E0,4.4787083E0,6.5352755E0,2.1904036E-1,1.1041722E0,8.3981633E-1,4.272451E-1,1.9581208E0,3.6368551E0,4.7682256E-1,-6.489874E-3,-1.2722404E0,-7.63242E-1,2.9171103E-1,-8.177995E-2,-1.04246005E-1,1.6104512E-1,8.1758326E-1,2.22157E0,1.2600642E-1,1.2814663E-2,2.4751577E0,1.9999331E-1,3.2104355E-1,5.750051E0,8.226495E0,-9.983949E-2,6.342881E-1,3.3519125E0,1.3017806E0,4.3075724E0,8.197342E-2,-8.024917E-2,-6.7356005E-2,-7.196206E-3,-4.9833637E-2,3.2069128E-2,-4.6903778E-2,-1.640494E-2,1.5696028E-2,3.0911433E-2,1.09183975E-1,2.4246699E-1,6.6361465E-2,-3.4092427E-3,3.630838E-2,1.1303552E-1,1.726788E-1,4.1417208E-1,1.5753362E-1,3.308953E-1,6.3776046E-1,1.1656655E-2,6.728354E-2,1.4368638E-1,3.1237045E-1,4.381124E-2,1.2775688E-1,2.3155415E-1,3.5569116E-1],"categories":[1,2,3,4,5,6,1,2,3,4,5,6,7,1,2,3,4,5,6,7,6],"categories_nodes":[2,11,19,33],"categories_segments":[0,6,13,20],"categories_sizes":[6,7,7,1],"default_left":[0,0,1,0,0,0,0,0,0,0,0,1,0,0,0,0,0,0,0,1,0,0,0,0,0,0,0,0,0,0,0,0,0,1,0,0,0,0,0,0,0,0,0,0,0,0,0,0,0,0,0,0,0,0,0,0,0,0,0,0,0,0,0,0,0,0,0,0,0,0,0,0,0,0,0,0,0,0,0,0,0],"id":14,"left_children":[1,3,5,7,9,11,13,15,17,19,21,23,25,27,29,31,33,35,37,39,-1,41,43,45,-1,-1,-1,47,49,51,-1,-1,53,55,57,-1,59,-1,61,63,65,-1,67,-1,-1,69,71,-1,73,75,77,79,-1,-1,-1,-1,-1,-1,-1,-1,-1,-1,-1,-1,-1,-1,-1,-1,-1,-1,-1,-1,-1,-1,-1,-1,-1,-1,-1,-1,-1],"loss_changes":[3.9098943E3,9.7938043E2,1.9342654E3,1.9913452E2,4.9089047E2,1.1612007E3,3.5100134E2,1.10134766E2,7.1299E1,9.437549E1,7.026758E1,5.5274292E1,5.0046387E1,7.453729E1,1.1456647E2,7.279846E0,4.6933563E1,1.200862E1,2.994896E1,9.251458E1,0E0,2.6802338E1,1.6272217E1,5.3364624E1,0E0,0E0,0E0,2.9949768E1,5.3350983E1,6.3085693E1,0E0,0E0,6.0857544E0,4.109546E1,1.1865724E1,0E0,6.3234553E0,0E0,1.049646E1,4.3693863E1,4.3790367E1,0E0,1.5781342E1,0E0,0E0,1.15434814E2,8.643475E1,0E0,1.3434494E1,3.10065E1,1.8801956E1,1.8269165E1,0E0,0E0,0E0,0E0,0E0,0E0,0E0,0E0,0E0,0E0,0E0,0E0,0E0,0E0,0E0,0E0,0E0,0E0,0E0,0E0,0E0,0E0,0E0,0E0,0E0,0E0,0E0,0E0,0E0],"parents":[2147483647,0,0,1,1,2,2,3,3,4,4,5,5,6,6,7,7,8,8,9,9,10,10,11,11,12,12,13,13,14,14,15,15,16,16,17,17,18,18,19,19,21,21,22,22,23,23,27,27,28,28,29,29,32,32,33,33,34,34,36,36,38,38,39,39,40,40,42,42,45,45,46,46,48,48,49,49,50,50,51,51],"right_children":[2,4,6,8,10,12,14,16,18,20,22,24,26,28,30,32,34,36,38,40,-1,42,44,46,-1,-1,-1,48,50,52,-1,-1,54,56,58,-1,60,-1,62,64,66,-1,68,-1,-1,70,72,-1,74,76,78,80,-1,-1,-1,-1,-1,-1,-1,-1,-1,-1,-1,-1,-1,-1,-1,-1,-1,-1,-1,-1,-1,-1,-1,-1,-1,-1,-1,-1,-1],"split_conditions":[1.2790426E0,1.762314E-1,1E-45,1.3706765E0,1.7792296E-1,2.969006E0,2.9048576E0,-7.58116E-1,-3.3714628E-1,2.7225847E0,8.380321E-1,1E-45,-2.223847E-1,1.3878027E0,3.8520155E0,-1.0764102E0,1E0,-8.6676973E-1,1.8608491E0,1E-45,2.3126653E-1,2.2756916E-1,1.0797762E0,2.003856E0,2.1904036E-1,1.1041722E0,8.3981633E-1,1E0,1.7882373E0,2.7225847E0,4.7682256E-1,-6.489874E-3,3.9850068E-1,1E-45,2.1845672E0,-8.177995E-2,1E0,1.6104512E-1,-2.5462082E-1,3.2619927E0,9.771006E-1,1.2814663E-2,9.8670787E-1,1.9999331E-1,3.2104355E-1,2.0491655E0,1.983343E0,-9.983949E-2,1.930685E0,1.6444916E0,2.6096416E0,4.819884E0,8.197342E-2,-8.024917E-2,-6.7356005E-2,-7.196206E-3,-4.9833637E-2,3.2069128E-2,-4.6903778E-2,-1.640494E-2,1.5696028E-2,3.0911433E-2,1.09183975E-1,2.4246699E-1,6.6361465E-2,-3.4092427E-3,3.630838E-2,1.1303552E-1,1.726788E-1,4.1417208E-1,1.5753362E-1,3.308953E-1,6.3776046E-1,1.1656655E-2,6.728354E-2,1.4368638E-1,3.1237045E-1,4.381124E-2,1.2775688E-1,2.3155415E-1,3.5569116E-1],"split_indices":[4,3,19,5,5,3,4,3,3,3,4,19,5,3,3,3,7,4,5,19,0,3,3,3,0,0,0,14,3,3,0,0,5,19,1,0,7,0,4,6,3,0,5,0,0,4,4,0,4,3,3,1,0,0,0,0,0,0,0,0,0,0,0,0,0,0,0,0,0,0,0,0,0,0,0,0,0,0,0,0,0],"split_type":[0,0,1,0,0,0,0,0,0,0,0,1,0,0,0,0,0,0,0,1,0,0,0,0,0,0,0,0,0,0,0,0,0,1,0,0,0,0,0,0,0,0,0,0,0,0,0,0,0,0,0,0,0,0,0,0,0,0,0,0,0,0,0,0,0,0,0,0,0,0,0,0,0,0,0,0,0,0,0,0,0],"sum_hessian":[2.509E3,2.261E3,2.48E2,1.649E3,6.12E2,6.9E1,1.79E2,1.494E3,1.55E2,5.17E2,9.5E1,5.4E1,1.5E1,1.29E2,5E1,6.24E2,8.7E2,1.07E2,4.8E1,5.1E2,7E0,7.6E1,1.9E1,4.5E1,9E0,6E0,9E0,6.9E1,6E1,4.3E1,7E0,6E0,6.18E2,8.26E2,4.4E1,8E0,9.9E1,1.1E1,3.7E1,2.2E1,4.88E2,6E0,7E1,9E0,1E1,3.1E1,1.4E1,6E0,6.3E1,1.9E1,4.1E1,3.3E1,1E1,3.82E2,2.36E2,9E1,7.36E2,3.6E1,8E0,6.8E1,3.1E1,2.9E1,8E0,8E0,1.4E1,3.54E2,1.34E2,3.1E1,3.9E1,2.2E1,9E0,7E0,7E0,3.4E1,2.9E1,1.3E1,6E0,2.5E1,1.6E1,2.7E1,6E0],"tree_param":{"num_deleted":"0","num_feature":"21","num_nodes":"81","size_leaf_vector":"1"}},{"base_weights":[3.5623327E-2,-4.5109764E-1,3.2248576E0,-7.795037E-1,6.1207765E-1,7.318841E0,1.9975338E0,-1.1915404E0,-5.264772E-1,2.7095952E0,1.6769406E-1,5.74075E0,1.4892806E1,1.6463975E0,7.5487905E0,-1.2901034E0,-1.0421038E0,-7.7833194E-1,-5.302924E-2,1.800376E0,2.0014381E-1,1.1945699E-2,2.8442285E0,7.590413E0,4.4245915E0,9.630405E-1,7.7774936E-1,1.157311E0,3.533767E0,1.8667628E-1,6.1687934E-1,-7.75618E-2,-1.3353769E-2,-6.8093516E-2,-4.4982597E-2,1.783166E-1,-8.872467E-1,-4.1609356E-1,9.5548105E-1,2.2000591E-1,1.4271545E0,-5.353443E-2,7.954313E-1,2.6015434E-1,2.2694912E0,2.8909642E-1,9.535328E0,3.8659241E0,4.2688695E-1,1.0137604E0,2.1338398E0,2.4485168E0,5.3746147E0,-2.8262122E-2,3.9875954E-2,-6.0097035E-2,-2.918221E-2,-4.0099416E-2,3.2536008E-3,1.4719012E-1,3.482934E-2,3.6674622E-2,1.4448567E-1,-4.8619173E-2,-2.1593456E-4,-5.9613776E-3,9.782289E-2,1.718412E-1,6.2119965E-2,7.2060215E-1,4.2271456E-1,2.9600027E-1,1.4562769E-1,5.025756E-2,8.756194E-2,5.6337003E-2,2.0699036E-1,9.0233095E-2,2.758375E-1,4.234931E-1,2.4827074E-1],"categories":[1,2,3,4,5,6,7,1,2,3,4,5,6,7,0,6,7],"categories_nodes":[2,4,8,17],"categories_segments":[0,7,14,15],"categories_sizes":[7,7,1,2],"default_left":[0,0,1,0,1,0,0,0,1,0,0,0,0,0,0,0,0,1,0,0,0,0,0,0,0,0,0,0,0,0,0,0,0,0,0,0,0,0,0,0,0,0,0,0,0,0,0,0,0,0,0,0,0,0,0,0,0,0,0,0,0,0,0,0,0,0,0,0,0,0,0,0,0,0,0,0,0,0,0,0,0],"id":15,"left_children":[1,3,5,7,9,11,13,15,17,19,21,23,25,27,29,31,33,35,37,39,-1,41,43,45,47,-1,-1,49,51,-1,-1,-1,-1,-1,-1,53,55,57,59,-1,61,63,65,-1,67,-1,69,71,-1,73,75,77,79,-1,-1,-1,-1,-1,-1,-1,-1,-1,-1,-1,-1,-1,-1,-1,-1,-1,-1,-1,-1,-1,-1,-1,-1,-1,-1,-1,-1],"loss_changes":[3.8692136E3,7.549597E2,1.6549209E3,1.7170117E2,4.7455215E2,8.986582E2,4.918886E2,8.49939E0,1.2186191E2,5.23667E1,1.7468195E2,1.4829077E2,1.2129883E1,2.190838E2,1.8401953E2,7.2893066E0,7.023712E0,6.982205E1,1.302308E2,2.5405678E1,0E0,2.0640778E1,1.8052765E1,1.3074011E2,5.29494E1,0E0,0E0,2.5610245E1,9.503937E1,0E0,0E0,0E0,0E0,0E0,0E0,2.2146711E1,2.9680542E1,3.2384533E1,5.188524E1,0E0,2.5237175E1,1.3808054E1,2.4280819E1,0E0,1.1835274E1,0E0,8.4959595E1,4.6634247E1,0E0,1.2004013E1,3.7233086E1,6.1268784E1,3.3084778E1,0E0,0E0,0E0,0E0,0E0,0E0,0E0,0E0,0E0,0E0,0E0,0E0,0E0,0E0,0E0,0E0,0E0,0E0,0E0,0E0,0E0,0E0,0E0,0E0,0E0,0E0,0E0,0E0],"parents":[2147483647,0,0,1,1,2,2,3,3,4,4,5,5,6,6,7,7,8,8,9,9,10,10,11,11,12,12,13,13,14,14,15,15,16,16,17,17,18,18,19,19,21,21,22,22,23,23,24,24,27,27,28,28,35,35,36,36,37,37,38,38,40,40,41,41,42,42,44,44,46,46,47,47,49,49,50,50,51,51,52,52],"right_children":[2,4,6,8,10,12,14,16,18,20,22,24,26,28,30,32,34,36,38,40,-1,42,44,46,48,-1,-1,50,52,-1,-1,-1,-1,-1,-1,54,56,58,60,-1,62,64,66,-1,68,-1,70,72,-1,74,76,78,80,-1,-1,-1,-1,-1,-1,-1,-1,-1,-1,-1,-1,-1,-1,-1,-1,-1,-1,-1,-1,-1,-1,-1,-1,-1,-1,-1,-1],"split_conditions":[1.0797762E0,1.6596384E-1,1E-45,-7.58116E-1,1E-45,2.969006E0,5.6189156E-1,3.9033112E-1,1E-45,4.1238514E-1,8.805798E-2,-2.223847E-1,2.02424E0,2.7225847E0,1.2851272E0,1E0,-8.402564E-1,1E-45,-4.6035692E-1,-2.223847E-1,2.0014381E-1,4.819884E0,2.310174E0,1.5931538E0,2.1065314E0,9.630405E-1,7.7774936E-1,1E0,1E0,1.8667628E-1,6.1687934E-1,-7.75618E-2,-1.3353769E-2,-6.8093516E-2,-4.4982597E-2,-3.3714628E-1,-8.5845655E-3,-6.5544045E-1,-2.223847E-1,2.2000591E-1,1E0,1E0,6.69074E-1,2.6015434E-1,4.637229E-1,2.8909642E-1,2.1065314E0,1.4083378E0,4.2688695E-1,1E0,1.6444916E0,4.819884E0,1E0,-2.8262122E-2,3.9875954E-2,-6.0097035E-2,-2.918221E-2,-4.0099416E-2,3.2536008E-3,1.4719012E-1,3.482934E-2,3.6674622E-2,1.4448567E-1,-4.8619173E-2,-2.1593456E-4,-5.9613776E-3,9.782289E-2,1.718412E-1,6.2119965E-2,7.2060215E-1,4.2271456E-1,2.9600027E-1,1.4562769E-1,5.025756E-2,8.756194E-2,5.6337003E-2,2.0699036E-1,9.0233095E-2,2.758375E-1,4.234931E-1,2.4827074E-1],"split_indices":[3,3,19,3,19,3,5,5,18,3,5,5,5,3,3,16,3,19,3,5,0,1,5,3,3,0,0,7,16,0,0,0,0,0,0,3,3,3,5,0,7,14,3,0,3,0,3,3,0,16,3,1,15,0,0,0,0,0,0,0,0,0,0,0,0,0,0,0,0,0,0,0,0,0,0,0,0,0,0,0,0],"split_type":[0,0,1,0,1,0,0,0,1,0,0,0,0,0,0,0,0,1,0,0,0,0,0,0,0,0,0,0,0,0,0,0,0,0,0,0,0,0,0,0,0,0,0,0,0,0,0,0,0,0,0,0,0,0,0,0,0,0,0,0,0,0,0,0,0,0,0,0,0,0,0,0,0,0,0,0,0,0,0,0,0],"sum_hessian":[2.492E3,2.162E3,3.3E2,1.652E3,5.1E2,7.6E1,2.54E2,6.28E2,1.024E3,8.9E1,4.21E2,6.3E1,1.3E1,2.39E2,1.5E1,3.77E2,2.51E2,6.68E2,3.56E2,3.8E1,5.1E1,3.98E2,2.3E1,2.6E1,3.7E1,7E0,6E0,1.9E2,4.9E1,6E0,9E0,3.7E2,7E0,1.81E2,7E1,6.8E1,6E2,2.62E2,9.4E1,6E0,3.2E1,3.67E2,3.1E1,6E0,1.7E1,1.1E1,1.5E1,3.1E1,6E0,1.66E2,2.4E1,3.1E1,1.8E1,2.9E1,3.9E1,4.53E2,1.47E2,1.69E2,9.3E1,1.8E1,7.6E1,1.8E1,1.4E1,2.2E1,3.45E2,1.5E1,1.6E1,1.1E1,6E0,7E0,8E0,1.7E1,1.4E1,1.23E2,4.3E1,1.3E1,1.1E1,2.2E1,9E0,7E0,1.1E1],"tree_param":{"num_deleted":"0","num_feature":"21","num_nodes":"81","size_leaf_vector":"1"}},{"base_weights":[5.4229487E-2,-3.9427653E-1,3.169606E0,-8.9626783E-1,2.8205928E-1,7.317934E0,2.1047678E0,-1.1342024E0,-7.3868024E-1,1.6988716E0,1.6623117E-2,5.4565096E0,9.493048E-1,1.748808E0,5.3747315E0,-8.652838E-1,-1.2031505E0,-8.3472914E-1,-3.005396E-1,4.438906E-1,2.7560573E0,-8.9664616E-2,8.1252867E-1,4.415661E0,6.7437496E0,1.490701E0,4.2392972E-1,3.4961576E0,4.4676954E-1,-7.028583E-2,-3.679654E-2,4.8862206E-4,-7.243645E-2,6.786648E-3,-8.641952E-1,-3.2749884E-2,2.5268512E-2,-4.8652017E-1,9.1577846E-1,3.2146733E0,2.0836642E0,-2.2441018E-1,3.527294E-1,5.1341814E-1,2.9393154E-1,4.9439073E0,1.3731223E-1,6.485212E-1,5.2147923E0,1.1810672E0,2.8116696E0,3.3446273E-1,9.3854025E-2,-7.810212E-2,-4.8767056E-2,5.6799963E-2,-1.743502E-2,4.5904253E-2,-6.487995E-2,4.1797955E-2,1.0023252E-1,1.7407261E-1,2.7713645E-1,5.0334625E-2,1.722561E-1,-3.8604025E-2,2.5553226E-3,-2.0250095E-2,5.2979857E-2,1.2374584E-2,1.4957547E-1,2.1737237E-1,3.722541E-1,4.375282E-1,2.1539055E-1,6.216085E-2,1.7180403E-1,2.1251337E-1,-9.067063E-2],"categories":[1,2,3,4,5,6,7,2,3,4,5,6,7,0,0,6,0,0],"categories_nodes":[2,4,13,17,21,38],"categories_segments":[0,7,13,14,16,17],"categories_sizes":[7,6,1,2,1,1],"default_left":[0,0,1,0,1,0,0,0,0,0,0,0,0,1,0,0,0,1,0,0,0,1,0,0,0,0,0,0,0,0,0,0,0,0,0,0,0,0,1,0,0,0,0,0,0,0,0,0,0,0,0,0,0,0,0,0,0,0,0,0,0,0,0,0,0,0,0,0,0,0,0,0,0,0,0,0,0,0,0],"id":16,"left_children":[1,3,5,7,9,11,13,15,17,19,21,23,-1,25,27,29,31,33,35,37,39,41,43,45,47,49,-1,51,-1,-1,-1,-1,-1,-1,53,-1,55,57,59,61,63,65,67,69,-1,71,-1,-1,73,75,77,-1,-1,-1,-1,-1,-1,-1,-1,-1,-1,-1,-1,-1,-1,-1,-1,-1,-1,-1,-1,-1,-1,-1,-1,-1,-1,-1,-1],"loss_changes":[3.4312322E3,7.288084E2,1.361633E3,4.5605164E1,3.4324515E2,1.0113845E3,2.8383728E2,8.427551E0,3.0882172E1,1.9011835E2,6.5358025E1,6.497754E1,0E0,3.0688312E2,9.338379E1,7.357437E0,9.661011E0,1.7233337E1,1.1176859E1,2.9147346E1,2.217981E1,4.044491E1,1.11279816E2,2.948529E1,1.4059412E2,8.539505E1,0E0,5.1077713E1,0E0,0E0,0E0,0E0,0E0,0E0,1.0281311E1,0E0,1.7531307E1,1.7070602E1,6.423519E0,1.5681915E1,3.1376968E1,5.975035E1,5.964476E1,5.1272827E1,0E0,3.5301147E1,0E0,0E0,5.387323E1,3.763414E1,1.3584079E2,0E0,0E0,0E0,0E0,0E0,0E0,0E0,0E0,0E0,0E0,0E0,0E0,0E0,0E0,0E0,0E0,0E0,0E0,0E0,0E0,0E0,0E0,0E0,0E0,0E0,0E0,0E0,0E0],"parents":[2147483647,0,0,1,1,2,2,3,3,4,4,5,5,6,6,7,7,8,8,9,9,10,10,11,11,13,13,14,14,15,15,16,16,17,17,18,18,19,19,20,20,21,21,22,22,23,23,24,24,25,25,27,27,34,34,36,36,37,37,38,38,39,39,40,40,41,41,42,42,43,43,45,45,48,48,49,49,50,50],"right_children":[2,4,6,8,10,12,14,16,18,20,22,24,-1,26,28,30,32,34,36,38,40,42,44,46,48,50,-1,52,-1,-1,-1,-1,-1,-1,54,-1,56,58,60,62,64,66,68,70,-1,72,-1,-1,74,76,78,-1,-1,-1,-1,-1,-1,-1,-1,-1,-1,-1,-1,-1,-1,-1,-1,-1,-1,-1,-1,-1,-1,-1,-1,-1,-1,-1,-1],"split_conditions":[1.1311139E0,1.0492289E0,1E-45,-8.094537E-1,1E-45,2.969006E0,3.3386378E0,-5.854126E-1,3.2619927E0,2.3783672E-1,1E0,1.6444916E0,9.493048E-1,1E-45,1E0,-9.737346E-1,-9.840022E-1,1E-45,-6.5544045E-1,-3.3714628E-1,1E0,1E-45,1.03989105E1,1.4083378E0,1E0,2.4042904E0,4.2392972E-1,2.6838706E0,4.4676954E-1,-7.028583E-2,-3.679654E-2,4.8862206E-4,-7.243645E-2,6.786648E-3,-5.854126E-1,-3.2749884E-2,-6.143702E-1,6.830452E0,1E-45,1.03989105E1,1E0,1.4542875E-1,-5.527649E-1,2.6838706E0,2.9393154E-1,1E0,1.3731223E-1,6.485212E-1,1.9422506E0,6.830452E0,2.969006E0,3.3446273E-1,9.3854025E-2,-7.810212E-2,-4.8767056E-2,5.6799963E-2,-1.743502E-2,4.5904253E-2,-6.487995E-2,4.1797955E-2,1.0023252E-1,1.7407261E-1,2.7713645E-1,5.0334625E-2,1.722561E-1,-3.8604025E-2,2.5553226E-3,-2.0250095E-2,5.2979857E-2,1.2374584E-2,1.4957547E-1,2.1737237E-1,3.722541E-1,4.375282E-1,2.1539055E-1,6.216085E-2,1.7180403E-1,2.1251337E-1,-9.067063E-2],"split_indices":[3,0,19,3,19,3,3,0,6,3,15,3,0,18,16,3,3,19,3,3,9,18,6,3,17,3,0,0,0,0,0,0,0,0,0,0,3,6,18,6,7,3,3,0,0,16,0,0,3,6,3,0,0,0,0,0,0,0,0,0,0,0,0,0,0,0,0,0,0,0,0,0,0,0,0,0,0,0,0],"split_type":[0,0,1,0,1,0,0,0,0,0,0,0,0,1,0,0,0,1,0,0,0,1,0,0,0,0,0,0,0,0,0,0,0,0,0,0,0,0,1,0,0,0,0,0,0,0,0,0,0,0,0,0,0,0,0,0,0,0,0,0,0,0,0,0,0,0,0,0,0,0,0,0,0,0,0,0,0,0,0],"sum_hessian":[2.455E3,2.146E3,3.09E2,1.232E3,9.14E2,6.3E1,2.46E2,4.9E2,7.42E2,1.44E2,7.7E2,5.2E1,1.1E1,2.22E2,2.4E1,1.01E2,3.89E2,6.08E2,1.34E2,6.6E1,7.8E1,6.79E2,9.1E1,2.9E1,2.3E1,2.12E2,1E1,1.3E1,1.1E1,4.3E1,5.8E1,6E0,3.83E2,1.8E1,5.9E2,7.6E1,5.8E1,2.2E1,4.4E1,4.6E1,3.2E1,5.21E2,1.58E2,8.5E1,6E0,2.3E1,6E0,6E0,1.7E1,1.72E2,4E1,6E0,7E0,4.8E1,5.42E2,1.5E1,4.3E1,7E0,1.5E1,3.5E1,9E0,3.9E1,7E0,1.3E1,1.9E1,2.01E2,3.2E2,6.9E1,8.9E1,7.4E1,1.1E1,1.2E1,1.1E1,7E0,1E1,1.6E2,1.2E1,3.4E1,6E0],"tree_param":{"num_deleted":"0","num_feature":"21","num_nodes":"79","size_leaf_vector":"1"}},{"base_weights":[-1.3208011E-2,-4.156727E-1,2.6303303E0,-6.915174E-1,4.3955433E-1,2.0722187E0,7.300469E0,-8.0153275E-1,3.4222606E-1,1.3337326E-1,2.1970875E0,1.6206152E0,4.560014E0,5.3263803E0,8.921521E-1,-1.0733036E0,-6.122775E-1,-6.148493E-1,1.0767031E0,-6.4105284E-1,2.7483022E-1,1.8273913E0,3.2473564E0,9.059556E-1,2.477362E0,4.0781755E0,4.4922665E-1,3.477986E0,7.090688E-1,-1.0892965E0,-2.560788E-1,-6.730907E-1,3.407905E-1,-5.1136684E-2,1.44225815E-2,5.706542E-1,1.811761E0,-2.1153484E-2,-8.3786255E-1,1.2801261E-1,1.2368717E0,7.782024E-1,2.3293748E0,1.36245E-1,2.7298948E-1,7.792683E-1,2.1165858E-1,1.2380705E0,3.4199102E0,4.5053353E0,1.22362666E-1,4.0542264E-2,5.379481E0,-6.534193E-2,-1.945262E-2,6.394325E-2,-9.7026676E-2,-4.52968E-2,-2.3172764E-2,-1.3395232E-2,4.537221E-2,5.5955797E-2,-4.972509E-3,1.6662209E-1,6.849816E-2,-9.380942E-2,4.7855865E-2,-2.9871313E-2,-7.783147E-2,5.038986E-4,5.699478E-2,2.4207842E-2,9.180021E-2,-0E0,1.0780904E-1,1.8266231E-1,7.2292216E-2,5.4183893E-2,-1.9053148E-2,2.0235084E-1,5.4715965E-2,4.433848E-1,1.6749808E-1,2.3642181E-1,3.9288798E-1,2.3302235E-1,4.1292202E-1],"categories":[0],"categories_nodes":[31],"categories_segments":[0],"categories_sizes":[1],"default_left":[0,0,0,0,0,0,0,0,0,0,0,0,0,0,0,0,0,0,0,0,0,0,0,0,0,0,0,0,0,0,0,1,0,0,0,0,0,0,0,0,0,0,0,0,0,0,0,0,0,0,0,0,0,0,0,0,0,0,0,0,0,0,0,0,0,0,0,0,0,0,0,0,0,0,0,0,0,0,0,0,0,0,0,0,0,0,0],"id":17,"left_children":[1,3,5,7,9,11,13,15,17,19,21,23,25,27,-1,29,31,33,35,37,39,41,43,45,47,49,-1,51,-1,53,55,57,59,-1,-1,61,63,65,67,69,71,73,75,-1,-1,77,-1,79,81,83,-1,-1,85,-1,-1,-1,-1,-1,-1,-1,-1,-1,-1,-1,-1,-1,-1,-1,-1,-1,-1,-1,-1,-1,-1,-1,-1,-1,-1,-1,-1,-1,-1,-1,-1,-1,-1],"loss_changes":[2.6497097E3,5.1013797E2,8.541509E2,1.8609875E2,2.8291974E2,3.2818225E2,5.270171E2,7.549481E1,1.1056676E2,4.909389E1,2.8520508E1,1.513844E2,6.0675354E1,3.3788E2,0E0,7.512451E0,5.065216E1,1.4704426E1,3.2373978E1,8.1714115E0,5.3271782E1,2.9571503E1,2.3298477E1,4.4557816E1,1.3047516E2,3.1176147E1,0E0,1.151647E2,0E0,5.810608E0,2.2492893E1,2.0825226E1,1.27140045E1,0E0,0E0,1.3244389E1,2.2327217E1,2.2379179E1,7.699898E0,3.2617672E1,1.2364929E1,1.5129808E1,3.1216751E1,0E0,0E0,1.9585999E1,0E0,3.215188E1,1.5011145E2,3.060962E1,0E0,0E0,2.5455933E1,0E0,0E0,0E0,0E0,0E0,0E0,0E0,0E0,0E0,0E0,0E0,0E0,0E0,0E0,0E0,0E0,0E0,0E0,0E0,0E0,0E0,0E0,0E0,0E0,0E0,0E0,0E0,0E0,0E0,0E0,0E0,0E0,0E0,0E0],"parents":[2147483647,0,0,1,1,2,2,3,3,4,4,5,5,6,6,7,7,8,8,9,9,10,10,11,11,12,12,13,13,15,15,16,16,17,17,18,18,19,19,20,20,21,21,22,22,23,23,24,24,25,25,27,27,29,29,30,30,31,31,32,32,35,35,36,36,37,37,38,38,39,39,40,40,41,41,42,42,45,45,47,47,48,48,49,49,52,52],"right_children":[2,4,6,8,10,12,14,16,18,20,22,24,26,28,-1,30,32,34,36,38,40,42,44,46,48,50,-1,52,-1,54,56,58,60,-1,-1,62,64,66,68,70,72,74,76,-1,-1,78,-1,80,82,84,-1,-1,86,-1,-1,-1,-1,-1,-1,-1,-1,-1,-1,-1,-1,-1,-1,-1,-1,-1,-1,-1,-1,-1,-1,-1,-1,-1,-1,-1,-1,-1,-1,-1,-1,-1,-1],"split_conditions":[1.0797762E0,1.6596384E-1,2.969006E0,1.4115242E0,1.7792296E-1,5.6189156E-1,6.3659515E0,-7.58116E-1,9.8248065E-1,9.8248065E-1,1E0,1.6958294E0,6.3659515E0,3.2619927E0,8.921521E-1,4.571461E0,1E0,-2.447383E-1,-3.3714628E-1,3.6104736E-1,1E0,3.4051225E-1,1.3461678E0,1.396737E1,4.571461E0,3.4539104E0,4.4922665E-1,3.8520155E0,7.090688E-1,1.753583E1,-9.4293195E-1,1E-45,-6.5544045E-1,-5.1136684E-2,1.44225815E-2,1E0,1.8731035E0,2.5837183E-1,1E0,3.2619927E0,4.431878E-1,1E0,1.5544913E0,1.36245E-1,2.7298948E-1,8.160442E0,2.1165858E-1,1E0,1.7882373E0,2.1065314E0,1.22362666E-1,4.0542264E-2,4.571461E0,-6.534193E-2,-1.945262E-2,6.394325E-2,-9.7026676E-2,-4.52968E-2,-2.3172764E-2,-1.3395232E-2,4.537221E-2,5.5955797E-2,-4.972509E-3,1.6662209E-1,6.849816E-2,-9.380942E-2,4.7855865E-2,-2.9871313E-2,-7.783147E-2,5.038986E-4,5.699478E-2,2.4207842E-2,9.180021E-2,-0E0,1.0780904E-1,1.8266231E-1,7.2292216E-2,5.4183893E-2,-1.9053148E-2,2.0235084E-1,5.4715965E-2,4.433848E-1,1.6749808E-1,2.3642181E-1,3.9288798E-1,2.3302235E-1,4.1292202E-1],"split_indices":[3,3,3,5,5,5,2,3,2,2,8,3,2,6,0,2,7,3,3,3,16,3,5,6,2,5,0,3,0,6,3,18,3,0,0,8,5,3,16,6,3,17,5,0,0,2,0,14,3,3,0,0,2,0,0,0,0,0,0,0,0,0,0,0,0,0,0,0,0,0,0,0,0,0,0,0,0,0,0,0,0,0,0,0,0,0,0],"split_type":[0,0,0,0,0,0,0,0,0,0,0,0,0,0,0,0,0,0,0,0,0,0,0,0,0,0,0,0,0,0,0,1,0,0,0,0,0,0,0,0,0,0,0,0,0,0,0,0,0,0,0,0,0,0,0,0,0,0,0,0,0,0,0,0,0,0,0,0,0,0,0,0,0,0,0,0,0,0,0,0,0,0,0,0,0,0,0],"sum_hessian":[2.491E3,2.162E3,3.29E2,1.635E3,5.27E2,2.94E2,3.5E1,1.478E3,1.57E2,4.49E2,7.8E1,2.49E2,4.5E1,2.8E1,7E0,6.06E2,8.72E2,6.8E1,8.9E1,6.9E1,3.8E2,5.8E1,2E1,1.36E2,1.13E2,3.9E1,6E0,2.2E1,6E0,5.94E2,1.2E1,8.2E2,5.2E1,5.3E1,1.5E1,5.3E1,3.6E1,1.7E1,5.2E1,3.3E2,5E1,1.9E1,3.9E1,1.2E1,8E0,1.3E2,6E0,4.9E1,6.4E1,3.2E1,7E0,9E0,1.3E1,5.83E2,1.1E1,6E0,6E0,6.18E2,2.02E2,2.2E1,3E1,3.4E1,1.9E1,1.4E1,2.2E1,6E0,1.1E1,3.1E1,2.1E1,2.89E2,4.1E1,1.4E1,3.6E1,1.1E1,8E0,2.3E1,1.6E1,1.16E2,1.4E1,6E0,4.3E1,8E0,5.6E1,2.6E1,6E0,7E0,6E0],"tree_param":{"num_deleted":"0","num_feature":"21","num_nodes":"87","size_leaf_vector":"1"}},{"base_weights":[1.1507545E-3,1.8125654E0,-4.3984005E-1,5.3659573E0,9.967488E-1,-8.415278E-1,2.0899257E-1,4.836565E0,6.3723E-1,8.6533785E-1,3.9058306E0,-8.582316E-1,1.4918682E-1,1.5633769E0,-3.9761793E-2,4.3913527E0,6.171107E-1,4.9938074E-1,1.6951051E0,1.3038988E-1,2.9930595E-1,-7.73483E-1,-6.3479066E-2,1.2901813E0,2.1203299E-1,-2.0924416E-1,4.3398282E-1,4.8174353E0,2.600583E0,3.845704E-1,1.4086634E-1,3.280334E0,1.380046E0,-8.929838E-1,-6.2901896E-1,8.8710093E-1,2.284973E0,-1.3713899E-1,-5.8553506E-2,-3.4237906E-1,1.0072464E0,2.5400576E-1,3.37092E-1,9.885258E-2,2.324557E-1,1.3228542E-2,5.4607015E-2,4.712741E-2,3.241464E-1,5.13779E-2,1.2099062E-1,-5.6900505E-2,-2.9046237E-2,-4.579744E-2,3.527767E-2,6.336098E-2,-8.805344E-3,1.0241178E-1,1.6267537E-1,-1.1099387E-2,1.3076906E-1,8.858642E-3,-3.9206818E-2,1.0381478E-1,2.8851E-2],"categories":[1,2,3,1,2,3,4,5,6,7,0,2,6,7,3,0,0,1,2,3,4,5,6,0,2,2,2,0,2,3],"categories_nodes":[0,1,4,6,11,14,18,21,25,35,39,40],"categories_segments":[0,3,10,11,14,15,16,23,24,25,26,27],"categories_sizes":[3,7,1,3,1,1,7,1,1,1,1,3],"default_left":[1,1,0,0,1,0,1,0,0,0,0,1,0,0,1,0,0,0,1,0,0,1,0,0,0,1,0,0,0,0,0,0,0,0,0,1,0,0,0,1,1,0,0,0,0,0,0,0,0,0,0,0,0,0,0,0,0,0,0,0,0,0,0,0,0],"id":18,"left_children":[1,3,5,7,9,11,13,15,-1,17,19,21,-1,23,25,27,-1,29,31,-1,-1,33,-1,35,-1,37,39,41,43,45,-1,47,49,51,53,55,57,59,-1,61,63,-1,-1,-1,-1,-1,-1,-1,-1,-1,-1,-1,-1,-1,-1,-1,-1,-1,-1,-1,-1,-1,-1,-1,-1],"loss_changes":[1.9911349E3,1.4126825E3,5.225061E2,2.5272534E2,1.5021823E2,6.910919E1,2.5853912E2,1.9975305E2,0E0,1.14719696E2,3.0655487E1,2.1703613E1,0E0,6.3916534E1,5.1891136E1,5.598877E1,0E0,5.6100014E1,5.6367126E1,0E0,0E0,1.4770142E1,0E0,4.109143E1,0E0,2.6468306E1,7.5894646E1,2.4537964E1,1.659533E1,2.1231232E1,0E0,1.01699356E2,3.2022995E1,1.2675934E1,7.086818E1,1.4470375E1,6.158951E0,5.0918236E1,0E0,1.1480248E1,3.731742E1,0E0,0E0,0E0,0E0,0E0,0E0,0E0,0E0,0E0,0E0,0E0,0E0,0E0,0E0,0E0,0E0,0E0,0E0,0E0,0E0,0E0,0E0,0E0,0E0],"parents":[2147483647,0,0,1,1,2,2,3,3,4,4,5,5,6,6,7,7,9,9,10,10,11,11,13,13,14,14,15,15,17,17,18,18,21,21,23,23,25,25,26,26,27,27,28,28,29,29,31,31,32,32,33,33,34,34,35,35,36,36,37,37,39,39,40,40],"right_children":[2,4,6,8,10,12,14,16,-1,18,20,22,-1,24,26,28,-1,30,32,-1,-1,34,-1,36,-1,38,40,42,44,46,-1,48,50,52,54,56,58,60,-1,62,64,-1,-1,-1,-1,-1,-1,-1,-1,-1,-1,-1,-1,-1,-1,-1,-1,-1,-1,-1,-1,-1,-1,-1,-1],"split_conditions":[1E-45,1E-45,1.0492289E0,4.318512E0,1E-45,9.954932E0,1E-45,7.4552007E0,6.3723E-1,4.571461E0,2.6838706E0,1E-45,1.4918682E-1,2.7769709E0,1E-45,1E0,6.171107E-1,7.4552007E0,1E-45,1.3038988E-1,2.9930595E-1,1E-45,-6.3479066E-2,1E0,2.1203299E-1,1E-45,9.8248065E-1,2.1845672E0,4.571461E0,2.6838706E0,1.4086634E-1,2.6838706E0,6.3659515E0,2.7769709E0,9.8248065E-1,1E-45,1E0,1E0,-5.8553506E-2,1E-45,1E-45,2.5400576E-1,3.37092E-1,9.885258E-2,2.324557E-1,1.3228542E-2,5.4607015E-2,4.712741E-2,3.241464E-1,5.13779E-2,1.2099062E-1,-5.6900505E-2,-2.9046237E-2,-4.579744E-2,3.527767E-2,6.336098E-2,-8.805344E-3,1.0241178E-1,1.6267537E-1,-1.1099387E-2,1.3076906E-1,8.858642E-3,-3.9206818E-2,1.0381478E-1,2.8851E-2],"split_indices":[20,19,0,0,18,2,19,1,0,2,0,20,0,2,18,9,0,1,19,0,0,18,0,15,0,20,2,1,2,0,0,0,2,2,2,20,8,9,0,20,20,0,0,0,0,0,0,0,0,0,0,0,0,0,0,0,0,0,0,0,0,0,0,0,0],"split_type":[1,1,0,0,1,0,1,0,0,0,0,1,0,0,1,0,0,0,1,0,0,1,0,0,0,1,0,0,0,0,0,0,0,0,0,1,0,0,0,1,1,0,0,0,0,0,0,0,0,0,0,0,0,0,0,0,0,0,0,0,0,0,0,0,0],"sum_hessian":[2.492E3,4.88E2,2.004E3,9.1E1,3.97E2,1.238E3,7.66E2,8.3E1,8E0,3.8E2,1.7E1,1.232E3,6E0,1.19E2,6.47E2,7.7E1,6E0,2.64E2,1.16E2,7E0,1E1,8.83E2,3.49E2,1.05E2,1.4E1,4.77E2,1.7E2,6.2E1,1.5E1,2.49E2,1.5E1,1.9E1,9.7E1,4.82E2,4.01E2,7.5E1,3E1,4.37E2,4E1,7.2E1,9.8E1,3.9E1,2.3E1,9E0,6E0,1.92E2,5.7E1,9E0,1E1,5.5E1,4.2E1,4.12E2,7E1,3.59E2,4.2E1,6.4E1,1.1E1,1.4E1,1.6E1,4.28E2,9E0,2.8E1,4.4E1,4E1,5.8E1],"tree_param":{"num_deleted":"0","num_feature":"21","num_nodes":"65","size_leaf_vector":"1"}},{"base_weights":[-3.0672748E-2,-4.1651544E-1,1.9530143E0,-7.927118E-1,1.3428085E-1,4.121324E0,9.572571E-1,-8.614976E-1,-4.6489096E-1,1.1306527E0,-3.236158E-2,3.2983139E0,8.243953E0,4.046587E-1,1.831879E0,-9.6320975E-1,-7.277321E-1,-7.0350057E-1,7.9590946E-1,6.101762E-1,4.082757E0,-2.2288053E-1,6.2427825E-1,2.2672524E0,3.9165726E0,9.525185E0,3.3115E-1,1.4663704E-1,2.86166E0,1.386188E0,3.016094E0,-9.875403E-1,7.681605E-2,2.1794006E-1,-8.2777566E-1,-5.7932705E-2,-5.64597E-1,2.024851E-2,7.288379E-2,2.8639108E-1,1.7856443E0,3.5437995E-1,1.4876018E-1,-6.7023265E-1,1.8381874E-1,4.3502986E-1,2.807921E-1,2.6363294E0,2.8394628E-2,4.499742E0,1.2601974E0,4.316994E-1,7.330023E-1,-6.0300136E-1,3.084919E-1,2.8907663E-1,9.495622E-2,8.1598186E-1,3.1346517E0,3.3333823E-1,2.1610246E0,-6.287303E-2,-4.915622E-2,3.903337E-2,-5.898414E-2,-5.957252E-2,-3.9304666E-2,-2.251099E-2,-5.084639E-2,3.3499073E-2,-3.9878786E-2,3.9707627E-2,1.3521118E-1,-6.268012E-2,-3.1746954E-2,7.644132E-3,1.6185048E-1,2.20857E-4,7.3186085E-2,1.2341849E-1,2.9838803E-1,2.950512E-1,7.188189E-2,4.0095225E-3,1.4179504E-1,-1.1183636E-2,-7.543494E-2,2.34139E-2,-6.693186E-2,6.935937E-2,-1.3356157E-1,3.0113962E-1,1.3010693E-1,3.676722E-2,3.194065E-1],"categories":[1,2,3,4,5,6,2,6,7,0,1,2,3,4,5,6,7],"categories_nodes":[2,4,10,24],"categories_segments":[0,6,9,10],"categories_sizes":[6,3,1,7],"default_left":[0,0,1,0,1,0,0,0,0,0,1,0,0,0,0,0,0,0,0,0,0,0,0,0,1,0,0,0,0,0,0,0,0,0,0,0,0,0,0,0,0,0,0,0,0,0,0,0,0,0,0,0,0,0,0,0,0,0,0,0,0,0,0,0,0,0,0,0,0,0,0,0,0,0,0,0,0,0,0,0,0,0,0,0,0,0,0,0,0,0,0,0,0,0,0],"id":19,"left_children":[1,3,5,7,9,11,13,15,17,19,21,23,25,27,29,31,33,35,37,39,41,43,45,47,49,51,-1,53,55,57,59,61,-1,63,65,-1,67,-1,-1,69,71,-1,-1,73,75,77,-1,79,-1,81,83,-1,-1,85,87,-1,-1,89,91,-1,93,-1,-1,-1,-1,-1,-1,-1,-1,-1,-1,-1,-1,-1,-1,-1,-1,-1,-1,-1,-1,-1,-1,-1,-1,-1,-1,-1,-1,-1,-1,-1,-1,-1,-1],"loss_changes":[1.8993289E3,4.3078607E2,8.707018E2,2.7440613E1,1.4030211E2,4.26333E2,1.3320932E2,1.3347412E1,6.46963E1,1.8449246E2,9.0219345E1,6.53457E1,6.446875E1,1.069015E2,5.5000336E1,3.1759033E1,4.2009506E1,6.4241257E0,6.2361946E0,3.8587452E1,5.0647003E1,1.0204307E2,1.2461131E2,2.5450714E1,1.00346436E2,7.92948E1,0E0,1.8614191E1,3.848407E1,7.652815E1,6.197516E1,6.0667114E0,0E0,2.2442999E1,1.1167572E1,0E0,6.184391E0,0E0,0E0,2.1699238E1,1.1280418E1,0E0,0E0,1.3414955E1,4.0047623E1,5.3169518E1,0E0,4.1251724E1,0E0,8.338635E1,1.555975E1,0E0,0E0,7.071501E0,1.5667826E1,0E0,0E0,6.417958E1,3.21438E1,0E0,1.07815765E2,0E0,0E0,0E0,0E0,0E0,0E0,0E0,0E0,0E0,0E0,0E0,0E0,0E0,0E0,0E0,0E0,0E0,0E0,0E0,0E0,0E0,0E0,0E0,0E0,0E0,0E0,0E0,0E0,0E0,0E0,0E0,0E0,0E0,0E0],"parents":[2147483647,0,0,1,1,2,2,3,3,4,4,5,5,6,6,7,7,8,8,9,9,10,10,11,11,12,12,13,13,14,14,15,15,16,16,17,17,18,18,19,19,20,20,21,21,22,22,23,23,24,24,25,25,27,27,28,28,29,29,30,30,31,31,33,33,34,34,36,36,39,39,40,40,43,43,44,44,45,45,47,47,49,49,50,50,53,53,54,54,57,57,58,58,60,60],"right_children":[2,4,6,8,10,12,14,16,18,20,22,24,26,28,30,32,34,36,38,40,42,44,46,48,50,52,-1,54,56,58,60,62,-1,64,66,-1,68,-1,-1,70,72,-1,-1,74,76,78,-1,80,-1,82,84,-1,-1,86,88,-1,-1,90,92,-1,94,-1,-1,-1,-1,-1,-1,-1,-1,-1,-1,-1,-1,-1,-1,-1,-1,-1,-1,-1,-1,-1,-1,-1,-1,-1,-1,-1,-1,-1,-1,-1,-1,-1,-1],"split_conditions":[7.4588066E-1,1.0492289E0,1E-45,7.8655404E-1,1E-45,2.78419E0,1.930685E0,-6.965107E-1,9.8248065E-1,2.7769709E0,1E-45,1.048664E0,3.4972596E0,2.4042904E0,6.3659515E0,6.3659515E0,-7.482893E-1,-8.094537E-1,1.2195399E0,1E0,1E0,1.00820504E-1,1.0079032E0,1.4083378E0,1E-45,1E0,3.3115E-1,8.382342E-2,4.571461E0,3.905359E0,8.160442E0,3.821616E-1,7.681605E-2,-2.223847E-1,-2.3487407E-1,-5.7932705E-2,-8.075295E-1,2.024851E-2,7.288379E-2,1E0,1.1462608E-1,3.5437995E-1,1.4876018E-1,-1.8313298E-1,8.805798E-2,-3.2687873E-1,2.807921E-1,1.0797762E0,2.8394628E-2,2.5099227E0,2.209207E0,4.316994E-1,7.330023E-1,-1.4206277E-1,2.209207E0,2.8907663E-1,9.495622E-2,4.318512E0,1.5315485E0,3.3333823E-1,2.6838706E0,-6.287303E-2,-4.915622E-2,3.903337E-2,-5.898414E-2,-5.957252E-2,-3.9304666E-2,-2.251099E-2,-5.084639E-2,3.3499073E-2,-3.9878786E-2,3.9707627E-2,1.3521118E-1,-6.268012E-2,-3.1746954E-2,7.644132E-3,1.6185048E-1,2.20857E-4,7.3186085E-2,1.2341849E-1,2.9838803E-1,2.950512E-1,7.188189E-2,4.0095225E-3,1.4179504E-1,-1.1183636E-2,-7.543494E-2,2.34139E-2,-6.693186E-2,6.935937E-2,-1.3356157E-1,3.0113962E-1,1.3010693E-1,3.676722E-2,3.194065E-1],"split_indices":[4,0,19,5,19,3,4,3,2,2,18,4,4,3,2,2,4,3,5,7,7,4,3,3,19,16,0,3,2,4,2,5,0,5,4,0,4,0,0,11,3,0,0,3,5,3,0,3,0,4,3,0,0,3,3,0,0,0,3,0,0,0,0,0,0,0,0,0,0,0,0,0,0,0,0,0,0,0,0,0,0,0,0,0,0,0,0,0,0,0,0,0,0,0,0],"split_type":[0,0,1,0,1,0,0,0,0,0,1,0,0,0,0,0,0,0,0,0,0,0,0,0,1,0,0,0,0,0,0,0,0,0,0,0,0,0,0,0,0,0,0,0,0,0,0,0,0,0,0,0,0,0,0,0,0,0,0,0,0,0,0,0,0,0,0,0,0,0,0,0,0,0,0,0,0,0,0,0,0,0,0,0,0,0,0,0,0,0,0,0,0,0,0],"sum_hessian":[2.482E3,2.078E3,4.04E2,1.235E3,8.43E2,1.27E2,2.77E2,1.02E3,2.15E2,1.21E2,7.22E2,1.06E2,2.1E1,1.7E2,1.07E2,5.78E2,4.42E2,1.81E2,3.4E1,1.03E2,1.8E1,5.6E2,1.62E2,4E1,6.6E1,1.4E1,7E0,1.54E2,1.6E1,7.8E1,2.9E1,5.72E2,6E0,4.2E1,4E2,6E1,1.21E2,1.7E1,1.7E1,8.1E1,2.2E1,8E0,1E1,2.67E2,2.93E2,1.55E2,7E0,3.3E1,7E0,